#define  __ROI_STARTX  30 
#define  __ROI_STARTY  71 
#define  __ROI_WIDTH  100 
#define  __ROI_HEIGHT  37 
#define  __FILTER_SIZE  3 
#define  __FILTER_STRIDE  2 
#define  __LAYER0_CHANNEL  16 
#define  __LAYER0_X  49 
#define  __LAYER0_Y  18 
#define  __DNN1NODE 35 
#define  __DNN2NODE 5

const  int  gnL1f[16][3][3] = { 
{{-153760, -125335, 64119}, {-19723, 179000, -78405}, {-17044, -46543, 34142}}, 
{{-131157, -37274, 196890}, {263325, 62359, 153897}, {177598, 46861, 266355}}, 
{{139121, 81206, 276878}, {-47128, -59846, 150699}, {135551, 66222, 265104}}, 
{{166744, 145077, 151188}, {165068, 233866, -36191}, {227367, 228692, -3697}}, 
{{-148839, -169300, 123638}, {18316, -20853, 156447}, {89299, -107008, -47646}}, 
{{118102, 27014, -11516}, {-198495, 106994, -181045}, {-34119, -16450, 59659}}, 
{{275290, 129328, 89258}, {273208, 268630, 45523}, {123979, 203197, -62615}}, 
{{173268, 207223, 51433}, {-96544, 209219, 191679}, {76622, 107709, 121309}}, 
{{-107251, -144499, -13716}, {-127043, -144812, 121864}, {4293, 114719, 171079}}, 
{{-20946, 168664, -8551}, {-40763, 139568, -112724}, {60207, -168415, -121150}}, 
{{-151377, -73251, 36103}, {136759, -147372, 128178}, {-116286, 2925, 94350}}, 
{{-103796, 3851, 93481}, {72978, 89279, 233930}, {126737, 44896, 69755}}, 
{{-54697, -188111, -9119}, {25211, -77811, 166107}, {-138874, 119723, -155913}}, 
{{170697, 105726, 134271}, {221640, 247009, 131589}, {179383, 89559, 244420}}, 
{{253911, 222907, -11964}, {49915, -52684, 258616}, {50622, 3589, 49043}}, 
{{-204646, 115967, -81169}, {88040, -110498, -3187}, {-177141, 104655, 152573}} 
}; 

const  int  gnL1fbias[16] = {0, -28411, -40333, -42993, 66306, 79928, -54795, -39312, 73279, 62349, 57196, -25758, 0, -38759, -48314, 72502}; 

const  int  gnDNN1w[3456][35] = { 
{33993, 37767, -15508, 40038, -11389, 33445, -6083, -3187, -2371, -8762, 4206, 6849, -33646, 23141, 52, -36870, -14610, -10633, 9950, 18048, 23098, -7445, 4554, 17780, 40863, -29321, -7389, -15009, 9818, -4325, -1777, -2423, -28032, -30810, -29254},
{27473, 32745, -41765, -18695, -25545, -44686, -97, -35205, -951, 30897, -27754, 7614, -9947, -17420, -124, -17284, -36342, -9194, -16742, 6840, -9049, 12394, -42549, 36851, -35074, 480, -2767, -42425, 35779, 534, -23858, 25851, -18793, 22337, 43053},
{-13641, 32245, -18408, -41410, -16736, -23128, 29619, 34734, -11179, -10597, -17773, -47379, -42643, -30900, -34060, -6344, -39762, -35416, -8433, 14135, -9547, 5347, -18960, 10635, 6621, 25997, -44794, -23860, -13529, -16117, -24600, -23434, -11741, -45508, -10129},
{-5662, -11252, -34454, -15877, 17633, 21289, -21758, 23278, -14259, -45789, -45388, -8306, 19819, -17193, -30366, 12551, -32732, -23735, -39617, 13462, -38524, -15584, -21955, -14104, 31003, -7659, 20120, -38757, 20177, 32979, 16298, -30359, -20192, -18817, 41278},
{-5490, -3406, 26528, 3579, -36987, 4406, 6916, -28410, -7660, 52041, -30964, -21772, 43856, 3308, -39719, 8572, 47710, -12526, 26839, -16925, -25867, 2380, 10091, 32374, -39544, 29938, -22306, 359, 7168, -14418, 15621, 1813, 29146, -19691, -46035},
{26016, -40505, 9939, -8870, 33452, 80345, -25443, -33419, -73533, 29046, -16300, -27382, 71767, 80295, -35540, 25604, 46618, -8468, -13018, 28503, 39284, 88645, 37953, -39462, -1572, -1951, 40434, -8028, -65223, -40375, -10617, -10693, -29507, 5288, -4588},
{-7486, -25988, 34711, -25675, -25442, 15532, -4151, 3796, 33950, -33481, -34256, -11625, -9091, 22843, 37741, 33078, -7438, -17443, 17021, -28775, -12674, 6424, 12341, -33005, 1429, 31106, 9572, 17600, 11191, 8706, -37508, 10329, 35137, -12347, 5876},
{-13857, -40434, 27245, 20298, -35536, -18775, -4805, 7898, 23322, -19154, 33366, 15185, -44017, -12352, -4507, 20755, -17233, -25699, -758, 33412, -36030, 17927, 968, 35513, 34327, 35354, -40329, 554, -7414, -19134, 3431, 13617, -9513, 35870, -6416},
{-28112, -12655, 70988, -37156, 31085, 21750, -8706, 8855, -38938, 31779, -9256, -26256, 47694, 83718, 27062, -29054, 13155, -5530, -21193, -40676, 6622, -13785, 25758, 14554, 11505, 4238, -37722, -18190, -19304, 19241, 15541, 29792, 14654, 28183, -42607},
{15958, 10279, -6803, -37730, 15007, 123416, 4358, -488, -27829, 5706, -18154, -2517, 58607, 77924, 37616, 2168, 8037, 32417, 421, 37194, 1691, 47644, 22131, -15144, 15922, 29245, -8619, 33244, -62564, 37994, 31972, 27733, -36212, -29094, -1919},
{-39694, 31365, 21222, 28539, -41065, 64718, 33559, -5553, -50830, 70235, -11726, -31201, 41923, -56592, -39727, 40815, 8338, 7185, 35482, 29580, 21855, 23405, 41436, -11965, 30159, -27470, -21664, 41325, 13786, 11639, -11936, 35917, -9177, -29756, -27218},
{-25286, 37095, 11124, -24142, 10485, -29555, -27365, -28524, 17245, 10852, 20229, -3494, -27017, 8314, 19138, -20915, -2561, 31730, 14710, -5429, 1750, 23982, 2462, -11019, 7391, -39063, -15619, -29548, 34090, 29960, -17097, -6959, -29675, -3851, 27294},
{4629, 29255, 35347, 21617, 33304, -6534, -13648, -20807, -11157, -40821, -6152, -32035, 10283, -29502, 8583, 39814, -14107, 11238, -13145, 31830, -13380, 35803, 24063, -27721, 9098, 24453, -11173, -18117, 31630, -30749, -18037, 35352, -1840, 29087, 36927},
{-21447, -27906, 6247, 20806, -1717, 26030, -33955, 9581, -4021, -38205, -12463, -46834, 18867, -32135, 33063, -11171, 14471, 11307, 3640, 30219, 10483, -18242, -42467, 19433, -25598, -9515, -43963, 34196, -4971, -23201, -35572, -26354, -24274, 1613, -26844},
{32078, 11857, 24107, -9660, 20352, 24399, 34433, -10388, 51705, 2828, -16958, -10254, 25503, -1897, 29322, 13863, -41029, 597, 23783, 34566, 22850, -15522, -16495, -19521, 34627, -13130, -16980, -15498, 42574, -7485, -27799, -32410, -899, -14063, 11547},
{40519, 32112, 16519, -12579, -39659, 30978, 4948, 18967, -31635, 2044, -2342, -46203, 410, 75732, 39600, -17580, -18213, -6479, 210, 13567, -33001, -11731, 35789, 18372, -19534, 25744, -1750, 2551, -8919, 34900, -35785, -16712, 10438, 2662, -61253},
{32916, -6474, 32050, 29619, 38590, -3762, -40442, 4932, 23423, -4529, -35037, 4921, -32427, -33282, -40438, 18572, 21801, -27410, -40615, 37291, -9172, 26282, 38615, -4516, -8344, -13508, -30668, -8794, 10974, 9271, -12064, 10030, -16633, 24578, -28230},
{-11062, -8019, -7189, 12239, -9153, 4991, 22703, -9450, 1999, -28916, -41450, 12977, -21775, -39817, -29961, -19488, -39789, -28066, 29211, -20336, -29544, 25386, -36975, 16542, -31082, -21365, 3856, 14811, 56424, -28168, 9535, -37944, 32511, 18993, -29815},
{-9130, -15935, 10448, 15069, -2874, -4836, 36441, -43290, 30363, -1675, -10436, 14656, -45808, 8330, -3665, 19283, 20147, -18293, -2304, -30895, 1400, -36822, -5384, -15662, -46437, -13101, 22694, -40702, 51051, -11416, -16298, -21233, -137, 10678, -3265},
{39856, 11625, 26514, 22464, -2180, -20434, 20680, -30483, -14753, 23057, -27402, -34635, -25837, -35699, -2241, -20756, 19981, -21888, -28391, 14027, 25048, 15685, -15943, 27177, 30724, 26400, 24597, -45955, 13638, -35298, -40507, -27420, -9117, -26689, 42427},
{-442, -362, 39221, 5348, 11919, 69217, 14813, -2450, -48330, -2789, -2940, 7970, 72514, -9641, -27877, 12603, -11810, 29531, -9706, -40979, 36663, 16028, -21679, -40178, -32544, 37968, 33556, 33342, -61476, -17232, 34884, 29124, 39778, 32788, -18166},
{-44276, 20589, 22716, 8616, -10619, 65804, -38205, 24183, -54759, 20086, 16173, 19017, 56714, 16216, 14124, -37225, -14411, 41120, -485, -38168, 38902, 20354, -35999, -24878, 21060, 33079, 35018, -11722, -88291, 31213, -15856, -38128, -32188, -25961, -29394},
{-15428, 39996, -30227, -27004, -8129, 23125, -6056, -25199, -11789, -37375, 22661, -6158, -24944, -34367, -34544, 28675, -28381, -15180, 7829, -45202, -40151, -33362, -28799, 6505, -4059, -38008, -7564, -37726, 37056, 19371, -35573, 18602, -3380, -44218, -23505},
{-32528, 22378, -29673, -34706, -2484, -8793, 10272, -26171, 31652, -1043, 20069, 15187, 20585, -51507, 20026, -14165, 31845, 22247, -35582, -14662, 23342, 27008, 6168, 12426, -5575, -37626, -98, -25431, 48963, -18631, 18720, -3758, -2299, -37909, 38310},
{27695, -2012, 10783, 17220, -4043, 47914, 23849, 10188, -30059, -2193, -39245, -50492, 45512, 31267, 25423, -5253, 11232, -23636, -26650, 16311, 15869, 44541, -3603, 9971, 27297, -34523, -10249, -7773, -3841, 20565, 9379, 21431, 5974, -19418, -47796},
{26401, 16863, -38099, 33269, -27733, 73100, -38626, 35792, -113495, 78128, 16666, 21585, 46752, 2384, -1810, 42768, 51078, -38915, 29966, -23810, 8509, 85467, -19375, -27894, -19134, 10825, 26033, 2077, -65398, 5103, -3626, -15770, 34366, 16737, -26858},
{11298, -35339, -24018, 27684, -26145, 47870, 27938, -14613, -53001, -15048, -28228, -23046, 36942, 51972, -25611, 22448, 19865, 9582, -9407, -3777, -7255, -541, 31163, 22295, 6745, 9228, -19074, -8483, 17028, 5402, -23539, 40567, 37238, 33992, -8683},
{10824, 24853, -23103, 20440, -5311, -24857, -1080, -21958, 12587, -3859, 20866, 10566, -16878, -36084, -30055, 18754, 31725, 9387, -16511, -8150, 24003, -18465, 19527, -16330, -24812, 12584, 20744, -35196, 41429, -32590, 26196, -30340, -29234, 18602, -19706},
{8049, 40178, 17405, 8345, -18459, 10547, -37119, 33045, -38344, -32880, -27779, 10562, -31675, 9275, -17117, -3463, 26077, 14970, 27162, -27499, 34027, -8599, -12984, -28542, -21337, 33602, -37124, 37100, -3904, 30615, 18609, -40685, 31015, -31534, -32112},
{-12024, -1054, 13016, -15036, 25236, -37056, -33182, 17684, 28222, -39743, 7095, 21352, -10572, 13354, 30299, -46582, 24392, 9002, -15184, 33645, 21145, -22771, 27401, 41610, -41803, -32950, -40010, 2914, 37031, 33886, 24052, -8822, -24405, 13605, 47590},
{23506, 16120, -19627, -2124, 11181, 16566, 4844, 11994, -20969, -17130, 13619, -48218, 16001, -40386, -22089, -17170, -46282, 27449, -12499, 7834, -9255, 30224, -21716, -43112, 22037, -46863, -6973, 7475, -11699, -38769, 32844, 41033, -32335, 651, 12640},
{38020, 29519, 30596, -27996, -2799, 70914, 16243, -9446, -61410, 9601, -19320, 17320, 57602, 10675, -18023, 19764, -4529, -6651, 25666, -3483, -7197, 25293, 20563, -11032, -8875, -27361, -35712, -23743, -17462, 5845, 4680, -23554, 36313, -19800, -42669},
{-19209, -7370, 1293, -39214, 23822, -27573, -9561, 9254, 35909, -38686, 34779, 8459, 3642, -40436, -31024, 258, 26081, -2124, -5934, -22379, 11922, -10587, -40121, -22621, 39577, 33811, -34685, 16569, -32870, -17821, 25726, 31123, 17592, -38670, -23045},
{-34951, -35459, -4115, -11697, -15187, -33904, 24421, 28894, 17923, -47879, -31927, -18987, -18437, -4293, -30855, -25215, 6050, -2102, 31323, -41011, -23734, 9034, -24632, -5686, -29526, -26070, 2488, 12026, 29246, -34675, 1151, 21735, 4981, -5501, -27724},
{16096, 7291, 16552, -19983, 26269, -14035, -32918, -24650, 47899, -34918, -22554, -27151, 4264, 6909, 12283, 15524, 23173, -6068, 24446, -38009, -19344, -28252, -23056, 15212, -23674, -27643, 14738, -24624, 68265, 37180, 7059, 3725, 11853, -34260, -23467},
{-26764, -36251, -29843, 22968, -34628, 27158, -24828, -8649, 10237, -10554, -40539, 5967, -14209, -50304, -16396, 26907, 4208, 7860, -17510, 4255, -20799, -55325, -16668, 4138, -22695, -43552, -19082, -7991, 43310, -15134, 606, -24275, -33266, -10966, 28411},
{-15534, 4385, -1699, 41407, -28505, 33877, 10807, -6282, -7917, -15129, 25920, -16584, 8565, 47595, -7838, 23775, 28391, 35594, 5990, -7125, 19951, 30252, 20557, 41163, -16482, 7297, -22255, 20106, -55403, 38127, 14276, 22506, 20479, 41164, -11739},
{18418, -35601, -26887, -4158, 37999, 102461, 37565, 751, -56146, 39508, 33248, -49893, 108672, -22255, -34195, -35191, 20308, 6324, 8745, -1527, 31317, 55720, 25124, 24636, -11477, 12165, 36351, -16334, -89568, 17601, -2570, -11336, 6719, 15058, 31552},
{-6980, 11901, 15571, -2571, -15763, 4793, 7493, -12705, 48927, 21190, 6753, 17173, -38135, -29454, -40170, 17582, 17486, 25796, 17160, -45007, -28146, -26801, 3622, -33734, -1091, 30763, -32940, 5446, 27443, 19115, -31416, -8194, 25039, -46698, 41957},
{-19155, -32002, 13240, 17935, 10658, 17092, -33357, -27430, 33836, -45999, -25367, 7720, 6460, -44683, 38475, -19990, 23505, 2681, -46748, -9740, -21657, 18278, -29013, -22983, -13828, 23621, 11642, 15567, 33035, -39885, 12139, 21424, 36624, -8548, 24837},
{1708, -38956, -27216, 31312, -41265, -12945, 8044, 35343, 35656, -9666, 9837, 1713, 26509, 52007, 41157, 312, 54019, 26473, -37978, 35301, 28990, 61955, -27634, -16809, -40340, 35919, 41424, 4654, -19758, 19611, -36432, -7259, -2814, -9544, 24734},
{8211, 7636, -23798, -24827, 17864, 123964, 16960, 29830, -26101, 113197, -11420, -6871, 102366, 396, 21017, 41016, 4324, -29227, -29585, -42198, 41443, 79434, 22026, -9626, 12659, 30237, -7442, 6905, -94694, 25473, 15793, 30384, 3476, 31380, 57745},
{42020, 31125, -41932, -41036, 13856, -37455, 9141, 2591, 38215, -20093, -34869, -35839, -39792, 40512, 38600, 13967, -54045, -19545, 1953, -4262, -23896, -19403, 35939, 25819, 20247, 9613, 36016, -16595, -26618, 4821, 705, -16642, 22342, 28561, -11919},
{-9098, 29476, 26734, 34235, 32636, 16707, 1808, -28934, 44382, -11380, -41018, -16038, -19245, -52568, -16660, -3157, -20738, 34530, -11081, -36873, 28314, -6966, -42822, -21371, 9757, 13813, 21159, 15155, 44746, -30224, 1533, -9587, 8538, 14646, 25743},
{5517, -12325, -6056, -2963, -1356, -4233, 34632, 1582, 33800, 41114, -23634, -8946, -39895, 25996, 33908, 16539, 3075, 472, 25677, 9350, -25393, -18550, 38002, 23428, -37471, -18075, -34151, -28462, -14891, 3293, -33975, 38369, 1374, -29552, 15834},
{5149, -548, 30147, 15875, 5797, 13353, -34451, -38269, 39268, 2908, 5733, 12867, -41055, 23769, 22506, -24808, -880, 17183, 23271, -5723, -15937, -30704, 10722, 13925, -8826, 2503, 19321, 21924, 48710, -38708, 5728, -35390, 2471, 16867, 8110},
{-36990, -26927, 16017, -3467, 10531, 18388, -40823, 4552, -656, 12483, -7022, -39847, -19845, -32387, 10095, -26458, -3629, 12598, -7950, 20917, -10260, 8518, 24752, 29213, 14472, -12582, -16477, -16207, -3953, -22475, -11331, 37269, 13402, -11015, 16289},
{23560, 36110, -48842, -6870, 20304, 5527, -18595, 39486, 72797, -26911, -22571, -25405, 30528, 22978, 23370, -38269, 7195, 21120, 2932, 38366, -33020, 40914, -9340, -2113, -22593, 17960, 40683, -33221, -84111, 6584, -30162, 40991, 21058, 32000, 74851},
{-16889, -16139, 36787, -10712, 5071, 20814, 6580, 34057, 27332, 10319, 30944, 5287, -29953, 10617, 21220, -5907, 20654, 24863, 31099, 23060, -36959, -28829, 34557, -38139, 33763, -20780, -14888, 13913, -30874, -20325, -29979, -11900, -14059, 26442, -11106},
{-30701, -20080, -15816, 13709, -34570, 1786, 11317, -5026, -2660, -23875, 25843, -31132, -3230, -5980, 5448, 3499, 25849, -24765, -43048, 8615, -7642, 12755, -30629, -7622, -39956, -12657, -654, -43949, 34942, 15282, 30531, 1991, -5436, 26076, -2487},
{-34181, -14061, -29172, -26528, -12447, -11591, -35670, 18958, 57200, -44673, -37868, -41375, 12713, -1495, 25316, -44652, -10684, 31567, 33168, -914, 31752, -40198, -46153, 23124, -31293, 9160, -43518, 33148, 10265, -16054, -40737, -41189, 22570, 3328, 45459},
{-1174, -28783, 35896, -10691, -34801, -27729, -14431, -37874, 50322, -20098, 5648, -35356, -50196, 10823, 24294, -30299, 22230, -35624, -36694, -42796, -27057, -29184, 22558, 23023, 1595, -18788, -16014, -40016, -8982, -17294, -31407, 380, 8703, -11391, -12268},
{-41390, -25147, -2049, -37368, -8167, 41493, 33362, -10760, -22047, 19511, 10794, 24341, 37462, 65683, -17551, -40834, -14570, 38248, -37121, -39791, -41379, 49355, -22984, -23383, -90, -27216, 10792, 33798, 5150, 22768, 17076, 16211, -20430, 27284, -9377},
{-23822, -11067, 85645, -3297, 32307, 73972, 33420, -2146, -62654, 86809, 24530, -27406, 92075, 16792, 11233, -16639, 52780, 39982, 34188, 24900, 6247, 40051, -15449, -19815, 26738, -32001, -39889, -19003, 12447, 34001, -9864, -41036, 3679, 6819, -48109},
{1721, -16996, -35090, 14020, -7686, -23297, -3106, -43770, 52645, 12274, -13804, -40378, -13565, -2447, -33110, 29797, -48959, 16818, -44157, 2276, -28693, -27655, 1140, -14991, 8208, -34356, -22688, -12326, 23356, 16474, -17190, 34640, 4778, -27553, -2399},
{-30914, -3027, 4789, 37536, -10554, 25064, -20660, 33105, 27736, -21865, -26021, -23124, -1724, 18769, -32123, 11741, -33571, 26881, 5935, -17841, 24942, -32564, 13868, 4549, 33389, 2368, 24962, -8179, -5977, 30420, 5865, 15407, 6498, 9235, 8448},
{-6430, -25554, 34627, -30782, 13480, 71200, 5370, -25700, -79423, 13099, 25758, -34121, 82213, 81807, -19071, -9082, -3987, -5796, -39656, 34567, -30067, 52498, 13298, -211, 30457, -16471, -29961, -11396, -76963, -23327, 36129, -26782, -25613, 36189, -15724},
{-7556, 30613, 52421, 13040, 8452, 72694, -9280, -38525, -68186, 33767, -36633, 6597, 101831, 39391, -27202, 6441, 4831, -5356, -9895, -6998, 22247, 20688, -17926, -38238, 31747, 14138, -28303, 11185, -77362, 11413, -29038, 8670, 3868, -17727, -20569},
{46813, 20952, 41623, -30114, -25464, 51077, -25415, -12098, -28779, 41300, 8879, -25203, 60161, 15335, -3533, -24778, 4735, 18501, 14094, -22404, -32172, -5178, -19260, 34328, 33829, -41415, 30404, 16014, -17960, 21515, 24582, 3473, -20849, 29961, -36040},
{24714, 22170, 36796, -24975, 8026, 2269, 33338, -34345, -5294, -28344, -13522, -42949, -61591, -28682, 24453, 21128, -9670, 38741, -13971, 35002, -23965, 18025, -5886, 21286, 10305, 9717, 8997, 34836, 57314, -30152, 329, 8484, -40306, 32430, -22888},
{15143, 19004, 7945, -7102, 25426, -11743, -16696, -3814, -4524, -22524, 1857, 40051, 22183, 4657, -38969, 29994, 11552, 15860, -34139, 22183, -35367, -14294, 30553, 18386, -10077, -27446, -19790, 27141, -37592, 1644, -30289, -23051, -2099, -31962, 19725},
{17832, -9153, -14538, -19795, -38633, -4965, 2476, -10770, 8311, -10065, -32774, 8509, -32966, -18903, 29032, -13051, -33735, -40887, -24073, -16986, 38047, 25966, -18466, -21678, 5981, 19005, 22726, -23343, 32111, 27162, -10453, -29030, 896, -25841, 46489},
{-28252, 38389, 3663, -35018, 39749, 1760, 35734, -39119, 6760, -14989, -23401, 31267, 25085, -30951, -23801, 16531, -44203, -32883, -14928, -37295, 8037, -9223, 4455, 24448, -29628, -39699, 32974, -30668, 25208, -28724, -2659, -35535, -30592, -23590, 20467},
{57017, -12178, 28414, -35270, 24512, 100336, -14437, 8113, -121507, -10837, 11212, 6671, 25521, 40633, 34413, -24958, 61436, -17752, -36093, -8451, 35850, -15597, 404, -34900, 37986, -3127, -3953, -1372, -34525, 20649, 28939, 5470, -30249, -34563, -54163},
{-20758, -20631, -1503, -2926, -36053, -20295, 5195, 35102, -25657, 5985, 26325, 34435, -8654, -1905, 35557, -19455, 20339, 6867, 3890, -27114, -12398, 10487, -38530, 18623, -4825, 30844, 37173, 31428, 10491, -17565, 25685, 4483, 2629, 39814, 618},
{-30134, 22926, -774, 12881, -27223, 14509, -1613, -28899, -12988, -43454, 34735, -7469, -29495, 17468, 39122, -28098, -48806, 5627, 8128, -10468, -31421, -24614, -17156, 8982, -11418, -38933, -26533, -16430, -12291, -19770, -31896, -6518, -23626, 19861, -25698},
{36788, -5575, -8571, -2501, 9835, 10136, 17433, 17424, 37527, 21481, -32882, -13328, 11436, 20323, -14901, 33557, -12832, 14950, -2474, 21572, -40812, 10685, -31749, 10611, 3829, 14619, 28466, -21175, 31622, 12316, 15504, -31777, -27903, -28302, 3221},
{33556, 3716, -12084, 28297, -34687, -18803, 20224, 448, 11396, -40214, -4300, -18660, -39271, -20315, 34165, 30192, -3095, 11641, 9731, -4816, -21840, -37236, -2212, -27087, 2181, -1480, 5478, -41750, 52941, -38536, -18297, -39378, -31080, 25558, 22305},
{-61982, 16844, 11330, 20009, -6354, 72207, 36995, 395, -94762, 17284, 14894, -1572, 84428, 3136, 23985, -2770, 87473, 14275, -11067, -2836, -10206, 12342, -30536, -2296, -36556, -41248, 26622, 4432, -33400, -23192, 29663, 17931, -7383, -4018, 28844},
{-52084, -35328, 11188, 19762, 34567, 97876, -20208, 10460, -72821, 73341, 9185, -43250, 98336, -19503, 20346, 7817, 29886, 2972, -8674, 17752, 10465, 60227, 40476, -15475, 37509, 8389, 19343, -19373, -39598, 17348, -779, 28665, -16062, -4654, -35406},
{15961, 25068, -23897, -5791, 29190, -6382, -1527, -9483, -545, -29086, 12844, 6799, -9503, -47111, -30081, -46684, -14919, -433, -27405, -46068, -1722, 16873, -17280, -4896, -4163, -7977, 11947, -17177, -9077, -2697, 19555, 37498, 33407, 5263, -15725},
{-17701, 41197, -38344, 32691, -40440, -40813, -30308, -44041, -17504, 8922, -23123, -18256, -60790, -40826, -9261, -36341, 2994, 21990, 18689, -22574, 28345, -22363, -875, -12924, -29035, -46459, 22652, -44042, 5056, -25191, -20352, 31816, -23870, -2239, -18458},
{-38229, -5625, 67847, -13778, 272, 86820, 565, -39212, -58349, 72488, 14139, -12180, 63700, -37268, 4810, 23810, 8789, -7785, 26918, -598, -26028, 28421, -37844, -8340, -26482, 11953, -30780, 40297, -78113, 31114, 41193, 38633, -32468, -37916, 13977},
{-68451, 9712, 30867, -14972, 10533, 133355, -482, -17042, -120247, 95703, -32164, -4407, 105205, -24399, 25724, 15188, 43084, 21868, -42009, 11032, -12525, 99531, -27708, -47702, 1861, -1710, 3462, -13237, -64099, 6173, 12005, 39932, 17713, 12501, 39197},
{-74675, -24150, 52776, -11376, 26039, 67936, 28201, 38434, -88034, 33533, -36737, -48873, 97931, 10896, -12597, -17547, 15726, 4333, 8813, 34372, 26662, 5809, -27938, 9603, -3083, 8902, 33479, 23069, -69367, 25642, 16950, 35986, -35111, 27990, 13545},
{11333, 34306, 13501, 8413, 38000, -54527, 5716, -33436, 29124, 24208, -13002, -16911, -52710, -963, 40995, -28514, -15806, -10100, -12439, -30111, 18137, 22968, 4376, -24378, -4490, -28864, -3573, 33672, 55569, 12739, 460, 3515, 38820, -35782, 14736},
{37147, 23111, 24918, 33669, -35184, -36371, 4371, -29434, -37526, -2401, 25247, 15326, -35087, 10302, -961, 10849, 3426, 18904, 7327, 17509, -29567, 30843, -4599, -39972, -23178, -10695, -20052, -23140, -32373, -24276, -15105, 33142, -16207, 25046, -1816},
{-2794, -10977, -42173, 29052, -37036, 15948, -6787, -2022, 49724, -31151, 1161, 10805, -48068, -3661, 23994, 24013, -21753, -1511, 9701, 849, -35630, -51513, -1985, -9869, -20654, 25378, 5223, 23101, 438, -5232, -29742, 29856, -25706, -7955, 27382},
{22869, 39051, -40243, 30380, -8564, -16274, -39435, 15560, 11675, -16410, 7626, -21523, 16946, 16512, 21685, -43476, -31554, 9565, -35725, -11702, -5243, 25549, 26894, -27096, -41117, -37328, -16516, 13078, 59601, 8345, -27145, 39307, 15558, -25695, 24692},
{-27089, -20570, 68509, -3979, -27732, 96003, -35287, 836, -116240, 46481, -36016, 25788, 136531, -6367, 14732, 27906, 80673, -20212, 36040, -4074, -25480, 110766, -4367, 20985, -17912, 36848, -22858, 34964, -38315, -13103, -40993, 33692, -33047, -29700, -14528},
{-1273, -4863, 40945, -20426, 30026, -9267, 30327, 8647, -1024, 30553, -11461, -8978, 8784, -4071, -5188, 37885, -40106, -25351, 40253, -12892, -35151, -22246, 10061, -3644, -26910, 13688, 13128, 22646, 27727, -38575, -22117, 7928, 19948, -30420, 20209},
{25338, 34847, -7060, 30981, -22833, 17529, 30796, -35479, 48372, -3831, 19814, 1276, -46443, 19226, 39340, -2247, 2939, 6897, -44139, -18909, 23417, -8937, -14357, 4539, -18872, -23146, -25493, -41160, 47068, 28917, -11601, -39864, -4702, 17350, -9796},
{-40696, 15045, -30447, -17554, 35428, 8957, 27837, -38048, 30711, 19744, 5213, -18284, -14121, 11766, 40460, -35222, 17385, -4406, 26928, -27076, -9633, -1459, -9853, 29242, 23214, -2759, -22580, 26771, 65269, -4786, 23536, -6490, 11722, -5084, -23554},
{-15425, 14015, -35974, -30178, 10701, -14347, -18517, 1270, 23882, -16606, 17581, 14619, -59163, 20147, -24891, -31504, -9390, 21602, -27564, -10932, 16608, -47636, -17855, 15537, 19489, 6160, 19996, -17964, 26339, 25929, 26759, -15008, 33914, -32947, 31750},
{-59627, 32014, 65666, 15142, -8543, 103136, 38693, -9946, -61303, 57762, -26795, 6190, 88951, -36804, 38959, -25367, 6933, 23162, 20588, 40421, 28487, 24373, 21429, 30664, 7553, 23018, 14940, -2016, -29001, 20944, -29440, 11271, 20577, 4903, 2122},
{-33129, 11394, 68854, -34107, 1213, 119022, -28854, 35852, -83166, 79420, 22520, -18944, 140288, -24229, -1474, -8936, 110312, -16539, -28829, 16548, -37163, 57594, 12791, -26376, 9256, 27471, -31100, -26903, -84124, -23653, -38112, 39479, -29865, 24972, -45167},
{408, -34780, -25055, -35062, 11617, -52094, -21228, -19124, -2322, -35386, 28273, -13651, 8818, -36078, -28214, -4620, -15839, 17931, -13111, 1152, 22946, 9122, -13973, -16580, -32098, -32451, -25768, 8640, 12920, 743, -14161, 36463, 33035, 11218, 17516},
{-1875, 11959, 10623, 39811, 11642, -51163, 17327, -16903, 44785, -6502, -15283, -27117, -34582, 18793, -11645, -11752, -40030, 16518, 15007, -12818, 22372, -34149, -4210, -18000, -40702, -8370, 14304, 1948, 34907, -12521, -20144, -27373, -23744, -20516, 3137},
{-86694, 34603, 25653, 15802, -15733, 88328, -25596, 4524, -88222, 121498, -16043, -49514, 101051, -2835, 32521, 3556, 17254, -15386, 32326, 20808, 10888, 104763, -3149, -8417, 13667, -15113, -36829, 7623, -13747, -33442, 17937, -32760, 14548, -8583, -9724},
{25070, -9575, 36881, 10256, 22953, 134958, -36058, -34825, -68381, 57859, -11502, -21692, 115649, 13795, -12232, 14996, -22785, -19405, -8116, -19308, 31691, 56312, 11469, 19587, -15566, -1761, 9127, -24010, -87509, -24675, 12517, 21697, -6578, -40953, -46656},
{-86516, 34982, 48923, -33090, 14009, 117878, -10666, -29177, -74268, 98265, -5407, 26732, 103458, 10230, 5729, -11074, 53299, 37810, -9502, -36819, -20344, -1320, 167, -28966, 4747, -35955, -22634, -11810, -57661, 3499, 10916, 41434, 6386, -9712, -18250},
{-9050, 18090, -20890, -9991, 2354, 238, 13378, 4426, 18486, 2790, -47693, -37490, -16698, -11907, 25553, -38966, 1373, 37957, 5855, -8712, -22648, -8525, 1199, 15858, 32441, -9134, -16492, 1032, 25835, -652, 100, -11408, -24187, -21706, 5866},
{-28869, -8001, 20039, -23164, -13533, -15923, 8509, -11673, -7924, 39489, 3683, -32531, 4728, -41406, -18635, -40195, -22530, -25449, -17250, 13617, -19295, 15664, 11298, 1709, 30942, -5113, -14718, -18490, 38291, 5830, -1388, 31873, -558, 17583, 9549},
{-17579, -21562, 36714, 32749, -25877, -44796, -37836, 11125, -17209, 7652, 12226, -35528, -5170, -26018, -22239, -19529, -7686, -5255, 20083, 24382, -40668, 21203, 1720, -38856, -24144, -26795, -45358, -26606, 1118, 37546, -20754, -22412, 5741, 29298, 32978},
{3201, -7575, 24565, -38531, 8789, -49678, 21292, 28955, 26476, -48333, -22232, -11978, -21352, -1852, 14343, 15739, 18987, -14190, -1867, -43330, 13438, -53153, 18224, -31255, 11697, -42722, -21678, 18041, 15694, 9783, 8450, 24028, 20227, -24342, 11434},
{-79614, -33742, 65655, -29404, 37656, 74606, -15116, 20981, -67010, 83246, 16814, -8287, 97619, -23771, 29324, 28659, 60264, -29690, -1374, -17116, 19274, 9950, 37487, 31291, -35881, 29694, -20121, 1240, 5194, -14911, 11, -40326, 2675, -4471, -13242},
{33613, -36897, 27508, 21216, 26349, 4570, 733, 29060, 22849, 239, -36978, 34555, -38053, -27121, 11642, 19664, -14913, 14879, 16358, 2685, 25239, -36666, -33908, 22180, -25504, -31881, -39654, -15107, 26706, -41335, -4748, 5932, 15064, 23548, 3525},
{38615, -34205, -4288, -3918, 17690, 6063, -13270, 31133, 5528, 18973, -31702, -41404, -15615, 1470, -22271, 5899, 37901, -8588, 62, -12834, 23576, -29310, -23916, 21947, 19349, 25295, 8179, -32970, 40405, -25716, -28521, 34959, -21003, 24132, -31021},
{-6195, -36340, -36534, 34644, -9972, -17861, 5672, 11418, 1347, -41575, 10257, -38188, -70711, -13866, -35181, -12931, -36328, -4831, -29279, -8327, 11780, -6975, -17681, 40094, -14070, -16218, -18002, -2318, 2603, -18530, 711, 35783, 34106, 7960, 6517},
{5433, 38906, 4260, 28870, 22515, -32735, 12145, 33637, 17907, -37202, 33103, -12356, -12918, 8028, 16826, 13547, 27907, -36306, 18646, 6555, -34437, -50359, 34263, -17332, 19722, -18486, -43660, 1490, -8034, -32269, -37000, 1572, -39488, -6067, 25948},
{9182, 6966, 1390, 17840, 35620, 79705, -34765, -32493, -30918, 23880, 5187, -18717, 107781, 23038, 26741, 3306, 24510, -16639, -21443, -9443, -24571, 38830, 3803, -9924, -20439, -27277, -33408, -14360, -12887, -5396, 25064, 32269, 21539, -9041, 4044},
{-44736, -21370, -36365, -28044, -3704, 65341, 40565, 11327, -32326, 33006, 40537, -6395, 66579, -13296, 26515, 10311, 45411, 40113, 37139, 21375, 2564, 63227, -3071, -34672, 41418, -12282, 34162, 10022, -87544, -29356, -39344, 3159, 3687, 15563, 35575},
{13886, -30192, -38924, -17293, -1336, -36485, 20723, 23187, 49822, -23623, -12363, 8409, -50843, -22584, -7258, 14820, -26215, -31034, 8089, -33199, 19777, -262, -43712, -1108, 15887, -46954, -8859, 5669, 10471, -41360, -26906, -15196, -24352, -149, -26482},
{-30012, -26673, -30475, -16579, -15957, 7234, 10733, 338, 22283, -55343, -5760, -39955, -48089, 10933, -24225, 6636, -16044, -8236, 7468, 7751, 37300, -47420, -2396, 5227, 1448, -28258, -42496, -39598, 31527, 16698, 34923, -31241, -12155, 8186, -30000},
{-66793, -34448, -15589, -25832, 12528, 10233, -32870, -6346, -10676, 49283, -20918, 5497, 80296, 1132, 16587, -28472, 85638, 22344, -39205, -40393, 29387, 76035, -17552, -27433, 22290, 16939, -37120, 26001, -50139, 41372, -40440, 38342, 32459, -19136, 67584},
{16744, -18510, -30731, -36073, -40117, 76040, 15308, 36376, 11183, 36035, -3747, -30655, 7824, 25534, -41302, 33873, -66946, -8795, -3898, 17296, 30052, 37269, -21817, -35876, 12801, -5289, 5056, 6947, -82290, -24083, 45585, 14663, 25740, 37753, 9586},
{-46499, -2840, 49626, -30620, 32015, 15528, -9923, 4179, -61716, 64402, 36774, 9962, 96729, 16491, -26732, -23350, 93060, 5552, -290, -10731, -22257, 65663, -10619, 15035, -36393, 16251, -30713, -17120, -16826, 19586, -26317, 14973, 35120, 25698, -21485},
{38378, -37985, 16529, -32704, -24567, -20584, -5292, -36111, -3493, -51490, -43849, -25925, -54368, -42777, 4124, -43722, -32691, 17581, 30432, -40193, -4650, -11144, 3403, 14775, 2362, -9423, -5739, 25868, 52452, -15201, 12094, -11712, -34256, -38783, 19650},
{31574, 35286, 2523, -29943, -1638, -12815, -4027, 7727, -8352, -5901, -30138, 18427, -29196, 17881, -5402, -15866, -22920, -31147, -952, 25236, 2405, 13836, -24997, -787, -9594, -35124, 8538, 30917, -613, 37262, 5116, 13110, -19670, -25893, -2887},
{-21990, 37512, 4046, -27289, -36207, -56920, -17049, -44050, 27457, 11295, -22784, 6186, 10810, 21424, 41321, -32180, -31605, -6887, -2853, -9220, 36526, -20026, -36028, 21937, -8504, -31904, 31396, -21848, 41777, 38921, 24282, 26933, 23050, -33557, 713},
{34858, -6632, -3003, -23277, 18569, -59017, 28517, -44193, 60111, -9579, -43391, 23111, -10806, 29641, 9755, 18380, -16246, -32108, -35573, -45590, 18956, -31625, -32119, -1746, -37788, -11511, 22177, 25648, 58444, -30809, 27694, -38394, 18194, -35291, 44006},
{-64464, -36808, 2255, -8046, 20857, -1499, -37150, -3037, -39449, 31082, -35604, -25277, 80719, -24328, 37649, 11819, -11582, 8026, 19370, -23166, 13229, 60878, 31586, 787, 7921, -3481, -9837, -30847, -64931, 25019, 38231, -12779, 15521, -6100, 68650},
{-17616, 14919, -11906, 28493, -39733, -1212, 5663, 16019, 40751, 22898, -1404, 4663, 30552, -15047, 35074, -39515, -15801, 40622, -3188, -30958, 31250, 13350, -29570, -36473, -6869, -41039, 7529, -5021, 12663, -867, -15104, -12269, -17057, 16303, -17163},
{-29381, -9376, 28775, -13739, 28378, -30218, 26846, 9757, 57819, -14850, -33577, -40517, -5810, 16907, 2409, -30095, 18383, -39127, 20977, 22503, 6793, 28501, -40407, 15586, 2352, 8502, -6441, 13443, 50740, -37966, -1530, -1675, -10996, -40031, 48429},
{36561, 5337, 35251, -5176, 11316, -27994, 36507, -2197, 10355, 12348, -12752, 8645, -11160, 22333, -11651, 23114, 10935, -41316, 4534, 16632, 41029, -32295, 8787, 26187, -27574, 19873, -40175, -24911, 5543, 40517, -10850, 11902, 19453, -43529, 14473},
{-39281, -133, 41033, -39782, 19445, -51973, 34517, -19968, 25684, 18396, 13411, -30634, -29819, 27751, -18341, -39430, 4177, -694, 742, -46413, 19442, 13859, -971, 33340, 20214, 34702, 9091, -44846, 18468, -4508, -16202, 1858, 12015, 16747, -31055},
{-57638, -4662, 29693, 40531, 19232, 60264, 8395, -768, -101866, 94116, 31851, 10107, 83608, -70180, 27679, -12358, 90303, 24625, 35004, 1407, -23521, 116780, 2685, 31909, 13581, 19820, -21707, 19348, -72734, -26339, 38900, -29083, -14740, 13710, 29836},
{-87373, 27131, 22483, -38130, -3312, 78725, 11204, 12742, -49495, 34567, 40431, -23484, 100022, -26854, -954, 2812, 26486, -10471, -35732, 40663, 16149, 74860, -40703, -37940, -8541, -39802, 36243, 35903, 15036, 25411, 39936, 34294, 19030, -13604, 36047},
{-32928, -4686, -15762, 3987, 19962, -56197, -27287, -35158, 5724, -44717, 17048, 22067, -61554, -37148, -19606, -1004, -36531, 29885, 2203, 5954, -12189, -22376, 22847, 27436, 7923, -46718, -14161, 28308, 57672, 38038, -23238, -11913, -1993, -33188, 19636},
{35258, 34652, 24790, -38766, 20286, -43665, -31388, 25629, 25432, 7729, -22420, 9371, -34628, -26759, -23361, -34705, 21254, 25338, -15355, -6518, 24637, -20953, 5391, -32888, 20227, -41833, -34044, 11048, 51157, 25301, 25602, 37486, -4458, -32208, -25069},
{-96403, -35840, 18201, 19061, -20407, 112198, -33809, 38430, -92903, 117487, 11602, 30986, 140532, -32413, 33995, -3226, 95098, -32404, 30657, -12971, 14372, 124825, -18645, 22695, -7641, 36195, -26166, 30966, -97158, -39893, -2983, -28069, 18691, 1177, 61940},
{-17908, 262, 21363, 2301, -36037, 104046, 15382, 5903, -63718, 6275, 574, 13212, 29442, -6676, -16597, -22347, -6420, -13521, 13636, -31540, 33054, 34560, -24212, -25739, -33143, 8180, -27407, 1324, -55468, -15578, -11242, -37442, 9893, 13403, 27410},
{-115544, -4220, 55698, -39246, 40550, 128340, -20457, -16554, -112639, 135303, 2049, 10223, 95295, -49191, 950, -28467, 66387, 15516, -35965, 26339, -3803, 74915, 8237, -14442, 29901, 27421, 17343, 38195, -53142, 13253, -19072, -12086, -22367, -39807, 31125},
{30828, -24256, 12356, 15258, -20105, -51524, -40974, 9283, -22831, -5535, -2567, -42610, 3741, -17080, -26515, 3674, 2203, -7848, -44487, 6204, -38652, 16644, 31782, 37818, -38907, 19972, -653, 17269, 60395, 25427, 24443, -29249, 11555, 26339, 46469},
{-15235, -23661, 35365, 26774, -509, -35467, 10880, -9041, -23547, 32596, 40754, 29858, -8609, -17750, 24429, -12301, 39351, 11768, 20661, -39444, -37822, -15199, 28026, 32515, -15474, 34073, -4506, 23706, -1759, 6815, 1772, -8688, -11120, -40857, 7764},
{9192, -12351, 3128, 7912, 5528, -60211, 41045, 18950, 55509, -27834, -2436, -16739, -50504, -48805, -15530, 12516, -17475, -40802, 29996, 6712, 29046, -22755, -17675, 23870, 8501, -32134, 2813, 2844, 32213, -16312, 27991, -11127, -19451, -41294, 46386},
{-34411, -30235, 11342, 15797, 20493, -53188, -40857, -14586, 6078, -56337, -16145, -21020, 13474, 9216, -39453, 29289, -42677, 32515, -3270, 21171, -29577, 13872, -26103, 14650, -17194, 30428, -46651, -30012, 24672, 38821, 31713, -31565, 32424, -18109, 753},
{-110247, 6483, 49727, -28258, 35305, 97424, 34339, 2894, -111531, 105858, -6743, -37323, 159760, -24395, -11343, 21925, 75187, -18660, -18989, 23352, -3254, 127771, 15602, -2364, 13048, -35398, -30451, 35824, -94615, 10390, 17996, -29765, -12425, 31882, 4150},
{-1244, 17795, 2744, 13227, -10197, -22806, 22823, -22480, -33112, -30731, 13524, -23967, 13790, -3774, 16422, -38492, -22696, -6881, -20005, -10724, -24116, -13512, -11327, 40227, 34209, -7301, -16094, -8503, -3422, -39420, -28741, 16825, 230, 9815, 41268},
{-3835, -37188, 34814, 24801, 22743, -4230, 31629, 2171, 1672, -21770, -41892, -19576, -9151, -2882, 30209, -46709, 58876, -7762, -4565, 1830, -29284, 4318, 22680, 3670, -35820, -10350, 24429, 3718, 31890, 22137, 20899, 21544, -25392, -30902, 19975},
{-37153, 4237, 38984, -9761, -16884, -39929, 26175, -26342, 28829, 19503, -8578, -19204, 16335, -1328, 13177, -5323, 48265, -5921, -14313, -35910, 15497, 11276, 34285, 1560, 31753, 13234, 11756, -33572, 39947, -19027, 17034, -23246, -33427, -15018, 25980},
{-38157, -14078, -19230, 9770, -15176, -39200, -38172, 11316, 38297, 31889, 6327, 7685, 7803, 25643, -22569, 10, 6219, 13708, 24942, 33331, 30743, 23276, 5569, 2192, -36380, -15153, 11333, 34699, -17204, -26862, -42941, -37000, -11183, -39125, 38579},
{-63494, -12767, -25846, 34715, -726, 54852, 30066, 18372, -57332, 43253, 37345, 28749, 105648, 8010, 24576, -40991, 35913, -33552, 24339, 2352, 6119, 89110, -39257, 11042, 10674, -18132, -2504, -27352, -4421, 33562, 29890, 30591, 16226, 34913, -3597},
{-24442, 23636, 47612, 40791, -20073, 62648, 31205, -41373, -62371, 74254, 39742, -46334, 87089, -45147, -18839, 34010, -62461, -7973, 18619, -13880, 8058, 24515, 19050, -19165, -8143, -32342, 36958, 26072, 3749, -2581, -2749, 19905, 16623, -25822, 13422},
{11137, -8452, 2996, -3030, -14761, -26515, -19916, 4695, 52820, 2122, -47007, 11073, 21733, -5757, 17753, 33546, -28734, 39050, -24481, -21168, -2164, 20667, -43466, 32455, 14384, -40084, -5946, -34196, 22453, 34207, -32197, -3271, -23213, -43870, 13987},
{-40545, -26060, 37730, -31148, 29106, -18228, 5233, -35579, 48598, -20780, -13084, -38881, -4017, 21156, 3465, -22028, 49115, -40269, -30310, -17980, 18013, 4534, 13251, 27638, 20464, -15350, -44263, 15112, -10066, 33128, -15275, -5283, -36091, -30394, 6292},
{-95809, 27228, -25265, -2178, -32643, 117672, 35259, -22298, -50699, 146891, -31867, 3665, 128489, -48630, -24495, 35029, 77651, -11758, 26672, -18674, -26784, 83902, 5591, -11974, -21943, -35810, -19846, -31, -59011, -38606, -11495, 3126, 182, -29333, 34889},
{69941, 27645, -80208, -31837, -32524, 129003, 874, -18586, 3102, -30933, 33296, -12055, -3570, -10149, 6121, 27304, -86042, -25102, 38476, 31086, 34335, 20540, -25946, 3703, -36727, -18937, -17936, -13086, -84532, -34569, 40913, -10587, -26707, -39920, 5099},
{-30589, 7332, -11777, -18191, -24533, 50827, 15499, -38194, -83163, 67997, -39158, -17265, 109942, -11440, -21313, 31205, 44190, 29302, -1675, 22154, 2269, 25020, -18878, -12447, 17268, 234, 17453, 18644, -61728, 425, 40022, -27501, 4533, -1853, 40331},
{1164, 17560, 22869, 28928, -11720, -32301, -41412, 7295, 52977, 10583, 657, -41260, -1438, 29405, -38012, 30659, -613, -40779, -10463, -11121, 33950, 34859, 31331, -34707, -23951, 12799, 18658, -4422, 14894, -308, -39755, 2852, -25292, 25302, 1099},
{27429, -11406, 9672, 35273, -5481, 27018, -31783, 34155, 9045, 3505, -15203, 18292, -6296, -29368, 19304, -3395, 23080, 39455, -9652, 26302, 18420, 35292, -39266, 8107, -14489, -5754, 5019, 9109, 26982, 4747, 3511, 18219, 15452, 3715, -14977},
{-15786, 16238, -25333, 26985, 5812, -37684, -21848, 11048, 46744, -21826, 8863, -45109, 4884, -15818, -5210, -3554, -19312, -2092, 31927, -20432, 21724, 18809, -22315, 32813, 14844, -19828, 26774, 335, -8390, 34806, 34902, 28408, -35234, 31623, -26321},
{-1521, 37001, -32623, -4518, -12619, -14500, 25882, 21654, 51720, -10696, 2467, 20107, -31251, -42641, 26525, -14696, -16188, -7607, 16437, 16609, -7576, -33703, 21197, 32079, -7707, 22679, -5913, 29661, 52319, 39307, -3067, 2444, 25767, -12589, 12623},
{-39890, -38343, 10988, -10120, -5146, 80872, 38197, 15048, -60363, 48639, 19133, -21420, 79402, -42350, -38314, -29359, 49025, 10008, -18857, 14793, 811, 80323, -25355, 3082, 12641, -13110, 35499, 35675, -78084, -4690, -14135, 5164, -17107, -4700, 14392},
{-36933, 4273, 31021, 27253, -13041, -39615, -18883, 11661, 20152, 17084, 14433, 6969, 35602, -38399, -38284, 30486, 20341, -41179, 35588, -9451, 26330, -20266, -32760, 36689, -396, 20389, -20622, 16691, 11055, 12935, 34677, -7716, -4212, 13987, 9610},
{-15795, 40292, 18431, -2168, 24845, -72961, -39590, -37240, 15793, 32184, -30116, -15056, 44457, 23626, -18635, 24884, -8986, 36752, -24995, -6444, -22624, -27997, -34288, -14591, -29821, -3312, -1005, -2162, 14298, 2246, 21048, -18354, 37978, 3061, -19796},
{8382, 36540, 2157, -250, 40930, -16464, -36022, -31671, 18204, 27385, 19409, -4068, -37421, -26801, 18195, 14364, 46030, -11314, 12250, 16621, -29306, -27905, 432, -16339, 2304, 22387, -47340, 18255, 3208, -13458, 7244, -24368, -8332, -4483, 34391},
{26020, -9481, -6029, -32059, 27403, -35151, 10615, -43269, -6575, 13055, 33418, -21758, -11921, -22943, -32758, -31950, -13229, 20111, 28106, -15028, -30331, -38317, 1853, -36530, -9533, -202, -15515, 32893, 48651, -35085, -14458, -1926, -12717, -4077, 21009},
{-57640, -11053, 19558, 38061, 651, 65876, -9838, -4214, -62109, 59187, -526, 25978, 39940, -36544, 16038, 18113, -51301, -27056, 3836, 1204, 26694, -14076, 20420, 24564, 29749, 11198, -36876, 14411, 64529, 27390, -27023, -7349, -8492, -10912, -44751},
{53382, 16971, 44876, -37299, 543, 118045, 19890, -15032, -62454, -81658, 32216, -33173, -6653, 25624, 17305, -22839, -98307, -29883, -20929, 214, 38670, -38332, 8175, 34921, -24307, -18311, 8191, 8156, 38863, -28694, 9769, 30541, 7024, -18601, -102494},
{2136, 29030, -20899, -27446, -36493, -27378, -19489, 16311, 21130, 16899, -32715, -43188, 10699, 19569, -10714, 8803, 52543, 3706, -29205, -46394, -26475, -4678, -19802, 19604, -24238, -24349, -339, -4361, 31429, -39574, 3050, 22995, -40266, -15615, -183},
{21321, 13856, -28269, 11354, -18482, -11648, -16882, -36083, -14204, 6661, 32065, -28760, -4211, -41276, -11349, -10191, 60515, -5033, 10502, -11449, -9154, -10245, 28785, -13273, -40737, 944, 21100, -20801, 54352, 644, -45209, 25239, 30589, 32819, -8059},
{-45980, -15769, 56702, 20541, 26641, 106086, 24820, -28746, -41712, 30756, 10919, -14719, 67399, -42700, -9681, -35261, 252, 29075, -7942, 17326, -3673, -35191, -13458, 10576, 17552, 2145, -5812, 18414, 24348, 12947, -15189, 26159, 19556, -5210, -6144},
{73568, -7113, 13277, -12127, -27455, 99286, -4682, -2701, -33270, -85492, -20257, -41617, -6509, 25957, 40555, -20656, -51039, -33831, -22677, -16122, -26115, -59713, 40292, 45433, 20994, 24271, -36189, 12090, -26436, -40232, 40385, 40959, -2271, 1362, -95083},
{-19873, 19442, 36795, -17675, 4080, 126825, -32405, -11668, -78505, 36932, -41376, 1980, 32403, -37817, -21230, -24454, 1930, 10000, -19965, -12700, -28464, -38683, 31719, -10986, -13010, -21553, 11752, -27786, 46481, -24620, -8280, 12609, 38614, 39764, -41292},
{22388, -18665, 22917, 19104, -2854, -21038, 12465, -28240, 33256, 27140, -41510, -23043, 9929, -52491, -6368, -26764, 7567, 5612, -15233, 27744, 3826, -30171, -8170, -2, -36568, -17499, 25958, -4273, 62714, 6000, -22218, 11211, 39082, -6171, -20844},
{-2359, 11136, -34065, 31143, -6500, -35788, 7111, 12646, -32197, -39221, 29860, -8578, 22682, -6224, 16782, 24675, 20753, 35944, -32612, 13474, 15119, -17033, 20159, -26848, -24565, -40126, -17128, -14893, -38004, 21847, -9281, -3282, 13932, -23826, -3842},
{-6742, -10587, 12889, 38077, -10078, -41423, 29933, 4714, 478, 5812, -17855, -7636, -36827, 24403, -35433, -24114, -13449, 6304, 7613, -35718, 25270, -35843, -34421, 31613, -3123, -18399, -12977, 5116, -20887, -32336, 33991, 23712, -25819, -18238, 34938},
{18122, -13617, 38529, 1270, -32684, 6259, -8378, 3685, 30320, 10090, -31092, 11069, -49125, -19726, 4837, -24351, -15686, 5697, -44089, 19738, 6463, 2334, -20322, 31889, -34837, 12027, 30423, 9316, 35747, 16536, -34575, 26278, 9972, 30099, 43595},
{-80202, 5887, 4212, -17512, 4939, 123325, -23850, -25248, -67969, 59445, -34557, -27730, 86348, -58836, -37175, -32022, 24590, -19914, -24766, 6814, 285, 16834, -24175, 4472, 4340, 41152, -3146, -13014, -26352, -18914, -20491, -21319, 28114, 34869, 34986},
{-30474, 19342, -40667, -40280, 23192, -1499, 19882, 32216, -29597, -18646, -20974, 1341, -38058, -23908, -39508, -11240, -27340, 19946, -3462, 14504, -5317, -22560, -7631, -14307, 28398, -38284, 31649, 6988, 8752, -14748, -38225, 35596, -3377, -3354, -32719},
{225, 4024, 3006, 24519, -17809, 2320, 6292, -30896, 48546, -24166, -23804, 24682, -14559, -30094, -7129, -19388, 43461, -21453, 3526, 349, -330, 12821, 34883, 6327, 16857, 12829, 22235, -30505, 23439, -8907, 26538, 10101, -19292, -27267, 44591},
{19726, 4655, 28316, -35459, 39172, -50022, -37785, -44240, 16687, 1925, 2118, -31241, 36581, -18209, 20496, 19562, -2216, -36824, 27081, -41759, -26858, 37709, -25356, -28017, 20541, -31091, 32434, 26161, 43889, 39824, 15535, -3803, -656, 10780, 13385},
{-16312, -41171, 46577, -41017, 36367, -29400, 17324, -3248, 19496, 48174, 32907, -48706, 22978, -16853, 16961, 16842, 66321, -21577, -39933, -895, -20982, -3636, -6797, -31642, 2368, -16560, 16758, 16462, 51182, -23629, -16465, 35753, 26010, 10885, -28489},
{-16452, 31696, 41645, -2127, -11373, 92129, -10835, 22433, -93212, -13258, 178, -33126, -60131, -32336, -5480, -30208, -39135, -7308, 38963, -20612, 26202, -106689, -25465, -17789, -36086, 23853, 18782, -12506, 101615, -20722, -10772, 24393, 567, 36209, -53186},
{23203, 19804, 47177, 4146, 9161, 138951, -29646, 6670, -39399, -34546, -31494, -24472, -49553, -38001, -35812, 30506, -105275, 15443, 8167, 10817, -181, -26924, -33339, -38574, -5112, 17733, -185, 28530, 4089, -11906, -14045, 39017, 10964, 3263, -66375},
{-36680, 24022, 13348, -7581, -26300, 882, -20475, -5367, 13346, -4736, -44414, 29694, 435, 2915, 12734, 15568, 37672, 35960, -2892, -10790, -7016, -3772, 14248, 30395, -17130, 19579, -13, 33424, 15155, 9096, 6662, -16171, -1916, 3986, -30377},
{22331, -14109, -33551, -8833, -33025, -38395, 34406, 24112, 10957, 19662, 477, -46482, 22687, -3637, -39833, -21165, 29578, -36386, 754, -30847, 37483, 952, 17294, 8807, -16080, -14827, -46619, 19040, 23502, -33040, -38398, 29128, -28981, -21654, 4282},
{-100417, -2121, 47220, 38977, 32432, 60556, 5684, -9930, -105578, 75057, 22827, -38034, 75975, -75250, 6832, -22463, 60960, 36067, -14140, 16749, 19625, 10247, 37076, 2653, 28093, 23979, -28051, 35452, -9613, 36095, 31579, 5674, 5613, 1522, -13897},
{88336, 13416, -8455, -24224, -4492, 80387, 34751, 29472, -61370, -47189, -2018, -36664, -40048, 49758, 25554, 19355, -72892, 2769, 10941, 731, 39070, -58004, 25319, 17963, 7538, 24321, -36991, 2812, -1131, 1508, 33836, -12777, -18201, 21295, -67562},
{-62784, -21668, 98462, 730, -9074, 54937, 26303, 32328, -85293, -23869, -24400, -25245, -26221, -32643, -9807, 7467, -43404, -9185, 28392, 829, 10315, -65553, -38292, 20324, -15427, 30834, 23362, -40096, 102624, -9237, -22918, 23869, 10695, -2440, -72301},
{-21647, -30986, -15627, 37409, -38699, -52591, 35844, 6570, 9784, 30608, -30039, -38942, 4644, -18760, 26741, -16106, 23532, -33686, 11975, -30731, 8960, -18894, -15058, -14394, -999, -38257, 23548, -5089, 34634, -77, -18792, 39022, 36397, -10497, -21664},
{-21145, -11019, 31097, -18913, 31029, -7157, 36039, 10089, -287, 2740, -18573, -15066, -39164, -26071, -27805, -3690, -25305, 41057, -2528, -7441, 8840, 29931, 4268, -19079, 37152, -40041, 27840, 41382, 15975, -10566, -349, -35004, -26576, 34359, 20705},
{-8147, 5910, 25447, 37716, 22006, -58479, 34061, 33904, 14101, 38687, -24823, -37847, -698, 20030, 37269, 15288, 11103, 15430, 31635, -4145, 38427, -4690, -10104, 21368, -14226, 23065, -44456, -43412, 31844, 15465, 5457, -4068, -20134, -10243, 38698},
{-40470, 35236, 50199, 8226, -29744, -54128, -7576, -42311, -15176, 11442, -12435, -47526, -42674, -5129, -23885, 19106, 36145, 40967, 21435, -11125, 9674, -29053, 29012, 5071, -43000, -5491, -41717, 5024, 47627, 30237, 13008, -29510, -11380, 9127, 8910},
{-7898, 6179, 84549, -13083, -34044, 57979, 34647, 1870, -68672, 54827, 36364, -27996, 2704, -60347, 18481, 11662, 19074, 5780, -7735, -1980, -35258, -32269, 29769, 33880, -2425, 34974, -30218, 36177, 73363, 20946, -15662, -5616, 11273, -29252, -21647},
{21714, 5344, 7683, 37986, -3146, 29162, 15012, 4495, -4052, 36341, -8784, -26627, -3397, -23713, 34134, 31841, -22233, -26157, -40315, -27746, -37224, 8272, 41288, 12849, 6612, -19440, 28359, 41344, -31374, -127, -29371, -32979, -29364, 14265, 5157},
{9552, -9233, -14997, -30293, 26833, -45220, -10680, -34058, -14863, 42585, -34327, 22313, 25916, 24240, -24659, -13212, 72439, -30775, -18298, -10713, -25452, 9699, -12391, -30276, -7037, -36991, -30703, 20360, 27301, 21049, -39342, -26126, 35885, 5624, -30938},
{-10327, -31610, 4503, 14566, 40612, -6908, -21709, -31282, -18455, 30447, 1181, 12076, 38227, -48741, 30826, 2635, 18322, 7359, -32147, -27198, -29352, -4654, -22163, -26381, -38497, -14143, 6841, 1992, 52546, 13063, -29381, -16742, -27387, 31482, 22429},
{-3529, -18369, 11579, -36365, 17167, -10177, -30301, -45229, 20188, -7491, 5191, 26413, 43863, -3703, -29738, -36520, 39756, 14745, 34616, -34175, -19216, -6894, -24253, 32336, -14244, -34341, -19390, 10201, 47761, 9225, 32704, -6084, -15267, 11638, 14700},
{-12080, -5107, 60497, -34264, 17910, 78348, -27577, 10749, -63177, -24857, -39443, -23334, -9755, -65709, 17987, -5084, 11169, -25876, -31767, -10541, -25627, -30161, -31654, -35471, 33807, 2439, -39271, -17718, 34809, 26101, -34057, 24195, 3348, 35163, -46373},
{5747, 12011, -22526, 29948, 10245, 137531, -31210, -31003, -56924, 18781, -28079, -31253, 18766, 12019, -28977, 22576, -120701, 41141, 38564, -31606, 30052, -55738, 5347, -16140, 14965, -40648, 30117, 23505, -6003, -11462, -31278, 10256, 989, -80, -50950},
{-24707, 14015, -14678, 9995, -30774, 9241, -14632, 30022, 8226, -9305, -22553, -26594, 36271, 4560, 12403, -17734, 28945, -23613, -18549, 31602, 26410, -907, -895, -13145, -14683, 33063, -45371, 8228, 28581, -31276, 30721, 20274, 9622, -3443, -24346},
{7700, -26027, -6161, -6583, -15710, -56765, -31586, 29703, -22989, -4592, 16946, -6329, 47120, -21755, -27865, 30117, 53276, -37908, 19434, 3433, 10214, 14820, 23847, -28766, 3257, -43493, 2872, 30371, 17878, 37720, -39592, -10959, 22600, -37344, 43844},
{-36631, 12448, 45546, 8728, 37299, 60341, -24197, -35642, -43227, 87691, -24110, -33351, 77566, -74731, 35720, 15541, 608, 29073, 27736, 2880, 32530, 23197, -35675, -2517, 8191, -25620, -9204, -518, 30004, -8839, 26745, 492, -35957, 12884, 48433},
{81709, -19767, -18652, 6126, -4736, 126915, 34664, 25649, -65690, -40868, 784, 11374, -88275, -4727, -21048, 33085, -59753, -17190, -1365, -38971, -38200, -116255, 31501, -33983, -16741, 3849, 4193, 24838, 65346, 22295, 1217, 35262, 10459, 15869, -43528},
{637, -19367, 75026, 2359, -6907, 100338, 856, -7831, -93998, 63543, 38974, -49961, -1483, -9474, -36506, -6301, -34207, -12646, 37183, 28243, 40242, 26246, 11374, 19075, 35669, 23925, 14730, 29953, 16238, -27131, -16153, -31401, 5240, -941, 3922},
{-46207, -25960, 42149, 32867, -4519, -20256, 8330, -3200, -20950, 10156, 23812, -33355, 24666, 4368, 14790, 6761, 50857, -13111, 31530, -25788, -29590, -20972, 26948, 16969, 14907, 26693, 22605, 15412, 21575, -32768, 33729, -34851, 36116, 10314, 30493},
{-33687, -25750, -5726, -12764, 36136, -32167, 9348, 33809, -11644, -23876, -205, 22924, 36913, -23886, 13558, -16439, -15867, 22945, -10558, 2197, -19231, -25419, 4625, -1604, 11254, 16069, -23460, -16808, -27857, 21561, -922, 17015, 13114, 18811, -20162},
{-10724, 19801, -13863, -33369, 26409, -68937, 30107, -33131, -3382, -6482, -19179, 14307, 42471, -7561, -27913, -24046, 52467, -22415, 31454, -16138, -5796, 24617, -47215, -861, -23159, -25433, -745, -36332, 22724, -24813, 35223, 28441, -37383, -206, -6520},
{-21671, -10936, 32286, -30949, 38523, -16173, -36617, 6547, -908, 13559, -792, -39749, 5425, 17456, -601, -5133, 6815, -26808, -42559, 13429, 35402, 36012, -47122, -32153, 18657, -16923, -31278, -25475, 38391, -17174, 10674, 26431, -18715, 19170, -23},
{-16617, 37104, 22045, 35027, -3842, 101664, 30078, 8763, -80111, 18495, 4907, 7960, 68819, -22697, 16370, 31220, -10491, -26949, 32599, 24325, 29092, 6313, -18790, -30765, -13384, 10224, -30203, 34751, -12323, 5445, 17771, -9199, 11369, 449, 4660},
{21867, -3703, 20419, 14675, 35767, -38676, -1160, -21558, -10674, -38521, 10269, -30958, 40360, -3049, -4076, 14279, 21281, -26057, -14279, 37333, 18943, -12428, 27406, -17443, 30223, -3335, -6099, -34379, -17238, 3809, 39201, 15356, -3200, 24969, 21685},
{-8555, -28996, 8517, 41209, 39765, -26987, -27009, -23555, 29538, -6311, -20542, 6688, 5959, 11980, 27138, -2163, 71616, -20700, -30139, 28482, -31016, 57199, -19555, 1071, 32755, 8680, -35559, -45550, -121, -15878, 24480, -11559, -340, -16641, 16973},
{17232, -12035, -12753, 34056, -12172, -59125, -25461, -23091, 25687, 14515, -24574, -12432, -9785, 16108, 23791, 23815, 36428, 29936, 28315, -20631, 26716, -23164, 26692, 12549, -44171, 6971, -33052, 8457, 6308, 23441, -40382, 28221, 7752, -12540, 44043},
{-20275, 4953, -26666, 16305, -40671, -1590, -9789, 4607, 46120, 30095, 4968, 24972, 24660, -10253, -16993, -12824, 25524, -25892, 8891, 4197, -30791, 31471, 18655, 17358, -34565, -36828, 6255, 13110, 32429, 35703, 23553, 7670, -19478, 4898, 4922},
{9982, 2378, 31057, -14304, -280, 63757, 38372, -34617, -43644, -15185, 394, 16022, -16449, -40402, -1424, 17503, -1652, -9190, 33129, 38341, -25575, -16938, 40365, 28109, 22756, 19084, 8967, 6252, 25396, 33479, -22609, 6118, 22733, -14954, -32947},
{72080, -31531, -2833, -12945, -7937, 103039, 35659, -8052, -84334, -13907, 29707, -26915, -76110, -4258, 13836, -39830, -58426, -21504, 8615, 14637, -41358, -91855, -14677, -30225, 18154, -14549, 22994, 19028, 66837, -12965, -33741, -13376, -30326, 22210, -93419},
{-35218, -11761, 29065, -11649, 6460, -66807, 13983, 28466, 10812, 29654, -14836, -46941, 21869, -3774, -15929, -3467, 14149, 9550, -8528, 34829, -26049, -2930, -30644, 38878, -21528, -39688, -2820, 12880, 33555, 11778, -41714, 23060, 13561, 26973, -1728},
{-29787, -27063, 17567, -14610, -21795, -67338, 28932, -34230, 21993, 21773, 12545, -38797, 35731, 17644, 23600, -31334, 51246, 14291, 14779, -12395, -15233, 55578, 26784, 23221, 31566, -34596, 10709, 6464, 33163, 28686, -44728, -37268, -3191, -7090, 30848},
{-36245, 32599, 41510, 2311, 6484, 65903, 6202, -87, -97714, 57963, -8816, 24466, 20994, -100267, -41334, 15799, -29064, 39807, 22319, 38935, -2796, 25577, -25115, -16987, 71, -30695, -14098, -12867, 5761, 36868, -13588, -2143, -27832, 841, 3108},
{53012, -22856, -2912, -17269, -26791, 124654, 1543, -11096, -65244, 2351, 15306, -18954, -25505, -2825, 33928, 19082, -55015, 19283, 13326, 31889, 37970, -89862, 11948, 25368, 20962, -18598, -7208, -15683, 60856, -36434, -2693, -29074, -39146, 32564, -36513},
{-27952, 35402, 10660, 31822, -27876, 59528, 37802, 1251, -29586, 1533, 29314, 22991, 62999, -14808, -20774, -7358, 22078, -16330, -32300, 19771, 10430, -5407, 550, -31977, 22490, 485, -16382, -25022, 47201, 34607, -27522, -37532, -174, -13136, 5081},
{-23572, -8649, -7495, -33672, 35726, -27953, -14173, -33312, -22812, -1220, -30951, -30269, 59414, -11949, 20107, 7720, 52292, -41304, -26063, -4988, -3899, 7949, -38915, 1526, -16560, 5642, 29560, 23551, -17100, -1830, 8544, 30690, -3564, 15990, 30520},
{35653, 23943, 19053, 40652, 23634, 1122, 38891, -11177, -18233, -19717, 15363, -25383, -2579, -21514, 7267, 10499, 39239, 1673, -441, 23511, 13193, -19444, -32925, -16899, -22868, 6658, -22678, 28660, 13479, 14622, 36751, 39233, 28952, -15139, 25364},
{25180, 3913, 20005, -22042, 32277, -25134, -21714, -30470, 6717, -26629, -2407, -14138, 9341, -12059, 38150, 16415, 4203, -384, -26822, -41901, 15257, -1020, 16498, -11052, 22908, -5600, -16982, 7953, -9084, 2989, 15828, -4284, 8501, 14336, 22512},
{21727, 17680, -12099, -7983, -2247, -8771, 11646, -43804, 34425, 24318, -45247, 14146, 22501, 26917, 31412, 10039, 43619, 9340, 4857, -35597, 1391, 28652, -5772, -381, -10654, -14131, -24812, -22874, 17259, -21126, 14097, -34418, -2590, 30684, 36118},
{-77462, 8515, 52026, -11997, -657, 112192, -917, -22839, -47310, 44715, -15015, -34173, 55617, -61268, 17685, 40266, -19561, -9440, 26416, -22634, -14022, 42721, 7141, 24413, -33848, 38037, 21121, -3346, 33458, -2796, -1217, 18951, -29205, -10741, 25657},
{14820, 17456, -4835, 16942, -21936, -30050, -12038, -31482, 38928, -32592, 2995, 9696, 22408, 21366, -30437, -23175, -5138, 34882, -29162, -32562, -8646, 11663, 15925, 37255, 1948, -38529, 14255, 31424, 995, -38257, 14122, 28081, 24687, -28924, 32010},
{-28590, 2686, 46073, -38947, 14773, -21741, -21449, -322, -15765, 47441, -31248, 3222, 10195, -12928, -28634, -1348, 8361, 26024, 22444, 2053, -1280, 33667, -33871, 4894, -27719, -29053, 6505, -1638, 9531, 17805, 27097, -36663, -39563, 9507, 16511},
{11712, 5482, 37426, -35034, 18851, -5579, -11627, 5897, 35811, -22287, 19685, -2727, -3710, 10242, 476, -35036, -4317, 7921, -10908, 7182, -2363, 34767, 23075, 24195, -3808, -44939, 5968, 23421, -7692, -27180, -24716, 30467, 3607, -37138, 14938},
{-650, -27008, 33785, -30267, -21412, -27613, -12529, -33757, 19187, -23977, -22866, -49976, 40508, -13176, -29013, -13141, -1903, -15646, -3552, -2411, -31436, 40450, 13657, -30516, 13939, -5891, -22336, 25347, 39774, 30556, 4928, -10009, 28695, -30137, -26767},
{13979, -20987, -17847, -7884, -12068, 87358, -25453, 29045, -35135, -23657, 26991, 7466, 2925, -23788, 31203, 38518, -75848, 25711, -41372, -2566, -3193, -75282, 39508, 19346, 632, 21295, 2541, -14200, 54383, -3461, 25546, 37273, 9676, -25056, -10269},
{61077, -199, 37820, -13489, 6271, 130192, 15075, -29711, -106882, -41453, -12569, 8637, -71409, -70331, -12617, 22252, -122287, -26187, -7474, -2620, 1741, -108814, -14592, -17199, -30791, 2809, -7398, -5178, 80502, 15878, 23662, 1439, 10297, 11084, -66059},
{-39756, -21160, -21061, 14352, 40829, -50300, -8169, -15952, 36577, -7815, -11092, 10437, 6825, 35014, -13620, -41256, 30601, 34948, -22495, -1207, 18827, 2698, 20338, 9756, -40661, -22376, -35777, 24461, 12838, -39994, -17545, -19857, 31253, -28581, 12135},
{-43931, 35916, 35709, 39280, -27604, -21212, 215, -28930, -34719, -14660, -8773, 6506, -2476, -28959, -11255, -41349, 39853, 3504, -32760, -43383, -29774, 35223, -18241, 25911, -16767, 26873, -2088, -22272, 31997, -769, -10929, 3245, 30651, 12276, -15842},
{10204, -25930, -1720, 22125, -37769, 147495, -25902, 6656, -99114, 19519, -33178, -3711, -58574, -101835, -22941, -6128, -97944, 19293, 28777, -36810, 27672, -94207, -34665, 33567, -12787, -24035, 6461, -28246, 58394, 7946, -22909, -10743, 2623, -33407, -56495},
{58092, -9393, -37072, 41196, 1038, 124701, -2442, 38617, -29164, 30268, 6377, 7508, 26697, -31750, -28146, 7358, -117564, -24884, -40067, 35188, 37022, -9320, -28088, 16363, -33457, -2824, 28279, 6947, -39613, 39971, 14414, -34083, 41321, 8789, -4645},
{6018, 20435, 3719, -841, -12649, 95658, 17337, 7254, -78893, -2363, -2553, -35926, -34973, -45170, 21418, -5385, -78446, -31334, 15893, 21403, 110, -52979, 14279, 40320, 5854, -6907, -25933, -18658, 86500, 34704, -22501, 6079, -3637, 22281, -25617},
{18508, 2042, 11725, -22257, -8634, -62799, 9263, -42790, -6664, 40183, -44250, 14710, 50463, 24691, -13310, -19372, 13964, 14888, 3988, -322, 12227, 15267, -38611, -18581, -38625, -27603, -18343, -31642, 54440, 39784, 25407, 23101, -22729, -33219, 39423},
{27775, -21379, -5463, 10998, -8737, 35088, 40540, 8110, 31147, -8238, -38172, 5514, -24800, -41068, -36548, -30667, -2993, -9523, -3363, -28505, 10628, 22533, 8674, 20487, 23980, 18987, -11478, 31222, -21782, -30040, -23119, 3251, 4584, -18628, -29824},
{-54513, -8341, -11391, -15951, -35981, -68147, 15763, -18128, 38723, -18251, 6738, -34985, 35925, 21342, -16130, -36479, 59671, -8145, 18335, 34943, -40280, 54896, -44428, -15122, 2193, 35346, -37981, -32980, 20648, 29758, -24091, 5147, 2490, -30902, -11129},
{19474, -39071, -11982, 38804, -1048, -11678, -32535, 16512, 10632, 46556, -35107, -50720, 23573, -10715, 37566, -7827, 44517, 6660, 20909, 28747, -7716, 40836, -14744, 24604, -1954, -44478, -13407, -7253, 24796, -3153, -43055, 38849, -12259, 1651, -39914},
{980, 30325, -17199, -33631, -17765, 138336, -18604, 26653, -81148, 12722, 14396, -49063, -8700, -49819, -37796, -2604, -116867, -30413, 28565, 22692, -27337, -105225, -5078, 14437, 3245, -33351, 193, 15655, 66493, -743, -36048, 19654, 38529, 34323, -46172},
{-11456, -15598, -4028, 16338, -25202, 28241, 7139, 18775, 20484, -8443, -2006, 17773, 20454, -37349, 19091, 32701, -3656, -23689, -39404, -33064, -1948, 3337, 10689, 6665, -36713, 32028, 15391, 25271, 32366, 11546, 30826, -28804, -10967, -7478, -19580},
{-45506, -29955, 52866, 29946, -19819, -54635, -17907, -46603, -5365, -15766, 30171, -27891, -4235, -35574, -41134, 21400, 15696, -35018, -34042, 19195, -13119, 41290, -37086, 19324, -19042, 31910, -24897, 29870, 10157, 3114, -17037, 26083, 9542, -2289, 11258},
{-24029, 1688, 52629, -8984, -33887, -31450, 33303, -33607, -24322, 30028, -30367, 2158, -7473, -39994, 40671, 26060, 8601, 4096, -15908, 4010, 31313, 79, -15404, -15086, -10087, -42070, -16157, -81, -7376, -18744, 6164, -21969, -18162, -10891, -41661},
{13426, 35417, 11635, -8194, -3166, -7467, 40779, -11932, -38169, -18727, 33360, 4564, 1029, 7964, 15028, 2497, 52758, 33893, 2252, -23397, 6710, 29648, -46120, 30052, 5543, 25489, 34002, 544, 50786, 29154, -4296, -29835, 31378, -27079, -6291},
{8546, -13528, -6343, -38353, -8466, 63429, -21230, -16275, 18247, 47175, 22518, -38432, -3057, -77173, 33233, -17418, -23122, 25872, 18915, -23321, -19849, -47318, -4968, 22292, -5957, -29073, -17752, 3555, 47898, 9368, -39481, -28755, -25396, 11273, -37505},
{26921, -25810, -18869, -21158, -32459, 136931, -14701, 40784, -36848, -40377, -13390, 25500, -26582, -25867, 14, 15022, -84684, -12458, -24413, 32743, -20017, -95438, -26358, -33743, 2720, -6560, 17461, 37326, 72389, 29896, -32107, 32329, 30705, -11303, -54000},
{-13749, 6482, -21225, 37172, -39562, -20996, -12026, 12442, -23726, 34987, 3375, 27705, 17999, 34509, -10226, -26471, -5361, 7288, -5652, -7449, -38115, 375, -15583, 13571, -31450, 805, -10409, -5733, 29239, -32718, 7998, -2600, 75, -41360, -35055},
{-45517, -36954, 7160, -34523, 16636, -4648, -40561, 27330, -23062, -13673, -19858, -19035, 37876, 3298, -8531, 35224, 60435, -15699, -5072, -34207, -16196, 43725, 18946, 2142, -18377, -21901, 23733, -855, 21630, 36669, -46616, -31145, 40536, 14672, 35902},
{-2915, -35330, 46672, 33726, -36930, 89494, -21203, -482, -50574, 28403, 7457, -5090, -33367, -33563, -40700, -17695, -59589, -17702, 1031, 393, -35587, -9836, -38563, -354, -19502, -23339, -14127, -30588, 102049, 1733, -32237, -15838, -17019, -23547, -43101},
{54769, -20251, -61193, -6527, 36861, 80727, 24198, 2280, -23363, 13046, 45835, 30590, -34213, -31457, 22897, -11821, -49112, -40060, 11025, 1305, 20239, -8134, -6460, -38168, 15126, -40965, 33257, 23034, -59939, 34312, 129, -18795, -31915, 34343, -31554},
{-49695, -24335, 18282, -9676, -35445, -2772, -13143, 1955, -35359, -472, -38668, -25676, -5941, -43046, 31296, 30624, -13394, -11804, -26074, 8972, 23126, -69892, 37100, -17886, -38779, -40264, -9592, 28714, 65868, 14211, -40979, -15041, -41336, -25363, -13888},
{-37007, -4111, 48357, 1660, 6285, -44873, -40338, -29869, -30819, 45113, 33031, -26288, 11299, -3294, -10869, 5007, -7855, -12764, -39717, -32612, -31090, 15741, 23487, -29863, -16942, -34076, -1666, -7866, 45328, 31650, -5093, -34502, 1699, -11098, -25451},
{8111, -3678, 18164, -7191, 8894, -20078, 33979, -36295, -33427, 4967, 21929, -21791, -20267, -3971, 5726, -24068, 39352, -13348, -1584, -7850, -40026, 40572, 39004, 31649, -37072, -37491, -4166, 33272, -25729, 20688, -26424, 21645, -21662, 35338, -39641},
{7280, 12114, 46098, 35867, -16150, 26822, -292, 21190, -28459, 51792, -13721, -23192, 53388, 16187, -38538, 6465, 18669, -30222, -39756, 13509, 7070, 8657, -35036, 142, -21602, -36452, -16348, -5429, 41631, 8057, 14734, 26605, -38470, -10467, 27346},
{9831, -13908, 39164, -1879, 7692, -19950, 9120, -22056, 9876, 22528, -3875, 3888, -28271, -9061, -35613, -45689, -20633, 20775, -44581, -22665, 15208, 23778, -21322, -11884, -3893, 24270, -1639, 9151, 41069, -33813, 9530, 7396, 14711, 16268, -1129},
{37079, 41314, 54892, 18007, -17027, 117039, 23972, -21780, -40239, -84379, -11430, 23030, -86728, -28345, -2289, -3841, -95142, 26352, 2937, -30766, -30644, -105064, -29890, 24290, 5377, -9586, 7232, -37368, 94988, -27034, 2361, -20073, 9733, 20638, -87363},
{-19512, 4585, -35685, 656, -10925, 41104, 16984, 40383, -24578, -10903, 16162, 34820, -6050, -23826, 338, -38298, -21311, -22978, -8124, -9811, -15388, 6355, 22927, 1837, 25744, 18131, -31134, 29158, -4217, -34881, 21214, 2855, -35011, -14706, -627},
{-35884, -35957, 40290, -38671, -2738, -4632, 6520, -36580, -31962, 7150, 27493, 18929, 33818, -825, 25882, 13743, 66445, -30053, -13889, 24618, -6167, -24561, -47114, 37377, -6303, -7322, 5248, -17623, 8593, -35442, -29843, 29855, -30350, 4997, -8007},
{21592, -32463, 53178, 12136, 18207, 19713, -33967, -10223, -8429, 32471, -12941, -4619, -29048, 31549, -2461, 18548, 46168, 28730, 32453, -24346, -29443, 18140, -40062, 11114, -39631, -9484, -10686, -15311, 3689, 40302, -41166, -11261, -36474, 6635, -19410},
{21874, 40016, -1524, 11836, 33167, 17674, -7492, -5132, -36580, 12572, 17130, -12892, -16242, -22399, 22557, -22505, 10828, 27959, 15886, -23096, 16356, -12314, -6964, -18366, -30036, 4446, -33894, 28981, 38978, 34378, -17200, 28954, -23918, -41651, 964},
{2880, -21806, 50024, -40245, -41087, 26257, 12724, 5964, -66271, 10274, 33512, -28255, 42532, -13640, 22603, -9360, -41493, 20021, -22352, -54, 29667, -48569, -41240, 17686, 12019, 36035, 19598, -22978, 64753, -13765, 39096, -39484, 32864, -14407, -86998},
{31902, 24897, 10650, 6542, 32227, 109559, 1688, 38448, -18456, 13480, 29483, -7702, -22170, -44965, 15551, 7221, -67322, 22180, -13178, 4136, 40226, -37152, 36643, -20122, 15021, 14536, -35282, 7841, 35283, -9016, -29176, -1907, -6445, 6370, 4892},
{-41445, -22038, -18803, 19975, 17080, -28527, -27117, -39331, 26846, -4083, -27113, -45005, 32447, 33423, -33457, 9123, 15108, -10457, 2010, -16829, 24550, -29410, 31688, 14362, -33683, -2385, -33444, 25808, 21266, -32412, -15755, 40384, 35696, -43348, 12182},
{-47798, -35938, 15992, 20434, -17886, -18423, -12300, -16811, 29628, -1507, 30337, -47864, 5176, 24095, 27717, -41086, 40816, -7911, -18662, 23237, 21144, -21102, -833, 2166, -15671, 22252, 11403, -35073, -7108, 21925, 34298, -17702, 37103, -31335, -12591},
{-414, -18046, 48978, -2514, 12177, 83576, 18119, -18037, -39143, 41608, 32706, 11262, 62372, -61650, 11816, -30909, -32271, 39198, 21058, 40398, -31957, -28458, -30605, 10379, 26888, 36789, -32277, 22021, 48580, -27951, -10212, -1684, 30538, -13074, -36650},
{14564, -19035, -43017, 10460, -4141, 45335, 1617, -1629, 51263, 25537, 10792, -38001, -25255, 25817, 9696, -37941, -77712, -21037, 33290, -6415, 16445, -30710, -6706, -46679, -36838, -21217, 24763, -18702, -51447, -27378, 25505, -38200, 20957, 28332, 52125},
{-29094, -2681, 42105, -34739, -7265, 37811, 24756, 17678, -85363, 14083, 1964, -9585, 5915, -5350, -11911, -18232, 38455, -35441, 15706, -22824, 22965, -82181, 18888, 20139, -23883, 39618, -13596, -1593, 108053, 24205, -8990, 19975, -25581, -26403, -41719},
{-27338, 31720, 20410, -12678, 32258, 18431, -38843, 4156, -17505, 12211, 7863, -20425, 28740, -3551, -20602, 12836, 26400, -34419, 8085, 8138, -127, 33558, -19446, 2067, -17859, -23942, -2284, 21289, 9947, -11566, -562, 40674, -11217, 1128, -23410},
{31534, 12016, -40240, -5501, 6129, 2454, 31285, -15596, -15309, -30972, 22630, 40175, 30778, -38701, 18944, 34487, 32695, -29236, -3951, -5633, -11239, 11806, 19492, 17170, 27463, 32823, -3037, -37476, -13483, 26267, -36894, 39768, -705, 192, 40364},
{19512, 3014, 36359, -7906, -36326, -18264, 25367, -6429, -32641, 17391, 10672, -38727, -9945, 33156, -35007, 32767, 61873, -36683, -30697, 2876, 4297, -1813, -25018, 26029, -12346, -19780, -2859, -5056, 7219, 11847, 19630, 37114, 36885, 14227, 24141},
{-33875, -40876, 12764, -39188, 18573, -7666, 17248, -45386, 4338, 43383, -8338, -43472, -16550, 8980, 15423, 6330, 51025, 7214, -3517, 30888, 33789, -3156, -23501, -2727, 14028, 17413, -44701, -38583, 22385, -8168, -29784, 7451, 15324, -14059, 24903},
{-6044, -22093, 49543, -5710, 30793, 29420, 36007, 29259, -77894, 41455, -33622, 20773, 47522, -37620, 21714, -34738, 13885, 12186, -20688, -18870, -37475, -51258, 31978, 21403, 11827, 40869, 31270, -36454, 26982, 13910, 37286, 711, -13757, -27550, 10326},
{2217, 20367, -38262, 5338, 18520, 21284, 36175, -28960, -2763, -36901, -5262, -33561, -18105, 10696, -19592, 15958, 30214, 12342, 15660, -12238, -8689, -19220, 14743, -6518, -17187, 13239, 4532, 22155, -40022, -23831, -13828, 27136, -26479, 10133, -23170},
{-8745, -38643, -10392, -27961, -38762, -26126, 30855, -29952, -25115, 41146, 11854, -31305, 17530, 14548, 6755, -6339, 25014, 32885, -30124, 12951, -18718, -30131, -23359, -18947, -17990, 5888, -25127, 25097, -10382, 40050, -32281, -15286, 21309, 22403, -46406},
{-44203, 9875, 30446, 7368, -37868, -23975, 7231, -12255, 5747, -18922, -27079, 22183, -7572, -4210, 35287, 28558, -11379, -25434, 30839, -39289, -14854, 13283, 17899, 40626, 35666, 22633, -18884, -34018, 43793, -8409, -40433, 28500, 14415, 11869, -35859},
{-29860, 6012, 50644, -17023, 5247, 41637, 23606, -30851, -53797, 13472, -6703, -20725, 34383, 29516, 26366, -28376, 7235, 4178, -29969, 12429, 17588, 26741, -21170, 22728, 30186, 12378, 19911, 10878, 22088, -21648, 12667, 2083, 1014, -2210, -17703},
{-4364, 743, -5009, -19605, -4340, 91760, -20818, -9478, -62072, 19208, 29885, -22278, 66319, -75507, 15859, 21738, -55997, -12700, 15751, 25412, -10854, 19386, 26087, -7193, -26476, -16794, 23895, -38044, 20199, -2072, 16803, 5411, 35478, -7474, 51990},
{-3380, 545, 20439, 22137, -18661, 83911, 6066, -38864, -40401, -7744, 30846, -9774, -16512, 25636, -25455, 1452, -36199, -26329, -23207, 13298, 21901, -43944, -32958, 40741, 30567, -30640, -16517, -27146, -17967, 28430, -23792, -25042, -20914, -39975, -40285},
{-24912, -19123, 47461, -34478, -6368, 13578, 14215, -20781, -52830, 32553, -20112, 23607, -9241, -26686, -6267, 22403, 42014, -10055, -1804, -32058, 41394, -25952, -45564, -5612, -31443, -32289, -30433, 24047, -4229, 4063, -17221, -37280, -34563, -6112, -17077},
{34892, -35848, 43404, -35354, -30777, 13426, -23681, -16810, -38641, -26123, 1102, 5310, -17139, -3389, -22927, 12469, -12647, 34010, -29942, 16009, -31866, -28699, 17852, 28583, 9033, 20547, 33525, -6391, -17648, 1821, -11649, 28198, 22584, -1737, 16685},
{-29933, -26956, -62921, 25743, -35594, 6638, 27297, 8714, 26009, 93043, 2375, -47381, 9775, -30715, 36463, -4480, -42236, -35841, 34728, 35972, 30405, 60034, 15681, 9215, -25599, 14020, -20311, 12034, 40865, -30438, -40014, -28043, 11492, 34686, 18312},
{-19664, 9566, -44274, -12072, -5765, 21321, 9058, -36583, 28087, 12704, 29645, -47266, 1254, 2855, -25929, 40377, -49682, -19393, 7941, 10985, 4523, -24464, 3197, -34455, 2919, -16901, -3016, 6566, -17917, -23080, -8704, 28977, -19834, 14753, 46332},
{9171, -21572, 33765, 31762, -14747, 64446, -26703, 35072, -23342, 42121, 7806, -19400, 50700, -9797, -9365, 15625, 17697, -32708, 23024, -39844, -32290, 24041, -7218, 19257, 3598, -30563, -34705, -35160, -5361, 22476, 28301, -14509, -19147, 37895, -784},
{-14892, 37928, -12454, -2123, 5991, -11960, 17586, -43006, -36770, 44994, -17993, -5084, 47945, -17107, 11119, 4396, 4540, 30393, -18638, -40349, -39447, 33171, -26735, -36180, -45651, -26602, -22546, -31220, 51573, -1338, 14188, 23645, 15456, -11120, -43818},
{4516, -1181, -38968, -27187, 30715, -29437, -30044, 26439, 13897, -29463, -17836, -25895, 1057, 12861, -40004, 6183, -15040, 7408, -40322, 35800, 25291, -27534, -3220, -26093, 5430, 15601, 26433, -1508, -36990, 37475, 17178, -12329, -21641, 24769, 10428},
{-9354, 27833, -14273, 39394, -14109, -3122, -22780, -22636, 13190, 27245, 10369, -42207, 43503, 33273, -12944, 26139, -14015, -3562, -37194, -11623, 2047, -13393, -16130, 6133, 13676, 29961, -28012, -3651, -11996, -24492, -27182, -38160, 23109, -43131, -7434},
{-17810, 5800, 61416, -4701, 15407, 17802, 18434, -43316, 19036, 25443, -37326, 4783, -21586, 23764, -10838, -5105, 12578, -30637, 16428, -26726, -11423, -19526, -29794, -3493, 24049, -26252, -35985, -22764, 40998, -2383, 23019, 9607, -35058, 34053, 5795},
{-3800, 37146, -17106, 24609, 4168, 90719, -32984, -5142, -9355, 12981, -21064, -22015, 15099, -30599, -33928, -16030, -56873, -24755, -6995, 23921, 41147, 33393, 19004, 26750, -3366, -22849, -3783, -6827, -20712, 30358, -18108, -26481, -380, 786, 40978},
{34274, 31438, 34143, 7119, -21641, 34173, -36915, 22000, -27089, 15139, -32278, -4772, -36025, 19896, 13328, 13129, 19368, 19700, -35907, -39282, -35578, 27419, 37212, -29110, -33863, 18351, -25089, 15124, -20554, 38425, 27312, -40097, 4821, 10218, 37848},
{-2042, -20326, 16464, 1884, -29277, 24561, -16165, -46639, 11, 11880, -5648, -18439, -17138, 12765, -10747, -1979, -6574, 35918, 25117, 19962, 7550, 23638, 26958, -8560, -18262, 27838, 27584, 29984, 27662, -14438, -33641, -1076, -37201, 10921, -20855},
{21809, 1963, 15282, -34466, -8247, 43344, 30335, 17708, -42187, 5334, 15580, -41359, 46180, 15441, -3716, 2302, 18999, -5347, 22325, 25617, -31195, -9884, -35875, 6719, 22681, -8587, -46012, 12604, -20158, -28225, 14610, -11954, 32396, 23145, 1317},
{33434, 8006, 57017, 26212, 37270, 32176, 35217, -27502, -24288, 26680, 29131, -5546, 30884, 39814, 23714, -424, 55177, 12119, 23096, -27703, 27867, -29738, 3086, 17816, -33850, -9193, 24200, 21281, -9219, -25147, -30998, -2055, 2911, -5463, -23757},
{8563, 7826, -64967, 6867, -29844, 11971, 22048, -32173, 59585, 10539, -33843, -30170, -43567, -61510, 37543, 32051, -36366, -9355, 5387, 7203, 33601, 55441, -29723, -4431, -18370, 32748, 17112, -8900, 24088, 32895, -35930, 34711, 4861, -39269, 60194},
{7165, -22297, -43040, 16046, -13780, 8734, 16464, 31179, 62859, 38218, 2121, 22645, 40479, -32572, -32520, 14015, -49381, 29155, -3946, -7306, 12413, 45667, 32347, -5882, -27409, -3858, -37113, -8425, -46408, -35901, 19732, -31378, 16922, -28531, 87853},
{-44196, 37370, 63634, 30068, -38658, -32224, 28775, 26127, -49105, -11553, -4559, 3641, 39724, 40267, -31509, -36355, 12710, 38665, -41526, -9761, 17822, -6289, 17861, 29414, -5054, -12094, 12128, -32024, -17211, -5690, -1285, -35637, -5843, 32889, -34135},
{-41884, -22899, -9200, -7990, 32678, -22390, 25934, 17066, -22436, 38682, -22808, 13953, 6333, 28801, -19028, 18747, 25824, 28998, 3020, -18641, -25717, -14239, 33222, 35228, -2736, -12412, -17743, -4392, 40680, 13406, 44259, 5217, 19463, 7805, -54751},
{-33558, 32790, -73579, 34321, -35889, -21532, -13881, -29981, 8160, 76833, 14377, -41921, 25283, -42665, 3978, -28225, -20667, -6751, 27101, 21036, 1203, 70415, 23595, 25901, -27807, -9910, -14445, -406, -55382, 28965, 7726, 36814, -12104, 7425, 52733},
{8725, -25437, -24332, -21280, -37081, -61008, 32520, 31864, 50060, 26991, -12409, 9977, -16255, -76702, -32109, 4206, 15632, 9678, -32760, -38217, 7581, 61706, 37003, -40447, 35205, 14780, 16249, 20144, 19531, 27652, 40384, -21922, -26536, 24002, 71866},
{-78335, 37516, -4731, 11690, -1426, 2587, 36646, -34896, 51199, -14766, -3031, -10748, 40389, -24177, 21611, 11494, 26361, 20590, -6973, 17278, -36558, -20344, -11028, -28495, -40139, -6422, -22119, 40879, 17539, -21955, 1958, -11014, 18712, 21074, 36457},
{-21299, -14937, 13414, 709, 5283, 50519, 38988, 28977, -28566, -6135, -23575, -6412, 54171, 3836, 34977, -20054, 21040, -26296, 856, -44198, -28727, -1825, -4897, 33644, -19212, -3250, 34756, 21858, 43164, -33556, 41693, -34430, 11599, -34296, -17011},
{-26590, -36137, 3513, 31345, -25102, -20762, -8494, -29509, -29731, -33111, -3448, -3688, 7505, -23142, 32911, -6835, -35592, 24876, -7941, 26887, 1571, 16427, -13432, -18554, -8060, 16941, 5863, -34015, -16468, -10752, 4333, 28401, -22138, -11683, 13929},
{19171, 36912, 16520, 21035, 38405, 324, -9109, -43154, -44998, -28956, -14985, 776, 22786, -21416, 35828, -7481, 40076, -20305, 14709, -33677, -5920, 29460, 10059, -23594, -44602, 15407, 27328, -45615, 37216, 14074, 46908, -32514, 36588, -37529, -51158},
{-33606, 36221, 37057, 19036, 22018, 4991, 33974, -24905, 26977, -12917, 3662, -19748, -19679, 21893, -39623, 32263, -15093, 6207, -37650, 29530, 169, -37523, 28413, -20167, -6065, -46009, -13870, -16445, -25038, 392, 37225, 10495, -22791, 7182, 1683},
{-97900, -11296, -98491, 27652, 12687, -59796, -35070, 23220, 60287, 72659, -34306, -16523, 42649, -34119, 27626, -39425, 17157, -917, 34997, 22258, 21757, 69720, -36602, 8727, -19998, -34304, -34026, -20224, 19009, -16155, -8427, 5942, -10017, -35754, 75780},
{24268, 4502, 31325, 39346, -6239, -32322, 2012, -2209, -4170, 31034, -19895, 16815, -41011, 28179, -23020, 6281, 11334, -33171, 9944, -3891, -27087, -18527, 30689, 31503, 14124, 15692, 37122, 33794, -8385, 32914, 14984, -1799, -13997, -9192, 26002},
{24734, -32670, 3023, 17487, -12461, 56776, 2450, 3068, -31140, -28956, 4128, 23362, -4120, -10557, 36869, -6392, -14880, 11528, -29931, 14254, 40930, 23089, 6496, -23979, 22026, -18148, -6445, -19097, 56788, -39646, 37159, 12908, 21347, -37834, 11387},
{12766, -17074, 683, -27575, 20735, 30078, -4463, 20384, -54578, -25477, -10866, -8460, 47645, 22499, -21345, -5484, 40103, -23296, 25696, 7504, 36921, -30947, 20730, 8140, 20635, -45869, 25708, -40433, 16612, 32579, 42964, 5834, 15122, -27280, -20651},
{11277, 12015, 42511, 25249, -6587, 26316, 22647, 32705, -6802, 43580, -7029, -13591, 11945, 8680, -10344, -2879, 46255, -28967, 18164, -36538, 40086, -13406, 16567, 14544, -4559, 1019, 24610, -21299, -105, 1942, 34194, 961, 40102, -11000, -50997},
{-15824, -20599, -1675, -27471, -21648, -16592, -3066, 22853, -29811, 37686, 20710, -46058, 2785, -92385, -7230, -22760, 7450, -29319, 24202, 22740, 25758, 28019, -31268, -16774, 16068, -27440, 40485, -3425, 29003, -187, -3359, -22564, -6403, -20150, -3884},
{-45114, 12060, -9794, 32667, 36168, -56069, -20023, 24733, 58502, 20169, 38417, -12428, -47998, -37244, -17527, -16787, 51275, -36044, 4564, -24861, 30902, 28904, -37636, 23419, 27606, -21232, -19407, -33103, 11451, 29490, 20553, -5314, -35915, 24872, 99265},
{19057, 32538, -12291, -38219, -24330, -20677, 6272, -4617, 14367, -22103, -39169, -6811, -7173, -17871, 6584, -23145, 10046, 23066, 17478, 34646, -37669, 24608, 19708, -25864, 5520, -15615, 1667, 26687, -13742, 23751, 11172, 20481, -18418, 21130, 20541},
{2684, 10207, 57907, 23119, 5075, 29427, -1345, 24255, -16866, -16284, -37303, -4037, 18482, 20174, -13689, -44341, -15971, 33798, -33572, -5785, 30628, -38957, 27320, 20944, -8860, 18546, -11058, 15086, 33619, 36180, -2497, 31990, 1110, -19107, 7461},
{-102063, -10089, -58586, 2892, 18747, 534, -39434, 19115, -3904, 80356, -7601, -49950, 53241, -86175, -37530, 41318, 4117, 20089, 21947, 2635, -31519, 121124, 30384, -20170, 6034, 35086, 23665, 17124, -84051, 35596, 19246, -5233, 23158, 18861, 73424},
{6277, 1275, -106420, 30555, -4836, -59153, 5285, -24709, 62511, 9329, 9330, 27218, -74691, -82347, 30194, 19151, -61747, 393, -5214, 16137, 13907, 22207, -25075, -33546, 2639, -7173, 20740, -21722, 40553, -11360, -7973, -1004, 19503, -42622, 97028},
{18097, 19828, -28475, -20724, -16925, -707, 23299, 15451, 164, 28329, 30326, -27622, 35095, -72202, 12498, 13268, 3205, 39041, 33954, 38479, 7473, 18536, 28251, 13524, -17223, -24867, 22028, -19746, 1042, -11458, -7287, -19069, 34623, -11317, 24506},
{-38279, 9250, 33434, 22451, -19176, 28196, 39128, 6402, -16914, -25954, -39237, 30728, 19704, 9096, 7033, -23299, -4821, -25457, -41034, -16645, -26918, -24240, -42953, 19563, -42605, -31611, 7882, -45983, 9809, 40655, -1584, -10328, 39254, -39262, -34736},
{-40812, -10589, 20282, 15700, -15907, 18011, -12354, 31743, 7169, 21109, -35693, 1701, 16234, -6627, 29190, -40024, -36233, 4492, 5597, 39814, 14770, -41199, 36336, 24059, -34313, -6111, -6324, -286, 22915, -22361, 6142, 18174, -41368, 31644, -14288},
{11832, 30377, 47289, 39391, -25577, 2374, -23681, -32773, -15929, -33048, -22270, -46713, 26711, 8749, 30945, 35267, -10594, -39994, -37504, 606, 18734, -31501, -31985, -17732, 1118, -7028, -18250, -22372, 3302, -20662, 11948, -19692, 11015, 3607, -35527},
{-10912, 13923, 53929, -19450, 18371, 39028, 7079, -20932, -22342, 9949, 11992, -46326, 4351, 46919, -8268, -9767, 36072, -471, -41661, -20789, 1990, -43440, 15457, -6312, -19221, 21060, 4873, -2284, -14842, 36796, 27942, 28091, -5873, 15670, -33014},
{-41681, -23486, -54090, 13865, 6084, 23690, 8657, -9439, 23059, 55237, -37045, 25019, 24820, -24249, 19603, -7726, -22651, -34084, -6259, -9500, -20460, 38194, -31898, 30152, 2649, 13870, -38126, -33986, -2593, -33513, 8087, -944, 20203, 12331, 57663},
{-22514, 22671, -13587, 30218, 10907, 39320, 33695, 20268, 8392, -30975, -11477, -9326, -39433, -10609, 52, -8082, 20653, 13362, -21518, 35582, 2883, -24728, 35148, 5405, -37507, 27515, 5045, -18060, 20861, 5733, -17358, -9364, 24161, 20330, -27919},
{-42533, -40684, 66655, 35377, 25726, 42593, -20317, -11164, -40809, 42566, -15631, 2570, 60381, 43260, 5145, 3969, 37827, 6965, -25087, -26411, -8311, -52756, -11115, 15776, -37229, -11159, 1510, -44134, 33987, 4825, 43819, -34176, 12953, -46079, -64284},
{-7523, -37486, 77909, 36597, -18258, 42889, 38091, -17202, -11830, 17012, -21582, -33936, 7776, 49927, -13061, -26166, 23515, 18413, -8480, 16458, 1993, -8667, -22693, -10424, 32174, 12341, -5674, -39174, 52589, 21478, 46548, -23727, -38077, 6742, 6077},
{5416, 37313, 22276, 41349, -11103, 77712, 32494, 19966, -45015, 11918, 11921, -40461, 37797, 34995, -37905, 6042, 10152, 32872, -11754, 24154, -22319, -31452, -22506, -7603, -40851, 6108, 32163, 29065, 27332, -6709, 39036, -18639, 29803, -27990, 2126},
{-27626, -27518, 33444, -23946, -24916, 42855, 26232, -27089, 18943, 14808, 7823, -17444, -18046, -18999, -30997, 35339, 507, -19757, -10018, -7231, 20018, -3943, -37456, 33980, -1079, 10870, 27668, 35207, 34517, -12128, 21514, -12563, 5306, 4450, -32712},
{-7854, -14586, -63588, 6834, -33007, -57985, 31144, 19474, 70477, -9443, 1006, -30993, 38278, -45457, -13355, 39504, 6561, -32645, -38849, -8457, -4822, 46826, -35487, 35324, 21965, 23581, 36441, 33537, 1384, 39391, -19529, -543, -40104, 21686, 133539},
{-21133, -15623, 39995, -32819, 12262, 15193, 3387, -5519, -41964, 24864, -28255, 6448, 40150, 30157, -33012, -19988, 1616, -2795, -43831, -40465, 9220, -46985, 693, 26522, 9912, -40712, 32340, 34700, 4834, -36902, 46495, -2388, 18572, -10456, -23642},
{-27900, 6349, 61509, 1545, 12444, 20264, -40313, -10386, -55822, 30231, -9261, -9255, 26345, 14017, -38719, -25833, -17028, -6780, -46328, -28453, -397, 24421, -40712, 16114, 21314, -37679, -34688, -12019, 22810, -1319, 21085, -35867, -23411, 19150, -16076},
{-52794, -9745, -23078, 40448, 25854, -18793, 18781, -7871, 61913, 49894, -30195, -27123, 45849, -110542, -7010, -15806, 46886, 33901, -14121, 24763, -38859, 65799, 41167, -39076, -20740, 3565, -3906, -31356, -25977, -7957, 7343, -4448, -11347, -14444, 83211},
{-33819, 9032, -93609, -4753, -33267, -101562, 2645, -216, 138089, -10339, -39269, 22165, -67864, -4433, 14763, -16572, -22459, 32849, 11971, -11781, 38573, 83098, 5665, -44511, 26129, 1188, -2409, -11068, -87061, -19550, 18423, -37606, 8263, 7179, 93484},
{11987, 37523, 29819, 4740, -31475, 74969, -38601, -36418, -52689, -37007, -21493, -217, -10439, -27266, 22263, 23104, -13278, -19661, -12801, -33665, -31343, -56754, 15505, -31580, 2893, 15778, 14832, 23863, 31909, -11510, 29150, 19212, -23156, -35076, -13260},
{18386, 27519, 70078, -26810, -10599, 60027, -15499, -4807, -74998, 32708, 21273, -20844, 11937, -10652, -29562, -35339, 40455, -12151, 1423, -16084, -22556, 27580, 26490, -8324, -34629, 23873, 28130, 20086, 1654, 34296, 966, 15682, -19937, 33884, -71437},
{-7872, -22707, 5098, 15618, -24172, 24849, 34175, -35457, 28458, 36764, -8611, -13649, -39120, 38306, -14782, 20621, -22438, -39850, -3202, -9273, 6203, -33169, -25543, 10765, -28957, 36560, -31112, 34058, 2617, -22166, -8152, -26100, -22297, -1692, -39287},
{-28746, -12139, 59044, -10423, -40579, 865, -34567, -30877, -76421, 21132, 24660, 1171, 32702, 74, -34200, 22321, 15670, 17276, -4035, -42254, -25633, -33192, -37614, 38998, -14033, 25804, 35020, -42373, 548, 23613, 20869, 38634, 22060, -14944, -24205},
{-25066, 12408, 66132, -271, -10603, 7267, 1267, -17307, -58066, 34169, -38059, -14013, 36640, 44595, 9410, 16376, 4937, 18927, -33614, -10268, -35559, -16724, 21901, 19160, -6199, -38139, -17986, -14902, 6166, -40493, -30310, 5011, 3258, -15056, -39572},
{-45619, -38544, -33841, 33569, -28992, -3223, 365, -9272, 55928, -23695, -17371, -27602, 2149, -92901, 17211, -25502, -48931, 22320, 2293, 34789, -35573, -65050, 14018, -9444, -38728, 33928, -28407, 2899, 103544, -32397, -27256, 33551, 9345, -3442, -11017},
{-517, -17136, -37064, 40746, -28431, -4843, -5082, 24160, -2146, -13557, 38316, -26561, 22880, 13607, 5824, 18429, -24365, -20551, -3288, -39490, -19702, 30645, -2992, -40361, 32115, -17152, 23244, -28026, 20152, 33210, -22232, 4564, -17284, -1943, 38156},
{-14022, -25654, 4598, -20263, -37075, 42104, 38721, 23563, -74952, 49472, -32172, -7906, 29039, -20943, -28029, -5673, 13342, 21494, 12033, -6539, 8719, 20021, -33319, -28029, -11720, 9827, 20874, 26063, 56475, 33429, -30424, -13318, -1066, 31131, -35414},
{-12314, 9354, 60600, -35154, 39102, 11005, 3550, -35568, -8765, 6551, 11273, -47557, 45703, 48560, 40641, -45663, 47113, -19037, -16847, 30333, -14428, -11466, -9869, -24420, -4092, 21362, -26509, 26288, 57520, 12233, -34199, -39225, 14292, 26856, 1797},
{-17300, 25748, 21419, -35908, 6366, 56711, -10045, -22604, -57638, 47318, -443, -34795, 54969, -10842, -4020, 24833, 6430, 1953, 24440, -17206, -26577, -33288, 34186, 3278, -40501, -18049, -5160, 24214, -1946, 3962, 19645, 25658, -37741, 10872, 7297},
{-27920, 19540, -109033, -28380, 41211, -83913, 24895, 37538, 54578, 8780, 17801, -41382, 2238, -109462, 23193, -33690, 10380, -10038, -2789, -17743, -24408, 113279, -23146, -28938, 39745, -35242, 35061, 41318, -792, -33152, -33925, 20441, 24691, -6938, 128452},
{-67679, -31065, -76039, 4562, 359, -93717, 34358, 1736, 21637, 31328, -1089, 20170, 5870, -67984, 37717, -5824, -12555, 28293, -29951, 38188, 39581, 112244, -364, -4100, -25974, 22956, 33703, 17538, -57517, 21484, 34337, -31578, 24343, 22134, 95341},
{17911, 25311, 43427, 12404, 1804, 28506, 20520, -14601, -19172, -26351, -30126, -44953, 2133, -5261, 4999, -42011, -15448, 33099, -21677, 8389, -20218, -23676, -3152, -4977, -3597, -30972, 32618, 33921, -16436, 12465, 42987, 18113, 38139, 30181, -20477},
{26807, 37880, 30090, 33559, 10730, 31530, -36257, 9957, -38012, 1704, -27106, -7708, 31987, 41531, -8234, 16339, 248, 17449, 21432, -451, -15937, -18730, -16968, -38430, -12843, -44588, 479, 5606, -9240, -21677, 31050, -34532, 3369, 25082, -55383},
{-89791, -14033, -75658, 4472, -34289, -70446, -13451, -34949, 51012, 19371, -32900, -9583, 4653, -96846, 21040, -14042, 29560, 23815, 35366, 26985, 24544, 66896, -21672, 41391, -3940, -13445, 2960, 29149, -76209, -20283, -16724, -22693, -1731, 15518, 123251},
{14134, 6357, -58189, -34082, 40610, -61508, 25398, 18509, 94305, 13527, 34806, 6751, -26128, -13639, 26979, -37306, -51002, 24181, -7255, 13773, 9200, 95102, 9103, -14329, 18835, -9077, 20002, -6635, -36796, -2594, 39381, -19860, -41456, -41063, 137455},
{9792, 5685, -80678, -38314, -24460, -46512, 38929, 26887, 103228, 5893, -27580, -10802, 19518, -70257, -6281, 1041, 19158, -35452, 17286, -9314, -22708, 90773, 36374, -20363, 31438, -9136, -3991, 17862, -63446, 1577, 24835, 32403, -16373, 15456, 61902},
{23677, -1620, 63440, -30264, 22696, 49337, -12643, -29830, -29505, 53847, 24271, -36817, 24982, 39831, -13904, -33509, 40130, 26047, -14160, -7297, -19414, -43516, 29981, 33128, -37348, -23426, -13196, -19736, -1614, -7367, -16178, -3290, -15044, 704, 8100},
{28728, -34251, 26811, 35257, -6027, 4296, -9830, 37166, -33188, 5767, 1583, -8324, -11245, 19380, -4442, 23786, -23454, -7224, -34493, 10157, -17816, -11407, 27767, -38433, -19177, 18210, -8899, -5978, -25947, -28905, 4086, 21615, -13103, 30889, -28910},
{3291, 12296, 34977, -37843, -6282, 40420, -5795, -20668, -43586, -8702, -39032, -35076, 17904, -23557, -27655, 11721, 50767, -219, -28335, 12672, -823, -29485, 19587, 39380, -29655, -39833, 35389, -42363, 44377, -28614, 45001, -39761, 5889, -28674, -32828},
{-37328, -16686, 25634, 39137, 33800, 46980, -34634, 15910, -72094, 45170, 33926, -38884, -95, -19059, -35781, -43389, 26228, -14686, 2553, 34343, 4877, -31181, -356, -3667, -33134, 4232, -18681, -18883, 37411, 36504, -5656, -24380, 14152, -33436, -1530},
{56728, 9313, -100391, -6182, 14324, -90827, 23014, 511, 139901, -61457, -108, -16514, -55242, -37800, -8080, 10722, -1014, 20101, -1365, -11449, 25459, 67567, -7714, -33102, 23708, 2693, -17625, -36053, -73301, -26183, 5599, 31056, -18547, 24440, 70464},
{35664, -36543, 15218, 12006, -35361, -18194, 220, -40277, 35250, 34307, 13637, -3959, 10291, 33754, 26672, 30619, 26872, -21318, 3753, 24107, -33750, 7198, 16376, -18592, 3574, -17130, -4262, 9120, 21426, 35716, -12512, 6349, 4883, 35893, -34017},
{8690, 10978, 56937, -20110, 40455, 61839, -36662, -24391, -54303, 1868, 23892, -1066, 24721, 41301, 38206, -17226, 51542, -12943, -9207, -41646, 6337, -10261, 16211, 19081, 17948, -41919, -24891, -8349, -14641, -17290, 27308, 14186, 19367, -2832, 2956},
{4251, -25235, 15686, -28520, -28827, 65256, 31126, -18576, -52028, 23914, 28727, -8586, -8110, 15538, 17809, 32162, 4102, 13327, 219, -18704, -8848, -34458, -42314, -15426, 16452, 7758, -45163, 29707, -4684, -40974, -25083, 20567, -312, -18205, -39908},
{-34087, -24075, 8279, 10651, 28538, 67230, -39698, -35742, -80550, -11376, -2070, 4242, 17607, 11152, 21613, 16421, 14303, 10961, 7027, -6074, -2832, 8480, 844, 26245, 10482, 34677, -19133, -26550, 57662, 25327, 24032, -39829, 15163, -4130, 8936},
{-32817, 24697, -53740, 29149, -10052, -3805, 21955, -10680, 58007, 33652, -16602, 23563, 29857, -91257, 6226, -22530, -9841, -11353, -34960, 39635, 9919, 23060, 27913, 13866, -29174, 5219, 21266, -4701, -6761, -29494, -20957, 6945, 9255, -7273, 30641},
{-10189, 22491, -23539, -20690, -37639, -15223, 6930, 12827, 42454, -25451, 5855, 89, -31248, -40529, 6663, -5052, -35257, -1274, 7096, -18153, 40750, 5385, -21006, -436, 38391, 25086, 753, 19298, -46492, 18604, 28199, 19927, -37340, 4945, 14120},
{33627, 2528, 8459, 5285, -35052, 70088, -7955, 20645, -25853, -30372, 8628, -8610, 29990, -72, 38332, -43663, -20698, -17938, 31467, -20847, -24951, -41173, 9987, -40358, -2470, -16033, 3588, 22722, 37134, 8519, -26671, 35540, -15116, -27606, 10647},
{-12958, 33456, 31022, 14341, 3435, 55317, 25170, 1020, -32178, 41615, -47627, -39399, 16684, 13014, -26478, -33226, -13564, -37945, -33138, -41221, 29059, -25148, -31887, -12791, -7637, 24720, -18695, 2274, 20441, -36691, 13061, -13971, 25146, -40683, -20749},
{-77019, -27356, -78611, -31650, 23655, -89415, -33560, 25646, 127372, 106777, -138, 18, 30814, -85366, -18140, -25699, -11671, 1887, 21232, 11619, -25982, 105517, -4380, 4767, 22493, -1282, -28268, -37038, -52441, -2020, 41005, 40834, 13296, 9372, 94915},
{1507, -11778, -130711, -33852, -41017, -75534, -9297, -17045, 98300, -32523, 24347, -14627, -9558, -20245, 31013, 40224, -63667, -26533, 31645, 27754, -13288, 30616, 4817, 17602, 32361, -655, 14441, 38677, -44660, 8087, 34933, -28981, 19603, -39098, 54559},
{30518, -30459, -70002, 30332, 502, -30344, -23336, 24619, 11559, 60115, -2001, -37440, 38225, 8040, -5917, -33579, 47557, -11312, 28658, 41401, 3260, -1549, 7629, 11925, -21806, 14036, -19736, 837, -70912, 8908, -3943, 22763, -30591, 2818, 71376},
{27505, -3628, 12003, -5254, -10506, 61989, -21961, 26853, -13048, 28100, 23179, -5396, 29593, -953, -7796, -38659, 11714, 16587, -15989, 20806, 3845, -12796, 29554, -27930, 24496, 1750, -23732, 5845, 40143, -27018, 19580, 39324, -23726, 34457, -33716},
{25458, -16292, 4478, 3647, -20647, -12606, 8078, -17533, -16922, -28824, 4160, -21115, 38941, -9217, 29970, 21864, 4730, 2120, 9508, 7133, -29050, 22188, -7225, -26557, 25031, -8057, 21995, -35235, -14310, -32174, -4695, 29715, -15148, -21220, -29197},
{19569, 24250, 50306, 10964, 22967, 31151, -36230, -21592, -52407, 5282, -18106, 5663, -1842, -22930, -23782, 3399, 3625, -33145, 10048, 12568, 36940, -50829, -40441, 11234, -9511, 29737, -35820, 27232, 37005, 35372, -3386, 12912, 21573, -38941, 8440},
{-27077, 14132, 50314, -16795, -28161, 10091, -21391, -3043, -66382, -32700, -42545, 11184, 21852, 38157, -17143, -26187, -9522, -26688, 31005, -19338, 2723, -16396, 5739, -15220, -10979, -10395, 25724, 4767, -8586, -29808, 27518, 15210, -10112, -897, -54337},
{7007, 10188, -71660, 2924, 15547, -31840, -25702, -10796, 37343, -9360, 30342, 2588, -69828, -58752, 27158, -16199, -52151, 8630, -3042, 40498, -41028, 33229, -822, -19527, -29538, 32518, 40016, 12241, -72481, 286, 31757, -11609, 8178, -11387, 71736},
{-19022, 11073, 38914, -25741, -36930, -28751, -18578, -6350, 25789, -20286, 27753, -32457, -3484, 38989, -2875, 37658, 2884, -26687, 1554, 28334, 11566, -41392, 36683, -27162, -36693, 39750, 9919, 5605, 5308, 2303, -14178, 28072, 21607, -37426, -30561},
{18747, 31938, 24672, -21951, 37293, 51517, -2338, 35361, -55284, -25265, -23148, -51253, -2426, 34460, -35945, -13052, -15790, 1344, -19624, 14303, 12357, 30124, -16375, -39764, -6765, -6701, 20123, 31429, 14669, 35713, -25727, -22181, -35190, 11568, -21260},
{-21736, -26068, 25553, 278, 40478, 65180, -2039, -25326, -86181, -14292, -27392, 16162, -7703, 43678, -27223, 11989, -136, -12316, -46260, 9143, -36931, -54547, 6943, -23148, -19978, -41946, -12001, 6215, 49603, -19982, -16992, -9584, -34772, -4098, -3132},
{489, -8228, 33295, 10696, 31852, 73672, 32186, -35971, -91014, 3114, -16799, -21734, 48889, 46636, -6038, 8739, 27219, 983, -23832, 33611, -7053, -6859, 23810, -39656, 22303, 28546, -34510, 25777, 58675, -3788, -10251, -6887, -39748, -13527, -2551},
{14439, 40443, -6468, 31485, -5697, 15104, 29509, -20234, 36088, 29537, 33282, 24219, -48310, -84082, -13080, 11651, -56637, -10781, -20082, -38, -31926, 42294, 21248, -25765, -14340, 19884, -8457, -5745, -19378, 6008, 36404, -15804, 23911, 7132, 38081},
{55392, -16884, -117402, -7374, -18947, 9799, 12211, 6006, 94678, 13195, 8095, -28226, -39958, -31949, -27680, -26676, -86862, -38432, -30579, -28869, 11891, 20946, 18818, -35844, -9006, -18346, -11196, 13031, -45084, -28431, 34688, -3710, -25409, 2659, 103327},
{40527, 40440, 72419, -1393, -27754, 20327, 5746, -33209, -49266, -879, 13841, -33657, 15793, -224, 7641, 22601, 9037, -15982, -12745, 23564, -26456, -6486, 23497, -4285, -89, -3198, 1161, -566, 52802, 198, -5822, 34849, 33838, -16502, -39234},
{-39189, -29291, 40630, -40671, 18031, 33222, 41113, 1640, -9550, -773, 3456, 25392, 64013, 38303, 16771, 33539, 55865, 24598, -24904, 17648, 24892, -22205, 8304, -36411, 28870, -37464, 13663, -28758, 22912, -4748, 37934, -17865, 39033, 869, -10149},
{-62284, -1096, -73964, -35773, 2055, -34072, 25335, -29701, 118104, 60353, 11294, 22968, 10927, -34200, -1231, 28810, -27552, 35990, 32760, 29510, -15088, 136516, 6207, 19453, -19013, 32970, 33926, 41382, -93481, -31154, -16275, 9823, -9046, 2541, 150387},
{-37991, 10108, -142210, -14909, -2923, -93294, 20890, 23658, 133275, 8329, 6366, -27709, -23834, -78303, 10728, 35290, -29950, -3081, -23989, 33652, -14774, 57309, 9710, 7735, 7899, -19403, -30619, -27778, -72686, 15151, -24037, -15633, -18630, -31110, 86460},
{2985, -17350, -51773, 12981, -11890, -20334, 4092, 12325, 40651, 77600, -3426, -4790, 57080, -108867, 17109, 15634, -47011, 39024, 14212, -27497, 38561, 71317, 17476, -7414, 10590, -10792, -29737, 679, 1519, 10366, 14930, 33717, -3462, -18402, 52143},
{-21631, 4515, 62100, 9169, -9071, 16955, 22628, 32682, -72756, -26618, -35206, -27441, 69830, -17886, 18545, -17406, 11547, -33986, 26354, 20609, -32286, -25083, 15136, -38847, 19474, 12552, -20989, 34157, 17813, -26352, -27554, 38385, 23918, -30774, -70805},
{15772, 33360, 32364, -29549, 18718, -6510, -23882, -10462, -30189, 33993, -29674, -1822, -20900, 16918, -1556, 12300, -14770, -11939, 19581, -17259, 29048, 19034, -5744, 36418, -34966, 2227, -17558, 31013, -20287, -31249, -2558, 21301, 8806, 29546, -2518},
{36157, 25768, 71079, -39892, 38725, 18205, 8821, -32334, -35281, 24964, 13147, 23237, 65127, 7509, 12188, -14229, -21946, 5892, -7349, -14019, 14208, -36757, 30778, -12667, -42167, -23723, 1108, 30272, 58520, 5078, -21436, 34101, -21374, 17401, -7568},
{-16191, 25950, 55635, 39946, -30981, 49714, 25982, 20731, -18182, -10297, -40726, -43968, 36410, 36551, -33718, -29355, -24202, -35134, -8784, -33183, 18814, 26409, -16495, 12580, -39098, -22870, -13761, 25662, -4902, 22462, 44666, 13717, 3474, -40438, 1456},
{-33566, -3392, -91432, -35788, -24911, -92147, 39606, -20194, 143942, 56559, 36606, -41207, 18633, -58343, 40590, -33144, -16742, -10449, 26209, 26614, 39686, 111290, -672, -13406, -14788, -32970, 14044, 6746, -48879, -37031, 25316, 31537, -31801, 35510, 93215},
{-29432, -34840, -14727, 35902, -21982, 29470, 14618, 24889, -29275, -26031, 31561, 3288, -15313, 34235, -41295, 26307, -730, -17614, 4337, 31408, -18146, -1084, -736, 37580, -1890, -31852, -33644, -18043, 24093, 5753, 29598, -16144, -4532, -38653, -5098},
{-28646, -957, 56102, -9104, 18278, 47159, 25062, 18112, -80544, 37816, 31456, 26104, 7791, 4611, -16733, -11546, 16601, -32318, -26195, 22592, 40649, -3940, -44216, -8131, -5145, -15251, 6188, 22902, 14347, -20619, 10, -41064, 12833, 22428, -21818},
{13322, 361, 66336, 23106, -28608, 55833, 19856, 26005, -30561, -373, 25006, 27727, 61910, 23278, -28639, -31807, 40352, 22706, 30609, 3259, -997, 25431, 11195, -2665, -10158, -37534, -37589, -24231, -7340, -20551, 39428, -39721, -34438, -4591, -31303},
{-40330, -8830, 51245, -25876, -29783, 38306, 473, -27037, -62650, 24177, 6383, -43245, 10141, 49930, 35992, 28039, -9519, 36545, -18097, -8840, -2249, 27301, 16617, 13832, -28770, -22691, 13327, -31344, -8915, -32792, 33690, 28155, 9810, -30942, -47},
{193, 3114, -68369, -21474, -31860, -34908, -14200, 33772, 38564, 44761, -7213, -33575, 59162, -1501, -38900, 1178, 56795, -22256, 29750, 23684, 19679, 85063, 16911, 37003, 14740, -29886, 39514, 31418, -6727, -14746, 32792, -15618, -10560, -38597, 24875},
{18538, 31951, -3378, 40358, -22407, -46850, -30351, -34920, 76942, 16392, -19829, 18822, -40137, -23611, -12054, 12324, -29218, -27589, 22272, -1594, -15767, 24614, -1427, -22559, 26484, -22313, 2883, 8664, -2445, 34310, -34689, -32467, 26216, -4211, 78053},
{-12981, -5818, 35097, -35545, -3491, 45956, -14902, 5884, -88823, 6829, -28480, 1127, 44875, 6492, -25660, -22233, 30779, -25200, -7953, 33727, 1831, -39376, -24617, 40321, -35152, 1931, -33357, 11612, -5781, 29728, 43743, 33519, -23946, -678, -14443},
{21005, -36367, 45220, 2771, -10473, 89155, -2993, 28038, -61667, -28459, -47316, -38067, -2990, -10546, 16622, 4331, 2192, 8207, -15632, -44619, -7914, -9135, -16159, 23172, -41855, -2784, -10052, -38469, -22272, -8216, -27264, -12289, -15587, 16305, -51044},
{-93346, -28107, -74981, 21295, -34822, -10710, -5966, 3231, -3135, 83155, 7301, -14801, 35497, -50224, 14027, 35190, 30941, 26732, -32265, -31360, -2207, 101132, 40226, 9714, -4716, -27039, -39244, -26317, -34179, 31271, -7761, -40121, -31851, -40934, 79914},
{25230, 19956, -109189, -6502, -25479, -72901, -30654, 18036, 104239, -47586, 22784, 22241, -41520, -7973, 19182, 19134, 6820, -36996, -21613, 8883, -19170, 73131, 4783, 33728, 26963, -36415, 24345, -31135, -40558, 19830, -36066, -5054, 22177, -1873, 82359},
{-16114, -39154, -25437, -28824, -35854, -76212, 38692, 12847, 1636, 60336, 40844, -9303, 13258, -19302, 24647, -21799, 50394, -26553, -16045, 4986, 25289, 38444, 27136, 19826, 26605, 17371, -1728, 6327, -36376, 8453, -861, -30889, 9865, -18790, 26671},
{6163, -19719, 61876, 29676, 23362, 92119, 30754, -38286, -84640, 21693, 27793, 20009, 28513, 58267, 10053, -19425, 49529, -2793, 30441, -44220, 17899, -6114, -14564, 30027, 4659, 33261, 17385, 19489, -14403, 522, -32295, -912, 13061, -13855, -33070},
{26159, -8017, -28636, 16728, 30577, 5235, 5552, 32410, 9053, 28658, -10029, 21677, 29922, -9330, 5664, 28365, -13165, 16067, -3295, 36611, -41041, 8470, -10835, -20970, -28517, -2170, -25564, 7658, 1643, -20481, -18352, 25052, -19847, 1170, 30759},
