#define  __ROI_STARTX  50 
#define  __ROI_STARTY  67 
#define  __ROI_WIDTH  60 
#define  __ROI_HEIGHT  50 
#define  __FILTER_SIZE  3 
#define  __FILTER_STRIDE  2 
#define  __LAYER0_CHANNEL  16 
#define  __LAYER0_X  29 
#define  __LAYER0_Y  24 
#define  __DNN1NODE 30 
#define  __DNN2NODE 4

const  float  gnL1f[16][3][3] = { 
{{-138244, -26758, -187363}, {-185847, -94915, -171013}, {-86086, 79427, -105608}}, 
{{22244, 36188, 1890}, {67493, 77505, 179336}, {64936, -98737, 67452}}, 
{{-83331, -30939, -84489}, {-78651, 45425, -77459}, {179685, 165178, -106656}}, 
{{10041, -107402, 136340}, {-114043, 109459, -2785}, {175123, 2215, -190728}}, 
{{-66278, -123829, 186369}, {-21349, -174781, -62332}, {27805, -3992, 199073}}, 
{{135040, 161865, -159468}, {-49382, -140957, -104758}, {-139123, -161153, 36813}}, 
{{-57210, -31359, -72096}, {65109, 193426, -98005}, {-162120, 24275, -153436}}, 
{{-74049, -60464, 166671}, {-42812, -209600, -24408}, {135189, -128325, 189570}}, 
{{-58122, 34920, 75153}, {-17093, 99142, -20405}, {-187558, 154459, -155056}}, 
{{61974, -185084, -163969}, {-101062, 56273, -77723}, {-96302, -195448, -58291}}, 
{{-17562, 189829, -17953}, {-133199, -102480, 119697}, {-110197, 76262, -68643}}, 
{{-30929, 48961, -117424}, {-73342, -20296, 7493}, {-13999, -193908, 31160}}, 
{{11420, 43121, 178661}, {134687, -76052, -106524}, {-10297, -38189, 62913}}, 
{{104116, -166531, -197128}, {-94748, 31272, -42012}, {81964, -132054, 111589}}, 
{{-11872, 91480, 39028}, {188316, -107539, 118563}, {110736, -87288, -176755}}, 
{{97449, 49111, -45390}, {47868, 149949, -67787}, {-102160, 17202, 126667}} 
}; 

const  float  gnL1fbias[16] = {0, -26979, 30117, 2420, 28868, 0, 0, 26418, 30276, 0, 28018, 0, -11573, 0, -24488, -27961}; 

const  int  gnDNN1w[2688][30] = { 
{-6126, 10307, -27150, 37214, 9130, 42536, -13018, 6173, 9151, 37136, -23875, -41127, 26298, 10434, -29765, -2891, -28434, 19350, -30980, 21933, 19482, -1648, 38484, 28284, 3587, -20735, 17674, 21736, -26694, 20476},
{30539, -21090, 32540, -16566, -7785, 35319, -52025, -24172, -52143, 19391, -20140, -24138, 39323, -2566, -7454, -10158, -27630, -17342, -13977, 27964, 21659, 6470, -17867, 5695, -35480, -3586, 31147, 22098, 37603, 23055},
{30301, 21442, -38441, -39547, 16954, -13920, -17788, 32454, -40177, 20448, 9860, 36319, 33668, 31943, 32507, 25785, 40546, -36135, -42363, 32182, -15255, 21472, 1825, 31316, 32668, -62559, 53443, -46241, 9017, 38556},
{-41801, -22083, 12751, -979, 22483, -32910, -383, -44521, 10775, -18244, 5936, -24432, 35248, -40550, -35341, -23204, 15727, 37348, 36456, 14552, 34733, -29723, 31595, 7132, 44163, -3621, 35069, 22791, -28785, -50470},
{28010, -16960, 20620, -22800, -38376, 7440, 28798, -40317, 34310, -16980, -34324, 43088, -2275, -36442, 37592, 24495, -25243, -33355, 5513, 24408, 34425, -3076, -24788, -29643, -10817, -21906, 1329, 40908, -31587, 12978},
{22953, 27708, -2090, 41634, 44946, -14583, -4745, 34221, -19654, -42041, 7307, 11768, -19347, -42487, -29381, -35057, -18195, 32578, 38797, -27201, -979, -29555, -857, -29450, 30506, -3879, 41960, -27840, 32791, -18327},
{-19764, -30812, -8194, -6331, -24492, 33647, -9300, 19949, -6065, -24971, 33387, 17066, 27147, -32418, -12185, 27852, -10228, 15551, -21281, -30586, 8419, 5234, 41585, -20206, -4590, 15472, -26259, 46347, -15556, 38096},
{16618, 21738, 33935, -39546, -23147, 1039, -9951, 28488, -18809, 2193, -21345, -24552, -40321, -21122, 29567, -44608, -17725, 32781, 33983, -393, -9892, 10731, 29725, -6713, 13000, 20505, -36837, -21964, 4523, -28},
{-2560, 86405, 3913, -40320, -6855, -68691, 26827, 14100, 53617, 57732, -17586, 22575, -8370, -23426, 23747, -24022, 22114, -14902, 22180, 28242, -40758, -21697, 39614, 37913, 57250, 10570, 26302, 1597, 2628, -30675},
{-24448, 10307, -35816, 29528, -13151, 12314, -36084, -3114, 36152, -31268, -21673, 36101, 21779, 25396, -42871, -15272, -40790, -15305, 1936, -41444, 3716, 16928, -33445, -18822, 3083, -29724, -43515, 24646, 10650, 1260},
{24047, 17993, -24849, -15793, 34661, -15198, -3370, 31574, 35555, 13867, -30820, -13546, -3722, -25829, -11940, 22354, -29646, -60990, 5410, -14573, -33493, 40713, -17800, 23441, 1919, 8379, 46639, -11982, 20477, -22753},
{-6312, -17, -46027, 2869, 33035, -19740, 30477, -876, 20297, 9333, -29990, -14464, -6462, -22179, 25402, 14756, 19823, -8136, -31200, -31247, 38244, -29728, -23358, -14582, 28435, -15370, -9270, -1153, -6704, 1550},
{1785, 16727, -50466, 26565, 39019, 47133, 10257, 25954, -44418, -9792, 14989, 32369, 8902, -46942, -11430, -9889, -17959, -15762, -31803, -40036, 7177, 4860, -47408, -272, -50926, 43761, -50497, -16452, -10846, 265},
{-40334, -29808, 11561, -15455, 41046, -35707, -9072, -31741, 34318, -851, 8207, -10211, 37466, 18333, 19641, -9969, -12003, 34517, 27521, -21730, 4078, -6234, 8909, 39666, -24677, -12784, -36053, -22116, 27246, 31278},
{-13200, -14913, 37838, 25285, -21521, 15137, -24403, 30201, 18928, 63977, -41748, 15163, 5144, 20259, 35775, 54551, 35593, -10637, -22652, 11955, 8840, -3886, -29839, -7843, -33695, 1384, 10271, -11431, -20507, -12563},
{12063, 59304, -12985, -33577, 840, 42975, 30146, -39125, 34164, 23136, 15057, -5348, -19913, 40784, -29215, 24551, 14848, -43441, -22457, 29560, 28880, 22097, -17079, -37114, -52494, 42317, 22832, -43084, -26072, -34249},
{31537, -34652, 14478, -23922, 3331, 39503, 15438, -2005, -5768, -3339, -9908, -18894, 42055, 46667, -7892, -22333, -19530, -1596, 6176, -15518, 22672, 29270, -10720, -13798, -32552, -9281, -23836, 42847, 26840, -7393},
{15046, 38022, -44783, -33815, 20741, -21509, -2716, 37983, 9114, -11408, -21117, 4787, 37244, 31887, 18702, 40565, 35605, 27897, 5353, -43384, -49658, -43968, -46381, -21137, -6628, -9498, -15662, 32362, -9759, -29391},
{17548, 14861, 2474, -8880, -8587, -36935, 37608, -24790, 20999, -7585, -6953, -34439, -18063, 44882, -40590, -36952, -36817, 3188, -14029, -621, -22988, 29008, 15846, -23683, 35934, -38530, 6268, -46911, 44652, 21867},
{6611, 28781, 37963, -16834, 30123, -3409, -11847, 848, 4761, 18483, 8184, 11030, 21128, -3126, 3463, -16366, -5468, 2586, 1735, 67381, -35079, -1408, -15200, -12743, 55065, 11093, -42915, 38646, 19478, -46320},
{18001, 525, 3869, -7969, 33988, 13554, 20047, 33878, -34355, -1608, 30693, 27504, 4722, -38753, 43103, 38036, -35080, -15307, -14365, 56822, 24996, -3529, -47236, 3399, 31684, -63725, -38728, 31131, -4696, -11032},
{10350, -42176, -35007, 22580, 31014, -25812, -42053, -24738, -24174, -35260, 42372, 16607, -39726, 32623, 22485, -6277, 1848, 5646, -33778, -20152, 33888, 5057, -25086, 13066, -28456, 17696, -5267, -35951, -22176, 43781},
{27638, -20432, 40382, 36824, -16550, -2279, 1341, -11244, -35682, -3326, -14282, -33866, 7075, 10929, -29312, 4538, 9190, -4255, 11027, -19056, -24999, -34297, -12734, -44405, 16833, -40019, -8906, -1121, -21963, 16655},
{-6793, -11000, 37713, -33896, 9979, -64893, -27371, 10362, 37870, 28880, 34326, 43831, 36378, -7043, -35037, -23045, -45118, -3101, 4792, -12849, 15621, 26449, 33397, 32060, 6567, -76116, -1873, -28139, -6648, 12485},
{16837, -5837, -5608, 40929, -33573, 4844, 9109, -28800, -35964, 29799, 40942, -32411, 11853, 39072, 36043, 14676, 20502, 24062, -29789, 4037, 10815, -51579, -40626, -198, -26379, 9338, -31407, 9222, -37377, 8196},
{-17536, -20029, 22844, -22873, -39043, 21043, 45991, -25791, -23944, -22233, 28025, -35609, 21914, 12076, -28676, 8826, 46712, -8867, 21503, 5346, 16078, -17599, -14595, 45058, 5165, -12064, -13004, -27066, -22220, -8602},
{-19289, 38630, 28690, 13055, 31707, -9269, 10970, 34989, -16511, 28440, -21053, -27060, -39342, 6558, 24797, -43876, -8471, -30975, -35970, 54393, -17863, -26891, 21819, 11655, -38499, -31829, 5031, -13481, -28816, -41966},
{-5939, 2130, 42780, 35539, 17333, 10800, -41917, 32426, -45222, 46319, -10428, 26112, 31601, 32517, -5189, -14576, 44699, -14400, 11458, 14892, -34286, 33157, 11030, -36143, 14038, -35701, 16997, -6973, -7574, -43966},
{-33852, 36039, -2352, 40319, 15121, 57033, -15870, -3190, 28407, -17329, -47844, 6684, 40475, -26855, -35516, -28662, 28399, 35751, -13619, -12709, 37685, -5892, -37486, -45126, -14566, 49761, -34665, 25649, -11927, 17190},
{23373, -3544, 42215, 20304, -24621, 1868, 46231, 36189, -29209, 34552, -14461, -2558, 4592, -29968, 39721, 43039, -9318, 13541, -45472, 11239, -16217, -22064, -25527, -26540, 25129, 34258, -14293, -23964, -9493, 4655},
{35619, 32431, 12563, -19897, 18076, 31712, -50996, -52629, -20001, -7400, 12247, 22677, -15137, -50000, 19935, 28948, 20509, -7647, -11146, -853, -42135, -23079, -33225, -4173, -40277, 5324, 31357, -19434, 9896, -35301},
{10395, 53922, -34625, 40364, -21204, -21266, -48260, -12400, -32918, 55175, 7466, 40694, 43948, 40909, 28922, 37644, -13304, -32978, -33079, -5710, -42397, -35459, 2787, 28447, -8263, -18587, 13446, 46299, 33301, 23951},
{28305, 13727, 21646, -13398, -20242, 43704, -35640, 15521, -34876, -34597, 25806, -36935, 6982, 46369, -32362, 34544, 43497, 39903, 14284, 35336, -2705, -10495, -13761, 4736, 35488, -4575, 27358, 35551, -21656, -8887},
{-20950, -25917, -25137, -13200, -21975, -18297, 6810, -15840, 13607, -17230, -32870, -34854, -30247, -20033, 1071, -8367, 10704, 3177, -34, -33503, -17812, -40393, 36513, -17714, 38521, -26204, 3221, 29333, 23978, 2861},
{-4613, 97897, -37902, -41846, 4688, -76712, -9563, 25278, -438, 45482, -35398, 16765, 10534, 11262, -17596, -43222, 315, -94789, 16548, 19806, -37728, -51565, 19580, -26622, -78920, -44805, 40695, -18311, -40073, -11322},
{13469, 4709, -39326, 24011, 14964, -18048, 27923, -29155, 24189, 15887, 20655, -11364, 44386, -37142, -36139, -9772, 32416, -47811, -25781, 43156, -29147, -7053, -46157, -16949, -2815, -44456, -32607, 14681, 1690, 41571},
{-23202, -41716, -17677, -3257, -14070, -66182, 15593, -50499, 15349, -27658, -42109, -30504, -45165, -27341, -46439, -17695, 24992, 20650, 20794, -9648, -18334, -1824, 34476, 37994, -5976, -5663, -18348, 17222, -8954, 22160},
{-40828, 31655, 13332, -10107, 22491, -45421, -35598, 21953, 14754, 9392, 16969, 186, 40694, 3228, -17626, 25788, 1118, 2181, -10415, 12779, 18330, 22853, -40913, 30437, -44297, 34554, -43225, -5785, 45469, -21577},
{18977, -16555, 756, 21568, -40640, 46018, -18193, -21444, 10198, 6271, -21180, 8466, 46319, 44789, 28701, -7537, -40874, -33393, 17298, -30804, 46736, 44843, 6083, -17129, 1295, -28503, -34679, -16096, -21357, -27187},
{-28446, -22089, -20058, -45274, -32211, -35227, -39267, -25984, -6674, -60849, -25937, -11147, 46677, -33275, -29396, 51340, 38239, 214, -37418, 35161, 28307, -18670, 24254, -26688, 31082, -20061, 56974, -39009, 27393, 5463},
{-33814, 63070, -3146, 38586, 21029, -33860, -13823, 27811, 32243, -21340, 21800, 4725, -5736, 33904, -16229, -17875, 17368, 16947, -13410, -423, -15805, -8260, 5032, -21614, -46, -22213, 13224, -10900, 22221, -26483},
{-35840, 40913, 38319, -33181, -23679, -26205, 42310, 40436, 35322, 3826, -16583, -1243, 46577, 37155, -27784, -11946, -45151, -9302, 6524, -16023, -10743, 12907, -36417, 23784, -21674, 42595, -5061, 25425, 40494, -29141},
{-9204, 34860, 19547, 43388, 1175, -37201, -27656, -19061, 12815, 43183, -11932, 41564, -18080, -25264, 36969, 2195, 51847, 26824, -34208, 71334, 38743, -46031, -52092, -48941, 5606, 28441, 27717, -12890, 36925, -13064},
{40831, -11415, -24791, 28063, -24178, 12500, 31369, 2757, -29186, -42957, 30644, -9133, -8099, 25428, -43037, 45530, -37336, 10329, -34574, 308, -27943, -16393, -14702, 45752, 41320, 35883, 17958, 30900, -16135, 43396},
{39516, -10672, -50389, 1969, -20644, -10488, 37951, -28881, 7792, 47528, -49224, -31957, 12811, 37523, -1266, 35506, -910, 39490, 12525, -22303, 17806, 10354, -19772, -13618, -21601, -38224, -45030, -8256, -8697, 4641},
{9742, 3914, -20607, 26074, 45033, -24541, 40762, 6536, 33044, -38360, 19552, 640, 7923, 23070, 26681, -12490, 40680, -17986, 40018, -2485, -43358, 30593, -41397, 34692, -42893, 6977, 40265, 37931, 43808, -43626},
{3204, 13461, 1188, -14898, 36095, -36027, 5563, -35273, -29110, 593, 9251, -5668, -14347, 9882, -7835, -21651, 23624, 25731, 31632, -25184, -39066, 33262, 39577, 20715, 45819, -13420, -18337, -12833, 36568, 24333},
{-27893, 57425, 7225, -14466, 4265, 43187, 4633, -25739, -45916, 50640, -44053, -3639, 30946, -25116, -1488, -1633, 25756, 16984, -29401, -47159, 37144, 25176, 30138, 32409, -32382, 25375, -36851, -44247, -1692, -43566},
{-17635, 8940, 12037, -36127, -19831, -41189, -26739, 3542, -44335, -9097, 25741, 22258, 13671, 43247, 30962, 31037, -12870, 43904, -37114, 24065, 31106, -34120, 7993, -40567, -16047, -17262, 14711, 19261, 45195, -28858},
{-50467, 4511, -24493, -38996, -47653, 29566, -23662, 1290, -53846, -6426, 6828, 41422, -46199, 28853, 24304, 19520, 32570, 45219, -19573, 21286, 34416, 12034, -50230, -24994, -50046, 4228, -16421, 41247, -29874, 29509},
{22737, 31166, 11860, 33021, -32596, 13754, -18452, -35383, 27860, 12052, 42659, -992, 23807, -41352, -17060, -4053, -41148, 14512, -7473, 20933, -30118, -35123, 36912, -43840, 19383, -8334, -32010, -26756, -6089, 11571},
{-46213, 14088, 1878, 17259, -45660, 34164, -26847, -23562, -4332, -36590, 11817, 19184, 2662, -39103, -40915, -5706, -16957, 5771, 28406, 23060, 4844, 2596, -27832, -51583, 52548, -8884, -43051, -16165, 33196, -42259},
{-4993, -6521, 15363, 9479, -16418, -62155, -40219, 37038, 33145, -25385, 16835, 22455, 30373, 15189, -23810, -50922, -32614, -14136, 33314, 58654, -25466, 19405, -19458, -28828, 41945, -35103, 47083, 13070, 26905, 912},
{33330, 18318, -45662, 12505, -43830, 15346, -29890, -20861, -38584, 15691, 27789, 790, -40953, -44792, -6027, -8300, 41110, 33635, 1810, 12992, 6898, -4970, 9281, -42080, -6177, -26105, 42358, 35578, -32098, 40500},
{-32918, -15842, 35845, -40665, 4920, 9428, 29552, -19347, -32012, 15387, 13731, -6436, 27873, -33244, 8019, -45530, 43913, -4804, -31302, -32031, 1935, 14912, 41009, -22613, -2059, 19641, 10067, 3723, -46183, -45097},
{-35663, 10032, -10264, -31076, 36457, -1522, 20550, -20531, -10181, 21196, -31888, -31894, -44291, -39599, 18674, 534, 38608, -36077, 27372, 5179, -12376, -27918, -24497, 32849, 73030, -2103, 30942, -41581, -25727, 39188},
{28249, 57079, -15821, -3266, -39893, 1759, 3741, -12357, -40161, 19608, -3602, -7902, 46950, -24804, 13947, -34098, 14892, -24611, 16085, 11220, 18157, -40223, 26153, 9186, 74899, 35752, 36905, -19023, -20716, -12684},
{30134, 27309, 3298, 4033, 32038, 17651, -14746, 5312, 27517, -21957, 28965, 42838, -28579, 24790, -40084, 338, 16661, -4208, -17759, -16103, -24464, -7681, -42547, 33953, -26209, 23509, 32632, 9606, -414, -30566},
{-24202, 55239, -49953, -2001, 1867, -6249, 35716, 12283, 28630, -21710, 42468, -30804, -18004, 18830, -7677, -57183, 25907, -19212, -31444, 30887, 46411, 37927, -1825, -48241, -1265, 30884, 27127, -38090, 41189, -22124},
{40307, 17977, 46504, -46587, 5355, -46662, 6007, 32140, 23732, -33212, -7670, 35951, 37824, 18050, -39440, 9769, -8660, -44305, -12726, 18902, -26227, 25275, -40860, -31451, 702, -12372, -37510, -40803, -13344, -3404},
{39547, 6109, -22812, -4455, -15882, 52498, 16269, -50196, 4993, -15647, -43393, -9422, -6419, -24841, -32138, 15367, -52159, 3780, 24975, 16069, -32863, -10237, -50213, 37405, 17882, 7591, -6655, -36297, -9574, 19791},
{25783, -28795, 33282, -8511, 12361, -5523, 34987, -44560, 21905, -229, -28255, -26887, -42421, -21221, 14588, 3035, 9361, -10218, 46935, -34707, 8785, 29971, -39806, -23087, -18146, 43652, 37150, 46904, -45250, -5239},
{1956, -9265, -16789, 6617, 3551, -9266, -25378, 21974, -33179, 34499, 16772, 28586, 2310, -44763, 22740, -25498, 20001, 16047, 5802, -44621, 27012, 34322, -15363, 9875, 48259, 48786, -4471, -17071, -30731, -36737},
{-13992, 26563, 40296, -41991, -17315, 17139, -41244, 8332, -28875, 9387, -21734, 20278, -25163, 38024, 17281, 896, -48050, 46576, -9211, -32957, 36141, 6781, -36388, -49300, -41612, 28926, -23957, 34255, -45712, 14695},
{-7032, -43000, -40755, -5075, -2689, -28441, 46901, 18401, -20837, -5310, -12425, -42885, -6764, 4288, -21161, 39850, -41540, 21818, -9587, 37843, -957, -5260, 43686, 40200, -45699, 1468, 8250, -21470, -46063, -4153},
{-26460, -5503, 25769, 1543, 2436, -8574, 38500, 21493, -32028, -15784, -26495, -15032, -7126, -50379, -51344, -8960, -10281, 10891, 5024, 18385, 29369, 19566, -18713, 10934, -30633, -17245, 9995, 27403, 28615, 10062},
{-12389, 56768, 35590, -13239, 25645, -10800, 17866, -33585, 412, 20550, -31149, 16676, -4634, -20337, -23223, -36087, -20403, -50069, -1222, 48751, 14770, 10593, 29773, -46299, 17551, 9808, 31268, 39003, 25090, -36192},
{361, 29214, -51036, -8766, 34781, 34167, 32539, -22644, -25114, 46294, 38376, 23846, 1095, -20544, 8957, -27655, 41502, -42454, 33950, 41858, 36950, -24566, 35957, -23548, 30581, -30820, -1164, -11022, 363, -47467},
{35197, 32900, -7768, -20998, 4331, -60715, 1056, 28238, 22555, -16462, -12922, 8583, -995, 41944, 39589, -61909, -40536, -72197, -3917, 43464, -36864, 14332, 31647, -43692, 41914, -72617, 20335, 20557, -30843, 2656},
{26454, 20341, -31585, 11252, 11635, 8807, 11007, 44793, -7491, 28899, -23546, -5980, -29161, 29855, -11837, 21510, -30636, -987, -44705, -33299, 27362, 2665, -21616, -30095, 11282, -19814, -25703, -36193, -24241, 21978},
{-32653, -30766, -2525, -6042, 24895, -27215, -31173, 11526, 32011, 13622, -2022, 41342, 38581, -25670, 20178, -18902, 37114, -40604, 8937, 39576, 44813, -24974, -4113, -3107, 38810, 25451, 22680, -2222, -2573, 39994},
{41649, 9546, 3124, 22870, 16163, -40559, -2797, 23759, 39815, -13043, -23195, 6552, -46035, -49674, 39426, 14693, 36985, 4846, 26680, 51827, -38405, 9442, -17283, -48089, 66511, 23470, 42517, -7690, -18217, 23768},
{-17273, 67859, -33168, 4840, -35421, -75726, -17510, 19822, -10527, 19301, -25572, 22367, -9905, -8820, 45068, 14649, -48453, -8381, 462, 10985, 1468, -21327, 1085, -33391, 35134, -7250, 7045, 8021, 24678, 1737},
{-31853, -40136, 44040, 16424, -46088, -23026, -1159, 8958, 3105, 43123, 11509, -26004, -25764, -27656, 45070, -18562, -6827, 15587, 9255, 948, -25605, -7851, 36546, -36754, -46982, -33861, 27509, 32941, -39299, 42816},
{4712, 17773, -29915, -46148, -19852, -41201, -18955, 8735, 39807, 2744, -18653, 7058, 7100, -45755, 22401, 7666, -28253, -39827, 14919, 82940, 43184, -43842, -3633, -7553, 65513, -67948, -43562, 27432, -5462, 11199},
{-12535, -30522, 12049, 42959, 44873, 37313, 27606, -179, -45928, 20782, -42644, 42403, 29359, 14526, -12770, -5979, -38187, -46255, -39906, 3228, 11402, -979, -43335, 21872, -38403, -29542, 16882, -3760, 46711, 36743},
{-16418, 32329, -16655, 24343, 23972, 25926, -46690, 30304, 5014, -37890, -9031, 42957, 1023, -41659, 15667, -30066, -36478, 34593, -23647, -8811, -22438, -15093, 2949, -11081, -7122, -40914, -29771, -28681, -21028, -36567},
{19989, -30767, -18542, 21398, 5087, -8614, 9426, -8959, 28911, -7806, -11329, 23828, -41308, -15290, 46421, 44611, -23049, 46024, -27472, -33603, -30622, 39243, 16250, 11709, -40026, -175, 36386, 30258, -22433, 4681},
{4155, -634, -27412, 20036, -21110, -6217, -43032, -42703, 321, -13399, 25885, 19003, -39255, 6032, -51868, 60710, -44048, -10287, -5488, -9848, 22840, -12174, 14036, -9800, -7494, 30622, 6635, -11524, -6562, 37203},
{34841, -5355, -43655, 27838, 15384, -3949, 13525, 7651, -7127, 30921, -22647, -18740, 11686, 23006, 24764, -18369, 19235, -20786, 25514, -33237, -36419, 13428, 34875, -4942, 8096, -38018, -8367, -29758, -48476, -39702},
{10258, 36146, 36303, 13763, -5403, -28660, -8746, 17906, 2458, 42853, 1509, -36627, 17191, 10982, 39565, -3278, -30534, -336, -17181, 13955, -10890, -8841, 15011, -40902, -32083, -3355, 46377, 6110, -37718, 31467},
{-36952, 46716, -14976, -33216, 5144, 60623, -35340, -1044, 29746, 53302, -828, 4317, -14470, -38345, -20176, 18339, 9802, -7981, -17250, -29437, -29711, 23260, 4381, -37448, 32581, 19639, -4305, 4491, -46770, -20960},
{39406, 25914, -4419, 16939, -23580, -52990, 42966, -107, 5373, -4124, 13023, 2666, -11894, -41460, -15341, 13506, -11833, -26567, 5164, 52595, -13986, -38050, -18487, 30767, 41326, -51120, 7184, -33, -39278, -46383},
{-5207, 54271, -43978, -45671, -24449, -61670, -3533, -19341, 2241, 60197, -45509, -40627, -1537, 9691, -15836, -24144, 8275, 2106, -2384, 3662, 12274, -8399, -22724, 14502, -50194, 13916, 33874, 6875, 20689, 19296},
{4479, 48030, 20890, -46677, -15897, -54023, 2545, -49364, 43357, -41891, 8050, 27869, -19270, -19475, -7390, -54784, 14601, -6559, -6801, 27792, 13250, -20328, 12619, 17537, 46096, -74566, -22359, -18285, 40063, 25863},
{39135, -27028, 17138, -24129, 11876, -3230, 8507, 10685, 42460, 16191, 32435, 44637, 29753, -10768, -40077, -28596, 6841, 1687, 328, 46967, -42874, -32608, 20079, -34035, 33959, 27450, -1051, 27509, 638, 30456},
{17239, 33882, 5582, 23122, -32537, 8114, -14783, 18035, 24179, -12053, 36288, -26594, 11767, -26001, -3460, 24185, -8382, 24718, -14423, -3169, 40414, -21386, 1275, 8459, -33089, -43770, -44932, 36421, 12871, 3862},
{-7995, 28780, -34895, -72, -29968, -41921, 5626, 27720, 15594, -2091, 23601, -45784, -15099, 7023, 16574, -56361, 43150, -6325, 25304, 62187, -6530, -24444, -52093, -12610, -1048, -39801, 46132, 28602, 39095, -49734},
{-3483, 43900, -41116, 17894, -5483, -57718, 46117, 22028, -35937, -15208, -14134, 33608, -16999, -29692, -20240, 11038, -24763, -33938, 7977, 1416, 19383, 20530, -5873, -7166, 48949, -11659, -22381, 11573, 26330, -33026},
{-15741, 18754, 15841, 12209, 1337, 10082, -17021, -9383, -22845, 30603, -20546, -25882, -39903, -23224, 18936, 13697, 19408, 30518, -18975, 2711, 35849, -4424, -3341, 12261, -22175, -36837, -28947, 30266, -27609, -22752},
{37137, -17391, -35219, 45409, -24356, -64258, 16784, -22496, 8771, -25319, 11488, -25469, 37969, 12237, -18769, -30319, 20389, -13654, 19863, 72284, -29335, 22432, 37028, -36000, 89789, -20785, -44802, -45741, -50013, -38672},
{32629, 26650, -10378, 2727, -9986, -7534, 18479, 35878, -44239, -43915, -39538, -13493, 43017, -28131, -38248, -21494, 6369, 22557, -10663, 34650, -11583, -40147, 24899, 12035, -7794, -1383, -20034, -25314, -31653, -38135},
{29350, -8503, -4158, -44216, 14657, 5827, 1696, 16707, -30003, 9413, -6388, 16587, -6295, -46450, -42930, 60651, -47850, -26770, 21665, -47087, -41115, -1063, 20523, 14204, -46975, -14558, -6443, -25800, 34300, -46943},
{-24281, -23694, 12037, 38909, -20151, -6338, 30768, 1084, -18061, -35033, -33850, -23752, 5714, 21849, 22181, 6446, 7474, -23721, -12852, -37019, 15100, 30118, -17412, 17995, 10673, 41231, 18807, 26768, -15693, -28674},
{505, 5796, -3272, -4880, 40805, 48931, -39311, 3895, -51355, -25258, 29544, -19802, 8462, -50784, 218, 52430, -11388, -14594, 9947, -23463, 39842, 14653, -19269, -7292, 8060, 38490, -18570, 29276, 37138, -13341},
{-12051, 4203, 40008, -11720, -38040, 16579, -31590, 19643, -35372, 43794, -26373, 494, -33513, 16377, 26135, 14047, 206, 51738, 3143, 3672, -47072, 11939, 16418, 33665, -25128, -5436, -1105, 38642, 1339, -42303},
{-14932, -23635, 1396, 17845, -41774, 17658, -4539, 15811, -9659, 14514, 10604, 13391, 27074, -9458, 8270, 1048, 4350, -17761, -34893, -115, 30924, -33689, 19456, -5091, -22968, 15647, 46006, 26779, -40711, 15545},
{10803, 25616, -18735, -442, 40129, 8606, 30274, 26319, -19826, -3583, -20964, -34560, -24089, -35282, -8118, 10709, 12401, -26360, -48859, -9958, -47196, 10163, -14719, -119, -15121, -39538, -17515, -27492, 19400, -47244},
{-9735, -35191, 43554, -35481, 20775, -32477, -15018, -28605, -17294, 8658, 35326, -28716, -16632, 31543, -27857, 10142, 33688, -29405, -31662, -6918, -29038, -20791, -4915, -14327, 54136, 29661, -25543, 11891, -28735, 8636},
{-21170, 2520, -25082, -880, -25215, 8861, 15482, 9782, -18734, 41330, 10595, -31868, 43643, -21241, -37595, -27177, 44673, 25488, -35517, -21069, -26362, -37659, 29449, -24145, 18318, 43872, 1431, -919, 14872, -1685},
{27151, -49527, 26604, 4745, -24293, -65524, -32394, 21284, 19727, 28675, -5516, -29704, -21850, 2509, -7902, -27493, -6963, -17175, -7118, 58866, 27650, -20978, 40537, -39750, 63766, 2883, -2163, -995, -979, 17896},
{-12848, -7832, -32923, -43234, 41014, -281, 12190, 28683, -26071, -11134, 20741, -45771, -41304, -42036, -43400, -13822, -29514, 46196, 27877, -8888, -8034, -33439, 28408, 14991, -15619, 15810, 44443, 19964, 32144, 30044},
{-792, -42671, 40204, -42278, -32299, 35492, 22438, -43443, -9079, 1840, -7216, -33369, -24930, -24199, 18104, -42108, 5981, 21791, 19455, -39704, 35145, -29831, -4378, 44840, -35012, -46351, -20793, 18545, -17503, -25714},
{30629, 64678, -38508, 39728, -8851, -72832, -42042, -4934, 35877, 55798, 33816, 35833, -45771, -34659, -52415, -1045, 14770, -34912, -21098, 71887, -11536, -45015, 35874, -41279, 84794, 402, -26699, 32909, -51068, -29843},
{-22341, -22848, -42898, 39030, -43281, -34775, -15061, -35433, -40900, 11125, 2193, 10747, 15818, 45071, 30320, -48453, 10685, -58802, 36510, 74334, 43558, -31315, 29693, 20589, 39645, 63784, -59122, 17427, -11323, 23038},
{-27520, 38180, -28065, 6961, 11973, -36365, 1797, 17985, -15639, -19316, -28637, 31415, -40246, 37206, -44481, 10172, -237, 19167, -41008, -17150, -9293, -32401, -36288, 41964, 22415, -10965, -28511, -20462, -28812, 3720},
{29887, 29389, -37505, -25972, 17951, -40342, 31459, 14776, -16966, 27114, -15928, -3513, 9126, 29488, -30125, 18946, 32573, -9811, 34951, 40596, -44575, -29850, -5960, -42462, -21080, 3399, -13710, -27363, 13343, 15394},
{-36460, 28849, -3609, -32335, -11987, 15176, -22851, 25659, 11675, -14201, 5301, 33609, 40517, 40136, -17859, 35784, -35476, 41568, -25746, -45633, 28148, -44075, 11089, -23908, -20441, 30694, 46559, -22579, 375, -40581},
{38128, -15588, 39077, -6207, -39912, 37047, 26092, -20165, -46626, -35597, -23572, -33150, -191, -10083, 12365, -18667, 7594, 45995, -45038, -22022, 19639, -41185, 37898, 4672, 26888, 8491, 27490, -38354, -32262, 5420},
{18461, -29219, 37548, -43708, 13609, 27940, 33366, -45432, -13793, -22254, 1915, -17200, -38106, 42282, -10504, 19426, 41401, 12659, -1004, -19596, 24033, -17668, -35932, 30695, 12037, -9333, -4758, 30921, 36071, 26923},
{-51917, -28059, 29817, 17932, -39200, 39532, -47554, 30488, -25687, -44395, 23258, 6933, 13203, 31214, -14620, -9641, -37706, 5000, 18143, -35666, -37670, -46691, 9866, 3958, 33057, 29644, 15776, 2587, -13186, 9055},
{-5654, 13738, -7136, 31130, -36117, 20167, 18081, -26851, 29244, -7010, -13134, -27457, 10980, -27943, -52664, 47027, -1969, 5945, 26043, 8896, 30084, -8697, 33545, -7295, -48136, 21071, -17736, -21375, -1528, 14207},
{-42531, 41176, -1244, 2270, -25679, 39036, -38101, -44375, -36046, -20437, 16359, -6284, 30096, 34731, 36928, -45362, -41396, 42543, 24523, -720, -4718, 35225, -21534, -18092, -38887, 7359, 40384, -13993, -29777, 11723},
{24761, 23302, 9307, -7529, -11844, -10455, -24522, 27164, -25729, -21809, -37508, -1551, 5532, 28618, 12803, 12920, -27473, -9605, -42343, -13745, 20059, 18106, 23813, 6930, -40610, -28302, -43053, 3322, -16177, 1235},
{15380, 44747, -8620, -24831, 21902, -10538, -29092, 14871, -10454, 11320, -28597, 25420, 9943, 16967, 46184, 17438, 49021, -38645, -578, -25570, 38504, -22164, 37189, 12108, -17648, -32790, -10002, -14006, 28936, 39950},
{23812, -44994, 10991, 40835, -7589, 39014, 4025, -41356, -40476, 1998, 16572, 42214, -18481, -49890, -16734, -13624, 30304, -32356, -46657, 42112, -20407, 26745, -41055, -27460, -48359, 5977, -16487, 46085, -16777, -36822},
{21654, 25716, 13156, -20555, -6158, 33888, 15451, 42268, -27509, 4503, -30476, 21795, 18904, 3764, 3568, 42379, -30558, 35999, -24748, 5449, -27830, -10058, 24185, -10987, -29113, 6441, 1560, -30236, -31136, -32259},
{2130, -36271, 5009, -26489, 16116, 10183, 3834, -43910, -16016, 26813, -37219, 19127, 27909, 6678, 12049, -14333, -40642, -23486, 11169, -17166, 45190, -16793, 17863, 36422, -45273, -28119, 34912, 35788, 30842, -41743},
{-12601, -12159, -9599, -25383, -14328, -32247, 23079, 1945, 45686, -40242, -1570, 3085, 27766, 18498, 21437, 16145, -10549, 28424, 13255, -17693, -6453, -26606, 32215, 45977, -31073, -38513, 12246, 15611, 20822, 37969},
{38727, -52561, -29303, -21486, -49882, 40564, 31219, -27162, -6808, 31637, -51260, 18238, 14350, 36528, 26839, 7792, 29096, -34950, -26017, -15294, -33741, 7298, 40576, -4713, 49072, 8793, 25545, -15275, -33292, -51017},
{44022, -18949, 17415, 21159, -32331, -51164, 46138, -4796, -31217, 56815, -21022, 41949, 368, -15725, 25542, -1902, -34948, -8215, -6481, 53589, -20931, 8227, -34458, -24732, 15143, -16002, -26076, 18221, -44559, 30039},
{-736, -37247, 21578, -40983, -46054, 16831, 19850, 29026, -13076, 46387, -25317, 36906, -25473, 22096, 19665, 45448, -15552, 408, -45590, -13845, -33125, -2938, 18364, 5462, -27191, 35654, 25174, -29948, 14922, 9081},
{-6139, 16159, -8696, -19267, 49778, -48213, 36456, -30665, -36708, -6530, 25111, 24879, 4366, -37581, 24338, 17229, -34018, 2743, -46173, -1781, 43178, -52572, 37673, -33798, 674, 30645, -14463, -33798, -34590, -27596},
{-20, -5808, -26331, 32788, 21589, 6795, 29402, -43767, -30667, 12779, -25398, 9377, 2936, 32084, -12391, 22099, -13434, -29823, 16444, -30573, -24828, 37743, 5908, -45789, 37008, 34562, -21856, -34146, -29330, -1941},
{-44797, -34876, -39603, -32290, -18606, 33062, 7881, 36069, 22984, 21236, -24545, -2713, 38282, 21974, 7623, 41237, -22212, 37539, 37451, -2325, -29109, -23736, 14540, 2035, 4990, 27581, 32778, -26695, -37283, 21208},
{-38134, -30453, -46468, -32306, -11008, -11006, -3457, -37136, -3631, 8779, 14283, 12883, -353, 30462, -13074, -27023, 43274, 14472, -44336, 9632, -8067, -31972, -39813, 18466, 6244, -29148, 27132, 18602, -20860, 31137},
{38661, -57739, -26740, 10009, 11587, 61898, 33382, 36514, -43197, -15637, 34076, 15820, -613, 26791, -17636, 44670, -46281, 19562, 37295, 20389, 6581, 37615, 5210, -31528, 19589, -5396, -22824, -36079, -11956, -40994},
{-12802, 29476, -21594, -26478, 5599, 71828, -4326, 23181, -47003, -31086, -37395, -41514, 19405, 24124, -37937, 27976, -48544, 9454, -32481, -57232, 20864, -30967, -27436, -36722, -28208, 52603, -49513, 31612, 39113, -37526},
{-4108, 8362, 35904, -13441, 19463, 13621, 19176, 43101, -39673, 457, 12068, 16746, -4495, -40502, -31496, -4551, -7238, 21574, -15234, -2234, -28765, -5015, 18175, 1735, -25706, 36382, -38898, -31970, 33095, -32430},
{6135, 2925, -43382, -10545, -47367, 53317, -47340, -26183, -7880, -36461, -39516, -36690, 2210, 34683, -41317, 23080, -42653, -4861, -27888, -8277, -18121, -7955, -23428, 21128, -19397, -34159, 18462, -4581, 40431, 17956},
{3016, 20608, -50015, -8636, -19078, 14180, 42991, 20911, -46766, 7419, -22999, 3038, -24371, 2994, 35354, -45743, -37833, -11105, -32236, -16649, -3922, -1284, 31976, -24397, -60638, -35696, 13177, 16654, -24016, 10745},
{9514, 17297, -23553, -13153, 12111, -31182, -41576, 18517, -37174, -18919, 9590, -16620, -43045, -50189, -33687, -2595, 16068, -28208, 9147, -19667, -10127, 40143, 7566, 31013, -17527, 54252, 312, 45889, -20493, 38472},
{-40726, 25478, 6978, 16612, 8368, -31022, -8522, 1906, -19527, -2644, -12933, -12904, -28561, -42789, 23792, -35903, -3328, -41099, -42579, -12463, -37294, 2263, 28622, -28991, 1746, -50503, 6507, -44962, 39648, -17866},
{-15380, 45239, 46865, -12451, 20375, -34309, 17751, -21561, 11269, 849, -27556, 43015, -17223, 6535, -22739, -35920, -33944, -31119, 8800, -11714, 8576, -45436, -979, -43754, -35763, -43432, -4473, -22116, 44825, 28462},
{-35871, 5813, 22850, -37444, 36522, 19584, -26020, -21709, 30292, -25655, -22410, 46165, 19034, 9703, 33852, -15894, -13250, 39432, -33098, -8390, 7199, 33527, -45641, -10077, 6609, 20351, 27794, -18259, 35034, -31320},
{7254, 32564, 14662, 44715, -24783, 22059, -10334, -41604, 2331, -17247, 30369, -22315, -27112, 17728, -50209, 49959, 17047, -51041, -16625, -13817, 40639, 38943, 1009, -9359, 1669, 15778, -49154, -4844, 3325, -11751},
{47432, -7956, -30713, -30626, -42569, -7979, 16103, 28049, 27767, 35546, -4676, -23520, 31823, -17816, 42644, -50185, -39851, -32583, -2660, 48282, -20760, -3308, 14835, 24538, 4133, 26474, 550, -8226, 28778, -13980},
{-12317, 1151, 27684, 20442, 25465, 31184, 39931, 2772, -36023, -41930, -9716, 20868, -40995, -13648, -14135, -16136, 23913, 7995, 8853, 16447, 7602, -46647, 11235, 40087, 7954, -20482, -40546, 1432, -41706, 11006},
{-19275, -4979, 10974, -32209, 35898, -10739, -7072, 16723, -37091, 12846, 25586, -8149, 43995, 41967, -33439, -62072, 45654, -9213, -35269, 72565, 37164, 40790, 39787, 22834, 46428, -13062, -23172, -2010, 18665, 38879},
{10626, -32756, -15388, 7794, 40113, 28096, 15772, -28223, -931, 9539, -9405, 5614, 32369, -36414, -1926, 34116, -1168, -29136, -10394, 40316, 10915, 36178, -45088, -12872, 42994, -41166, -38002, -37108, 3386, 9758},
{-48998, -9367, 20171, 46971, 18664, 37827, 10182, -50284, 24235, -24275, 7638, -1914, -11037, 29043, 8992, 4746, 17728, -30120, -30511, 36638, 7830, -31233, -46859, -30573, 24333, -11715, -29619, 40308, 34301, -17062},
{15363, 15201, 30001, -11331, 42245, 26022, -44179, 39165, 13232, -18443, -10745, -23432, 28491, 30372, 24260, 40645, -540, 11785, -5562, 14780, -38908, 7431, 44417, -40225, -27423, -15502, -15624, -20343, -17628, 39874},
{25863, -5303, 19390, 45836, -47959, 36161, 4463, 30263, -54120, -15037, 6978, 44573, 3383, -27959, -40225, 24208, -35938, -25262, -26381, -9474, -11615, 10128, -6019, -3502, -23267, 2839, -4522, 32127, -7470, -35349},
{-33557, -17898, 33042, 20, -972, 54451, -15019, -52905, 36446, -8305, -30515, 27319, 7356, -5928, -9531, -12824, -42473, 38133, -24078, -19725, 25159, 26036, 40680, -4043, -37661, 19527, 35766, -6105, -30907, 16598},
{15069, 44312, 38471, -21349, 29606, -32722, 20445, -40183, 24571, -5427, 9405, -24162, -46051, -19631, 7743, -708, -42384, -10950, -36627, -5047, -6123, 15627, 13378, -38776, -28880, -18544, -3025, -9294, -44846, -10870},
{-19183, -13922, 35041, 6915, -47639, -1789, -8727, -13778, -15540, -26009, -19805, -34264, 27081, -36999, 30657, -4623, 15956, 42785, -29030, 40541, 20153, -43321, -18725, -8383, -29630, -31137, -17842, 34062, 38790, 36354},
{28259, 76162, -4246, -16540, 12804, 16129, 36988, 34360, -4958, 75728, -37924, -19202, 37557, 33462, -35975, 31314, -15836, -12270, 2419, 52585, -32203, -29926, 39461, 1261, 32815, -5298, -7579, 21028, -5389, -28411},
{4475, -35661, -40502, 38163, -46972, -5034, -35084, -31029, -10164, 6552, -12274, -12759, -2463, 16970, -39647, -34459, 38172, -28891, -36649, 36715, 13068, 23081, 39132, -41717, -23303, 18727, -46731, 18892, -26795, 2834},
{16733, -1718, 10917, -42992, -31057, -6830, 29120, -27553, -39636, 40573, 11305, -28025, -24612, -11497, 40753, 28329, 18835, -4528, -36035, -17924, -33163, 31844, 38545, 15934, 18539, -49878, -27541, 26346, -7055, -29460},
{15205, -5508, -12998, 21364, 45774, 38048, 14307, -9045, -21360, 10964, 26047, 37712, 4047, -44459, -8522, 5919, -44781, 6170, -27440, -41280, -33620, 30457, -45855, 40665, 7811, 43153, 22080, 40204, 527, 11656},
{-45458, -11402, -13800, 27372, 7533, 8312, 20994, 25583, -44842, -30889, 33693, -14787, -25532, -24970, 26728, -10497, 34056, 4691, -41619, 11704, -44898, -15040, -21679, 1987, -23378, -14624, -26162, 30183, -22109, 31520},
{37784, 13215, -36702, 23202, 39797, -12954, -21533, 36060, -33525, 21759, 29728, 5916, -843, 40730, 33154, -34414, -36676, 17695, -16730, -5004, 38211, -19403, -18048, -31928, -3037, 41551, -31658, 19323, 4458, 19083},
{29609, 27632, -47033, 7189, 28567, -31701, 43460, 1654, 34593, 17805, 20569, 36891, -21783, -42893, 13545, -16119, 36999, -15543, -49598, -3706, -6080, 12961, -29072, -42907, 65669, 49942, -47277, 19925, 29319, -944},
{-15241, 15843, -40866, 1654, -29210, 39939, -21900, -4447, -20695, 40303, -13915, 26097, -36450, -17849, -4998, 30699, 6287, -14195, -43347, 38422, 7819, -40652, 45238, -19081, -28171, -351, 1820, 9325, -360, 14660},
{50149, 32434, -38671, 11537, -40722, 6832, -8617, 6518, -25403, -2014, 27887, -8651, -46348, 12279, -27337, 1917, -22911, 28823, -12777, 15304, 40146, -15388, 6520, 11074, 54060, -12004, -18055, 21052, 8172, -28751},
{-14702, 21282, 46471, 13984, 44842, -24972, 9507, -28878, -20056, 42960, -16428, 29726, 809, -22972, -28192, 34522, 41735, 22390, -33340, 43689, -28260, -43298, 2919, 3932, 42916, -24434, -25659, -14385, -40268, -45452},
{18035, -39582, -22604, 45465, -38715, -8288, 7185, -24085, -21768, 23331, -34896, 18894, 7896, 39119, 19018, 31089, -47513, 17045, 23480, 12302, 28590, -13296, 27996, -23323, -12342, 44837, 5438, 2141, 10117, -8340},
{35577, -13533, -29103, -31253, 27686, 31152, 32241, 11155, -42700, -9242, -38381, 32918, -14677, -7316, -3083, 11975, -19790, 31741, -6197, 1851, 8473, 33464, -44376, -16321, -18280, -18796, 8266, 41270, -37563, -36911},
{30718, 34900, -35233, 25255, 37446, -37350, 16721, -14293, -12258, 45343, 215, -22761, 15047, -18632, 10597, 23571, -35613, 14481, 25032, -10498, -29333, -17178, 5210, 16452, -2084, -41977, -113, 34486, -35951, -33767},
{-21980, 22769, -10471, 34942, 14272, 55856, -51049, 6651, 17204, -40070, 21120, 19233, 34853, -17268, -40954, 44580, 7134, -22727, 16655, 9133, 27467, -35802, -14216, 24786, 30661, 1145, 17573, -40978, 27661, -6537},
{23654, -1452, -32223, -41381, 39426, 42291, 2382, -25633, -21182, 5028, 37202, -3570, -34690, -4766, -42186, -7965, 9273, 10248, -16501, -10148, 45933, -35465, 36758, -6373, 34899, 27824, 9856, 6960, -20083, -34268},
{-41814, -45085, -49280, 13722, -8175, 47170, -51900, 15519, -34112, -22350, -15146, -12706, -3197, -21239, -21225, 25938, 38104, 45554, 21730, 35883, 1673, 10964, 24486, 10350, -17207, 6769, 8853, -32686, -34809, 31122},
{-22093, 72705, 20341, -36957, -35802, -16008, 426, -16967, 36387, 55564, -34765, -17704, 27884, 9050, -11265, -24171, 48688, -20853, -37217, 2602, -14014, 39155, 50747, 7840, -75130, 7135, 46791, -2403, 18304, -39207},
{-23923, 62828, -36629, 33678, 37895, -34509, 11757, 22645, 42035, -16838, 33261, -44648, -34526, -46204, -28355, -44625, -50929, -32901, -15355, 38702, 5913, 40554, 37616, 9980, -2582, 41867, 32338, 7916, -26887, 28020},
{4012, -16890, 12878, 43042, 14601, -52201, 30819, -29389, 29967, 17548, -22766, 44831, -2989, -35708, 23107, -1568, -34175, -36891, 27511, -19862, 8255, 20415, -23197, 27193, -815, -61724, -32011, 2510, 30497, -8860},
{24437, -27392, 44380, -12085, 6018, 18153, -11689, -32506, -39793, 3519, -1464, 30530, 5632, 22694, -43449, 42811, 8476, 41766, -46106, 44560, -1314, 19827, -45480, -20075, -31131, 42903, -39643, -25450, 43024, -20574},
{33605, 24764, 38600, -23436, -20665, -4750, -26116, -21251, 5690, 21167, -36215, -30735, 41759, -40874, -44079, -39113, -40802, -40011, -38035, 24, -18518, -45183, -34037, 8754, 5673, -16903, -36922, 16562, 563, -10953},
{-14433, 27089, 35468, -23747, 42440, -22795, -51187, -27360, 34606, 2105, -29678, -9298, -10302, -29612, 24349, 2001, -26769, -41315, -46576, 38731, -28710, -44118, -15578, 10841, -28395, -11443, 25627, 28745, -30257, -14391},
{44856, 3279, -38539, 5077, -36847, -63503, 27782, 471, -9340, 50660, -32579, -25147, -34739, -7910, -46573, -3296, -46251, -31290, 48204, 82825, 21930, -50601, 21279, 7797, 69948, 33338, -52742, 31245, 11610, -6056},
{-17993, 5175, 23091, -44523, -7307, -22253, 11638, -11608, 28471, -41932, -29018, 24718, 14702, -42112, -10911, -32515, -21858, -11672, 44566, 45483, -1381, 9736, -32560, -10688, -40780, -5254, -6404, 6969, -46095, 27684},
{3371, 22856, 14217, 14099, -9275, -9130, 37605, 8516, -14212, 16659, 28738, -46264, -9580, -43103, -20109, -67028, -42470, -28480, -17570, 39371, 41420, 24068, 37071, 41201, 32964, -7706, -42088, 25323, -25871, -21938},
{-36413, -43870, -11167, 33293, 25595, 2107, -34031, -35356, -4798, -20093, -26493, -365, 31945, -5915, -42744, -33502, 31464, 29137, -11249, 43172, 15197, -7335, -182, 7261, -32592, 36626, 22032, -25749, -6754, -26289},
{-42006, 36412, -11681, 20568, -29990, 43266, 31313, 18447, 19400, -1122, 27519, -13116, -40674, -4578, 33247, 23220, 32299, 47206, 11954, 254, -151, -35773, 35722, -10680, 40934, -553, 35323, 7369, 15714, 38805},
{6385, -37883, -17777, 3631, 10162, -19407, 19493, 28645, -33839, -43478, 17309, 6751, -28253, -31525, 3382, 2426, 43038, 26338, 42070, 26213, -41695, -2247, 22790, 24980, 36452, -12234, -38977, -3621, 2176, -784},
{9456, 1871, -832, 39795, 13544, -8277, 1687, 971, 29747, -38559, -31838, 13124, 20389, -21906, 21117, 3258, -47089, 529, -35905, 20226, -2928, -18666, -4921, 18505, -26849, -26301, -20744, -40212, 7807, -28656},
{-20331, -24969, -52632, 24426, -47100, 56648, -2151, -9642, -938, 4713, -3117, -26000, 15616, -11877, -12035, 40662, 27881, 37520, -50746, -25367, -44046, 1426, 1880, -30443, 46700, 5287, -24672, 44903, -11625, -38296},
{8259, -41478, 25533, -42837, 10879, 7946, -12023, 19313, 3057, 28249, 29215, 8558, -19640, 21518, -16490, -8404, -10216, 21044, 15158, -1785, 2652, 13148, 29799, -5161, -6904, -145, -42019, -11687, -25129, 39878},
{3206, -45973, 32391, 2977, 1728, 22175, 24573, -47370, -8114, -48994, 8023, -24098, -17322, 832, 33244, -12564, -31009, 40950, -5885, -1984, -17933, 13237, -49684, 12939, 12307, 30771, 40533, 25582, -12261, -44852},
{-43442, 28974, 22396, 14185, 18331, -21185, -8319, 11759, 4824, 43721, -44191, -7954, 2398, -15195, 39205, -1407, -40175, -14991, -19418, -21505, 4772, -7299, 23617, 6290, 18897, 31268, -13207, 25671, 9946, -38964},
{-4247, -24552, -11689, 41250, -20014, -48243, -42745, 38599, 36221, -35269, 11929, -4963, -12767, -10069, -35331, 2653, 41350, 43831, -40810, -5382, -1903, -30681, 17607, 41232, -5202, -18263, 7068, 45959, -40102, 32754},
{-33517, -15256, 35640, -12010, 38974, 1515, 7943, 10667, 43170, -55817, -42621, -34859, -14995, -8476, 29735, -23969, -35157, 20805, 23343, 39013, 39017, 27910, -17331, -30608, -3477, -54925, 60997, -11250, -31898, -36862},
{5577, -16684, 745, -8730, -38588, -23085, 4639, 39600, -12554, 38649, 18973, 18632, 1582, -32156, 13147, 18754, 1068, 32865, 33854, 36094, 4277, 26019, -32888, -41023, 41171, 17198, -24998, 44376, -30293, 22463},
{26444, 7387, 44682, 25834, 11400, -45564, -41531, -20061, 13471, -25331, 37268, -22065, 42197, -3656, 21403, 25203, -26474, -9443, 28244, 38390, -27395, -7891, -13993, 5214, 26791, -37714, 4943, -41566, -17808, -20845},
{-43289, -25280, 21964, -7292, -23410, -36944, -26052, -4245, 7974, -30564, -37404, -44973, -20984, 16243, -2207, -40311, -8065, -10405, -42076, 6396, -50073, -50896, -30953, -21827, 44443, 44432, -51591, 38022, 24453, 14641},
{26626, 28934, 34677, 6249, 20706, 17621, -6163, 41704, 28572, 19604, 37153, 12635, 26183, 13594, 35962, -59090, 6026, 1325, 37517, 35139, -17221, -32583, -35998, 2733, -12049, 34823, -25698, -23244, 36437, 28021},
{-212, -12410, 31580, 44398, -36460, -35415, -27731, -22726, -43188, 22282, -34404, -21891, -7716, 17365, 7587, -38780, 35596, -25418, 14084, -1475, 23795, 32149, 39262, 20690, -16604, -41029, -7515, 19659, 14945, 35610},
{30316, -7568, 39677, 33797, -34040, -2904, 841, -10497, 5225, 12318, 32726, 3299, -6664, -1467, -6055, -1542, 1267, 8701, -5979, 50227, 40108, -7054, -30067, 11776, 6088, 8744, -13953, -33841, -4062, 37332},
{15644, 28514, -5369, 9403, 41091, -27054, -43954, -11024, -16828, -1548, 32367, -21580, -10370, -26583, -9226, 7519, -19478, 27373, -38465, -21597, 31969, -16995, -1654, 34213, -13357, 17541, 24628, 6831, -8190, 41842},
{-49122, -14838, 35123, -20540, -42169, 29339, -38340, -3386, 5594, 15177, 6280, -8913, -12330, -11775, 30222, 49972, 8700, 23032, -23474, 11958, -17875, -46089, -47211, 29905, -19043, 40141, 24460, 22531, 31954, 36229},
{-21702, -46701, -31445, 44941, -32936, -13134, -34307, -21965, -15862, -17691, 9878, -2598, 38939, 20679, 41318, -40782, -46053, -9313, -31325, 26380, 32458, -36324, 12947, -18242, -45452, -613, -25547, -19735, 31743, -44346},
{9261, -11200, 35125, -12097, 39203, 13839, -44887, 19421, -22503, -33223, -23805, 36941, 6899, -24815, -18653, 28440, -2634, 22891, 4488, -52765, 24441, -13499, 34567, 39657, -6020, 31712, -31567, 20227, 7791, -22752},
{25128, -41628, 29444, 11423, 16224, 26041, -44204, -33630, 30441, 18004, -49219, 9767, -10416, 11528, 30899, -10921, -32607, 64132, 10037, 705, -15573, -23164, -26602, 778, -18343, -10179, 11913, -29568, -39201, 16209},
{17669, -20029, -16345, -2070, 11246, 30651, -7227, -16791, -3580, 1932, -41707, 12112, -14846, 8001, -24930, -24003, 8237, -31312, 35915, 38240, 23142, 33572, 10677, 46165, 22646, 34414, 6826, -18350, 42944, -35932},
{-230, -43454, -15734, -20706, -53583, -11646, -34088, -17066, 16640, 6247, 5347, 39205, -14023, 22781, 5633, 36767, -18450, 38942, -44196, -42473, -26580, 5973, 4498, -4877, -24289, -31843, -38375, 21850, -29682, -21532},
{-45411, 44307, -9889, -32050, 11553, -7328, 42758, 1667, -20201, -6713, 43029, -10916, -43973, 18952, 30322, -43403, 40564, -12390, -5815, -1036, -21298, -11084, 19201, 41643, -54151, 39070, 31849, -2956, 33522, -35496},
{-26299, 32387, 20032, 1365, -21865, 19416, -20862, -13733, -35387, 4667, -10949, 1956, 10586, -27061, -4641, -21816, 25357, -7862, 26852, 12916, 29234, -30875, 14415, -34113, 203, 8699, 36873, 21119, -3122, 18271},
{-9710, -9650, 23705, 19595, -21560, 14463, 1100, 22529, -3577, 12421, 33145, 11039, 25839, -14997, 37599, -158, -10502, -66452, 7469, 4578, -42321, 6393, 18240, -16458, -23577, 14589, -16840, 29541, -6294, 6922},
{39897, -4869, 16301, -35969, 8124, -12307, -27291, -44354, 32638, 28717, -23463, -9125, -12891, -41651, -36514, 16923, 18726, 43063, 21251, 17515, 16131, 23571, -4894, 22002, -7750, -13044, 46676, -44752, -3065, -1707},
{33066, 38250, 5514, 11109, -3133, -34152, 39101, -44515, 27168, 23788, 25154, 34379, -43767, 6300, 9443, -8855, -11664, 25628, 22435, 39955, -25839, -11189, 5999, 27450, 3041, -25676, -36538, 5528, 22861, -42909},
{1133, 34115, -27838, -35612, 44070, 2223, 34561, 38543, -26312, -5117, -44069, 43051, -39574, 20977, 21242, -44132, 11881, 372, -49236, 56429, 7091, 6064, -27214, -2778, 28844, -60803, -18357, 9729, -17827, 9521},
{3861, 55291, -47890, -35975, 10564, 6647, -3, -29141, -16913, 89976, 14457, 45341, -46681, 34691, 13738, -41434, -8571, -76876, 22471, -6074, -6732, 25712, 20743, -5158, 13592, -2554, 50034, -2049, -22960, -8976},
{18456, 30945, 11835, -43396, -3756, -16220, -14723, 8711, -45643, -5223, 44888, -45915, 43443, -40315, -45464, -26594, 22572, 40499, -46274, -45965, 42184, 37689, 7176, -38373, -17633, 6029, -42035, 41013, -45642, -6703},
{-11360, 17886, 24870, 18937, 18176, -32191, 15403, 6975, 52097, 34695, 26556, -6680, 7746, -39988, -46304, -83809, -36445, -84856, -25947, 69012, 12818, -42259, -49794, -22132, -17986, 22802, -32255, -16152, 31602, 17712},
{3184, -34867, 6843, 25209, 42893, -30820, -9568, 39409, 35896, 17188, 26031, 14029, 35648, -14248, 33803, 23277, 30686, 14068, -22344, 36213, 23594, -27064, -17610, -4852, 345, -18584, 28670, 14776, -34191, -2211},
{-17269, 38788, -41613, -40370, -40184, 3031, 637, 17203, -49994, -10014, -41311, 31348, -21000, 34312, 1538, 55076, 7477, -12861, 27539, -45496, -28116, 37939, -4343, -28806, 31264, -29534, 21057, -6299, 40753, -32070},
{16461, -32940, 34155, 3756, 9408, -18596, 42120, 37314, -9700, 37186, -36257, -30888, 41762, -11758, 42704, 2541, -25090, -15480, -10295, -45944, -39410, -45014, -8131, -5845, -13555, -36408, 26605, 10636, -10674, -37945},
{-18360, -23823, -22777, -17733, 35583, 3418, 27270, -44196, -24882, 20844, -46027, -35669, 4949, -21891, 12879, -19507, -27242, -4096, -9172, -33013, -5352, -22123, -49087, 12370, -19148, 24989, -40970, -18533, 6977, -41889},
{6582, 22907, 4183, 9186, -631, 52564, 2680, -35127, -28777, -8940, -1885, -4064, -14504, -49154, 35546, 4116, 5122, 17726, 40984, -20762, -36554, -38207, -32668, -15695, -35586, 24733, -6724, -2099, -907, -14362},
{21443, 12080, -44498, 20892, 29715, 19909, 12240, -24386, 37056, -7667, -19390, -20644, 29626, 26654, -15425, -44780, -19980, 4148, -18010, -44848, -20211, -14553, 15054, -38821, -13119, 33119, -45410, 18292, -30234, -37214},
{3019, 28188, 34980, -37417, -53109, 28627, -7643, 24996, 13656, -29104, -45517, 13979, 26491, -986, -38527, 30883, -16671, 15109, -44329, -8998, 22106, -20442, 2073, -19512, 15902, 19161, -16198, 1185, 37844, -29744},
{11395, 39821, 37038, 23696, -2, -53412, 35882, -27918, 21660, 52286, -22151, -12186, -20604, -6054, 34617, 10118, -11991, -32158, 26269, -25775, -34289, 35014, -27866, -25895, -47800, -3713, -32287, 4766, 11664, -43351},
{4600, -38403, -32236, 43576, -37234, 42124, -2551, -52654, -908, 32412, -23939, 6202, -34280, -13195, 34152, -25429, -25071, 53076, -3122, 12593, 41986, 1138, 32173, -4687, -26316, -3560, 30191, -5809, 20286, -13739},
{2644, -1536, 42716, -18412, 39975, 3116, -23661, -19442, -25007, -9622, -6830, 30425, 23387, 27379, 226, 12761, -45011, 30626, -43597, 15999, 28282, 40994, 21744, -26272, 20078, 35007, 27444, -24041, 24669, 4607},
{15299, 15241, -42485, -14529, 23079, 15860, 27577, -43750, 31053, -3765, 9324, -32829, 16570, 21202, 28019, -28480, -40152, -1546, 37928, 12295, -22620, 34452, 44131, -20719, -150, -40886, 28211, -23184, -21235, -9028},
{-2482, 14955, -10488, 5261, -45890, -3925, -45396, 31194, -33863, 43994, -46201, -40615, 24765, 16871, -4568, 2237, 42991, 24204, 46374, 42025, 14165, 15690, -5216, -5298, -23084, 46848, -38249, 35155, 30041, -42959},
{13511, 48733, -35028, -3027, -8817, 18396, 25826, 24531, -6751, 301, 12469, 23109, 5689, -44096, -24155, -5445, 8555, -36164, 34428, -15540, 2874, 5667, 12211, 17793, -7659, 50423, 33729, -38326, -33275, 15080},
{45398, 75075, 51587, -40736, -42462, -5718, -20498, -9811, 13068, -2830, 32026, -38277, -23607, -46583, -17126, 32393, -14946, -40905, -5526, 28597, 34052, -52397, 35650, 1761, 11706, 16809, -8095, 23035, 19167, 31563},
{28225, -29125, 27154, -36651, 45644, 40310, 18349, 14541, -36147, -11202, -3381, -13051, -31696, 42438, 6508, 13715, -6069, 33825, 46766, -31956, 9192, -23330, 10363, -32026, 29257, -36271, -25664, -13090, -4194, 35001},
{-21489, 14023, 35479, 17366, 23051, -33951, -42244, -36831, -37850, 12300, -16770, -27277, -17597, 17469, 315, 183, 14756, 2442, -22795, 38445, 2239, -49408, -43413, 30189, 35155, 1732, 3650, 33392, 29521, -31060},
{-42009, -26038, 11071, -19675, -2201, 15556, -29359, 5912, 21674, -14457, 34407, -15646, 45658, -4196, 38136, 9311, -8388, 10052, 31893, 27441, -45217, 22579, 43676, 42562, -34885, -31552, 26134, -19910, -31231, 21085},
{12407, -26097, 455, 11139, -44982, -33749, 35850, -10785, -4767, -42136, -25511, -18993, -21300, -14903, -43154, 25286, 38516, 1412, 34917, 13789, 36502, -15119, -20230, -19278, -29976, 40518, 29155, -17605, 11818, 9756},
{22546, -46797, -18690, -1651, -14080, 41831, 13185, -398, -4996, -36884, -7763, -3903, 9863, -39985, 23325, 4891, -26378, 46181, 14332, 12698, 20110, 43492, 18723, -45930, -22881, -19418, 38515, -36172, 46139, -2000},
{27000, 15569, -52118, 5462, 41243, 51961, 1134, -49735, -31602, -32992, 40741, -40907, -29802, 14661, -821, -8807, 36318, -29220, -52092, 25050, 16943, 9508, -40711, -14217, 41354, -38902, -22763, -15193, -11232, -39333},
{37114, -23698, -27971, 430, -31075, 16965, -17645, -11184, -22087, -22634, 17794, -31666, -22853, 2175, -5827, 25969, 6664, 31784, -51787, 18190, -12322, 18766, -46768, 41364, 28471, 2812, -51567, -35175, 35377, 35043},
{-17590, 13979, 31513, 1011, -8916, 72, -4603, -15714, 45956, -1434, 29473, -10771, -34886, 11333, -3229, -14412, 36556, 2087, 21728, 39889, -4444, -45086, -11989, 3334, -12580, 26481, 37457, 32549, -38520, 38255},
{29054, 50420, 29758, -45653, 41887, -1173, 16799, 6003, -31342, 61379, -52835, -4425, -13680, 33733, -27935, 65580, 6240, -39719, -11829, -38738, -2659, 26300, 17479, 28472, 6255, -29341, 17750, -42129, -41347, -6616},
{-13754, -4130, 12919, -11925, 46434, -57925, -13390, -9366, 14866, -43241, 41016, -40375, -30670, 30152, 4259, -17788, 5555, -29729, -40290, 13460, 32422, -13911, 14776, -30718, 9853, 699, -44323, -21096, 23374, -31396},
{44945, 34247, -52196, -44675, -36887, -13167, 8654, -13262, 31, 10855, 9827, -5817, 28663, 11749, -6796, 11203, -3607, 9403, -11241, -8978, 11070, 31330, 32543, -37266, 13647, 51526, 23734, -8206, -18051, -27767},
{-29190, 23233, 27875, -30268, -29106, 10248, -8374, 12578, 44412, -64597, 29054, -14661, -25562, 36500, 42982, 19161, 25623, 23245, 8977, 63082, -10466, 21131, -4635, 28672, 84404, -1986, -44895, 16580, 42544, -40028},
{-3192, 4053, 33462, -5485, -28121, 41797, -42979, -3120, -2280, -687, 34542, -39193, 11212, -7295, -4901, 16524, 46129, 7402, -11035, 9732, 42620, -12907, -22936, -3620, 7432, -45110, -27023, 15855, -1834, 27797},
{-16604, 19860, 25997, 24955, 46061, 22854, 16711, -36348, -1520, -13038, 9918, 7567, -27599, 6707, -38471, 2428, 19145, -4879, 9035, 13033, 34531, 35704, -44802, 37635, 12356, 40185, -9894, -26351, 3298, -8616},
{24325, -20045, -43989, 5767, 19633, -6573, -20648, 14546, 29312, -33615, 39801, -45951, 15874, -51588, 29158, -22958, 31359, 47312, -49109, 52927, -13792, 38613, -14217, -20900, 56648, 14035, -24834, -15596, -3024, -34959},
{-21482, 21669, -11897, 20391, -15572, -67524, -46070, -24982, -2079, -3727, -42487, -15479, 45825, -23498, 39030, -25053, -15426, -14120, -22294, 34275, 21679, 28224, -40035, -27283, 62779, -38883, 5100, 29734, -13523, -29932},
{17556, -6694, -5650, -37888, 22619, -32959, -19917, -40014, 39931, 43018, -27627, 23864, 20526, -20087, 23757, -22981, 39336, 37690, 27379, -37681, -37562, 45688, -46491, -8889, -24634, 34029, 11446, -13492, -32634, -2622},
{-29224, -27967, -26743, 7134, -33696, -95614, -4774, -11082, 28932, 1235, -9299, 35803, 23916, 23115, 36320, -14841, 40097, -9586, -2964, 26477, 351, -4475, 29872, -46074, 53219, -45370, 36304, 27424, 31924, 15117},
{18977, 35038, -40822, -12977, -17011, -33561, 33866, 14607, 12208, -35369, 23007, 38991, -3077, 18315, -6941, 545, 37765, -44408, -43450, 32569, 21271, -17295, -14750, -43210, -36239, 13593, -34396, 44846, 19846, -9701},
{-43552, 12174, -41735, 6952, -2800, 30306, 5636, 11696, -9016, 47020, 35250, -29628, -5301, -31516, -38556, 38891, -45495, 43767, -43020, 14538, 4592, 39520, -12485, -39410, -49702, -14380, 37463, 25568, -20835, -24918},
{-20948, -26861, 2375, -2121, 45891, 39899, -13914, -5799, 2798, 28384, 43710, 15363, -30666, -30501, 24184, 18282, -42781, -3424, -20289, -12331, 19429, 2552, -41659, -4502, 37055, 30629, 31430, -24190, 41285, -31362},
{20218, 22183, -29638, -7065, 39896, -12848, -38598, 33179, -31085, 1391, 25299, -15725, -27894, -45694, -47366, -38208, 3062, 43835, -30894, -33427, -29511, -29350, -6918, -37555, 30157, -28878, -887, 3590, 36303, 32564},
{16875, 55181, 8941, -20855, -30965, -7363, -32290, -41027, -6972, 40061, 9492, -37148, 4956, -26125, -21447, -28263, -51364, 22080, -47342, -45380, 14132, -23456, -46279, -23105, 27262, 46458, -13297, 19851, -12726, -38462},
{1476, 12518, 29744, 38000, -32005, -33560, 38044, -37749, -11762, -26213, 16418, -40558, -13218, 42679, 46386, -30373, -39889, -17336, 16763, -36257, -9889, 28357, -31896, 16063, 30242, 22454, -43004, -403, 6994, 9294},
{13028, 48800, 3258, 28853, 14006, 42193, 14331, -22239, 20076, 15102, -8074, -36026, 42997, -9214, -40760, 16264, -46593, -42288, -35232, 32582, -33240, 32930, -15076, -2718, 15902, 9494, -22564, -35866, -14300, 14694},
{29111, 19420, -35246, 22720, -305, -33138, 6364, -34792, -25961, -58432, 29778, -4136, 35510, 28228, 37315, -33394, 28512, 11316, -13217, 79881, 45218, -11955, 10638, 11890, 60431, -37187, -34007, -15855, -8090, -45862},
{-41180, -24700, -8098, -17195, -44852, -17839, -31176, -21704, -31832, -14280, 25864, -45580, -34672, -37955, -8059, -14643, -38332, 8249, -7239, 27951, -5295, -30667, 7469, -50495, 17800, 18917, -4606, 6478, 23931, 6963},
{5822, 4125, -51034, 45019, -42946, -63448, 6387, 41103, 32491, -12836, -21477, 10257, 27241, -19768, -17819, -55235, -17863, -26698, -50057, 63366, 14782, 45624, 39860, 6499, -2456, 2144, -17922, -31854, -44083, -15540},
{-6195, 5789, -36362, 20576, -41254, 43349, -33832, -32713, 19534, -30363, -8085, 15493, 29758, 6576, -25180, -22674, -6483, -21536, 24109, -38604, 11491, -1629, 31697, -30661, -40623, 10317, 45929, -15333, 20175, 20409},
{16637, -26062, 21990, 17625, 16800, -909, 380, -17441, -33495, 35276, 1834, 37409, 14126, 29932, 11848, 27039, -10041, 14191, 22518, 14217, -14879, 24181, -6605, -42075, 15907, -37352, -10680, 15748, 20557, 2071},
{-43957, -19735, 1292, 36746, 28834, -44438, 22818, 19778, 15235, -14453, 42624, 33360, -34742, -22561, 19789, -11084, 29726, 42187, -41853, 6256, -16606, -25789, -50380, -27476, 82129, -16404, -24605, -20210, 4579, -24894},
{30593, 10675, -47808, 42754, 30595, -23830, 1914, 21475, -10426, -44716, 20217, -11815, 27061, 39119, 37956, -54693, 30066, -16853, -3566, 37878, 4965, -36736, -47629, -30574, 30605, -7903, 1353, 10492, 15205, 36309},
{3629, -29317, -39891, 14013, -23449, -26981, -45935, 9835, 35706, 9808, 25987, 20526, -46319, -12811, 19576, 36625, -45415, 431, -46145, -2657, -5725, -13571, -32494, -38290, -32246, 687, -21119, 38840, -32658, 4720},
{-10802, 7836, 33539, -27742, 43485, -58671, -44713, -13279, 28405, -14923, -32130, 12168, -22026, -22084, 30927, 4497, 3161, 11745, 35042, 55545, 40811, -49190, -36296, 3345, 3125, 44213, -38098, 46466, 10914, -24053},
{11006, -19727, 31838, -27149, -9235, 23651, 40437, 18076, 35087, -28195, -14664, 46685, -1892, -20962, 22162, 5197, 40785, 26737, -26867, -2694, -9259, 39174, -27628, 24587, -46449, -45874, 8056, 5765, 34659, -30608},
{-2864, 45767, 36573, 33174, -10855, 7558, -8880, -18182, -13880, 25439, -995, 39579, 12877, 40576, -14744, -15205, -14418, 46677, 30058, -33660, -22785, -41048, 28685, -32600, -11065, 19967, -30766, -22594, 19453, 6488},
{45632, 29874, -28513, -15389, 15784, -42877, 11046, -10857, 3929, 221, -6732, -155, 12828, -33139, -22788, -2832, 38787, -1181, 605, -10910, -39721, 31352, -19878, 9436, -12442, -15426, -10294, 12917, -30076, 37239},
{38267, 19761, -1798, -31616, 4957, 47652, -9021, 25953, -37596, 3820, -18318, 18776, 12228, -19220, -26655, 5031, -33256, 30839, 11974, -41865, -47763, -24375, 29701, 6288, -653, 19367, -41482, -15477, 25808, 30488},
{-13777, 32714, 29520, 35504, -48366, 21997, -48748, -22112, -1673, -33090, -4187, -13293, 2384, -7662, -40382, 37951, -35456, -20540, -28434, 30519, 39388, 6792, -17442, -21059, 24653, 14254, 6583, -9657, -9791, 34285},
{35879, -9685, -21496, 46815, 24598, 39224, 13108, 26194, 43448, -117, 34326, 28778, -34412, -45821, -38516, 26798, 14545, 18937, 14405, 32463, -15789, -13450, -36133, -31985, -31990, -22909, 2689, -38109, 29710, 39825},
{-34470, 18882, -20659, -12571, 26353, -854, -31309, 17497, -48209, -34151, -32669, -36819, 16405, 13355, -20310, 22465, 27307, 41134, 21442, -37683, 21920, -23229, 28300, -49801, 1009, 1635, 21037, 18780, -35203, -45208},
{1165, -37099, 38591, -33264, 7654, -71369, -42416, 24410, 12008, 8183, 37984, -21474, 20167, -8327, -11401, 17918, 6728, 60261, -39594, 31707, 34019, 40190, 35749, -11378, 52857, -50931, -20482, 38827, -16346, 31745},
{13329, 30951, -45769, 42681, 31591, 32596, 37193, -36253, 23315, -9154, -38204, 4294, -34109, -28673, -5725, -9825, -15659, 56317, -41839, 49938, 26539, -30312, 32887, 32849, 42061, -4022, 10034, -23278, -12188, -37900},
{13295, 33953, 21005, -40340, -15189, -2092, 24808, -1190, -12630, -56846, 31430, 31939, 21668, 45265, 33528, -42249, -42262, 17983, -6638, 55672, -47570, 41498, -28049, 14028, 21480, -66305, -30582, 6982, -19096, 5871},
{-32949, 12410, 44073, -15333, 3012, -8229, 29654, -15994, -15219, -22055, -17413, 19600, -39781, -33617, 17869, 31180, 32928, -5614, 26823, 25822, 31452, 46602, -27204, 38194, -25583, -23751, 25734, 34984, 20847, -16781},
{-34338, -40355, -1743, -40122, -44427, 12568, -15406, 7579, 29926, -462, -13630, -36398, -5225, 11095, 18111, 11509, 25034, -34397, -22756, -35841, -4969, 34460, -32506, 4952, 27031, -40554, -23760, 33, -12725, -16625},
{-45308, -27757, 5137, 10239, 8595, 6769, -8142, -19354, -11489, -60643, -30361, 7805, -43616, -34889, 4757, 24040, -40906, 8282, 36436, 47552, 28051, 18768, -3309, 7192, 3078, -14453, -31584, -19674, -8655, 11196},
{-5062, 69413, 26981, -24779, -48024, -73205, -16478, 40789, 42948, 11577, 17792, 28667, 20978, -18130, 31696, -58642, -6247, 5033, 42110, 66556, 46476, -19315, 34341, -27541, 32625, 1289, 4661, -42444, -29880, -29662},
{2880, -23181, -25079, 16143, 3670, -28426, 6676, 44235, -13743, 28586, 21891, -40963, -24209, 5819, 33067, 21518, -19344, 9615, -45500, 35574, 21519, 14999, -14950, 26993, 2341, -4343, -17583, -46598, -17527, -42471},
{37464, 49093, -8358, -46133, 3481, -19521, -34540, 33020, -34894, 19643, 30777, -38452, 30075, -24352, -42904, -67818, -38207, -23362, 18453, 70677, 19967, 10718, 16506, 27816, 64562, 17751, -4614, -21697, -39541, -16143},
{41870, -21673, 39239, -41921, -6694, 37859, 45329, -2198, -33950, 7484, 39431, -10955, -21332, 9939, 412, 43475, 24737, 34662, -22241, -1216, 10156, 19216, 4452, 24630, -18723, 22217, 8027, 14892, -40874, 17612},
{14183, -6029, -50407, 40377, -24430, 2188, 18746, 32532, 11479, 28738, -18105, 18137, 42781, -46222, -52396, -10525, 34412, 14711, 37737, 35599, 33515, 17421, 15974, -131, 20668, -7941, 28859, -27526, -168, -47293},
{19424, 39999, -37660, -19984, 68, 29083, 35005, 8205, -39494, -1504, 32525, -11832, -35274, 43195, -3495, 16489, -10518, -46009, -6114, 32110, 40812, -20129, -1733, 21836, 41401, 37682, -5005, 34807, -12357, -13571},
{-24339, 32005, -11671, -22624, -30015, 54493, -45654, 9178, 35907, 15492, 33542, 34053, -35875, -23411, 7507, 49888, -8165, 1824, -19625, -50910, -23228, 38401, 32958, -6881, -52242, 11699, -26168, 45488, 494, -33091},
{-7933, 42671, 14709, 45779, -30281, -12734, -15983, 14148, 31137, -12428, -11725, 11089, -6885, -24881, 40743, 15105, -9350, -14980, -25029, -15885, 34652, 10200, 34657, -40627, 26939, 18529, -44709, -17649, 20335, -21536},
{710, 41283, 43979, 41374, 44115, -31691, 44030, -33867, 17820, -19533, 22091, -1992, -13027, -26730, -4477, 12113, 296, -10058, 25745, 14249, 5237, -461, 23329, -12769, 26456, -14122, -6138, 20363, 15663, 22061},
{-52330, 28253, 16649, -42265, -40881, 44333, -15073, -13728, -1190, -10639, -24443, -19050, 27387, -17632, -48665, 22792, -22165, 18114, -26274, 15919, 9523, -36881, 20099, 7994, -18876, 33182, 20277, -24978, -19736, -45813},
{-39742, 33646, 34342, 37431, 25998, -30155, -20059, 27102, -19999, 47306, -47499, 32572, 35976, 27945, 32149, -76470, 1847, 2183, 33871, 77287, 4425, -681, 24847, 16802, -11157, 2268, -26614, -14418, 35806, 15620},
{-48282, -12585, -34890, 14520, -21755, 36998, 36368, -7677, -5768, -14790, -8651, 40014, 45733, 40464, -40826, -30244, 6534, -1556, -18674, -1660, -38191, -4734, -39406, 23638, -11996, -44024, 21003, 18475, -51908, -28451},
{10041, 26037, 5754, 44704, -6227, 9268, -1456, -37377, 20833, -29710, 5229, -20137, -24321, -37565, 6720, -45406, 25520, 43644, 12070, -14803, 28626, -11741, 25801, -14333, -4487, -7082, 45585, -12009, 29483, -41350},
{23507, 28956, -8567, -7558, -8634, 4003, 9594, -36679, 28972, 32281, 39998, 31325, -39759, 24430, -44744, -11704, -21998, 36109, 24240, -3581, 26246, 11663, -11071, -34291, 17340, 8778, 20839, -12948, -34815, -38022},
{14608, -11182, -39214, 4444, 22543, -14692, 40374, -33464, 6029, -36691, 20357, 39151, 43093, -22375, -30095, -41198, -18504, -8197, -39627, -9127, 7886, 43716, -15464, -38653, 5269, -7228, 31750, -342, -11642, 23428},
{-23496, -7966, -29970, 29197, 39610, -51647, -5724, 878, -8042, 39065, 16792, -46355, -9576, 3278, -51447, -27273, 6401, 6754, 38576, -8450, -30595, 39300, -21254, -3901, 30276, -43789, 39453, -28536, 2576, 2362},
{47536, 19374, 12627, -23023, -50985, -3093, 43096, -24396, 26138, -9681, 7902, -28103, 35466, -42049, -29060, 9291, -3770, -27455, -131, 28147, -14349, 2668, 5926, -27159, 33796, 2250, -3576, 17952, 21716, -42406},
{11871, 33919, 37999, -33199, 16064, 37023, -32732, 44077, 7855, -23442, 35326, 35638, 19710, 7340, 3439, -2531, -43951, 6933, -39134, 13847, -32730, 9840, -32774, 4756, -18266, 39798, -21569, -46859, 19264, -15926},
{-2412, 36413, 12780, 41796, -36437, -13510, 27174, 31679, 22378, -9906, -36911, -34379, 40404, 6593, 39742, 16495, 32813, -23179, -39988, 73683, 25139, -30687, 7083, 8532, 73104, 51044, 12096, -43258, 23897, -43801},
{1309, 1838, -253, -13603, -24698, -17238, 16058, -8759, 3563, 1580, 39504, 45265, -29098, -9048, 39823, -27341, 32232, 21391, -18232, 39922, 26119, 13968, -5210, 38581, -35278, -39706, 31869, -43589, -7310, -2161},
{-52367, 18421, 26465, 6224, -34266, -22025, 36439, -326, -55276, 49353, 29524, 760, -31484, -23041, 33426, 11765, 25667, 10472, -31488, 19371, 4571, -35488, -10955, -11150, -5724, 4576, -8046, -40225, -49711, -16217},
{-25414, -21485, -21507, 37967, -10937, 564, 44346, -39622, -4738, 31897, -37226, -6245, -32912, -5582, -16271, -31420, -29360, -13015, -23785, -44522, 36777, -30211, 1739, -16496, -45506, 29741, 22190, -28989, 45670, -11812},
{-11097, 37361, -43000, -7278, -5654, 9112, -9269, 10436, -11410, 49849, -39461, -14787, 6679, -42661, -52555, -26809, -52660, -36255, 12836, -16298, 16572, 21321, -28844, 43975, 13747, -32716, 13281, -39498, -9148, 3558},
{-25076, -41324, 26909, -24719, -21899, 18127, 14288, -46576, 1684, -30580, 19122, 17495, 43257, 5640, -41769, 5335, -4936, -18966, -26881, -33480, -974, 18513, 1615, -6505, -33713, 18110, -12183, 9920, -11882, -17136},
{-31058, -25434, 13235, -23384, 38550, -44593, -15130, 10393, -33798, -16790, -4778, 14332, -14120, -35115, 30487, 46852, 10427, -20081, -24663, 38079, -22016, -7330, -3829, 43196, -2318, -33490, 15099, 24445, -29509, -18205},
{3229, -26571, -43305, -39761, -47227, 5580, 33483, 27493, -48413, 33505, 5950, 41235, -32849, 22042, 7078, -1846, -49104, 28260, -41250, 3340, 19587, 5064, -833, -37447, 20243, 15860, -50826, -36392, -8803, 29338},
{-3486, -25678, -34385, 25879, 22196, 9500, -42809, -35638, -15460, 48048, 36829, -32176, 30208, -30405, -19475, -52829, 23179, -37785, -1397, -4032, -31974, -18136, 25404, 39693, 27226, -23276, 31007, -25306, -7976, 33464},
{14428, 35453, 21401, 11393, 8544, 14475, 17554, 27406, -4423, 12035, 32593, 20093, 8938, -33781, -31329, 19008, -11991, -41919, -14777, -11544, -16997, 39702, -39020, -13869, -27043, 41399, -55336, -42746, 23858, 31144},
{-10637, 46491, 5876, 6106, 3277, -1910, -5101, -11761, -33538, 23727, 23448, 28489, 12643, -39592, 14467, -24068, -30950, 1573, 41339, 55750, 8219, -30624, -99, 27150, 71666, -10935, 9055, -22396, -12012, 19837},
{-20278, -27038, 39304, -23337, -16339, -20631, -40659, -25963, 19659, -46448, 34189, 41676, -13982, 7431, -30160, 37683, 40741, -14889, 40474, -28505, 6845, 27241, 26445, -4829, -5606, 27404, -43035, 11136, -28664, 38958},
{-15854, 44923, 44944, -32081, 35397, -28010, -1574, -15900, 44126, 42549, 15790, 14813, -9239, -15076, -8827, -9597, 27573, 30166, 7353, 26438, -24498, 43388, -28656, 16672, -39793, 17716, 24844, -763, 7494, -27901},
{-36165, 29567, -15665, -46934, -13902, -60358, 23161, -13013, -14517, -23415, -49959, -7697, 298, -14643, -41445, -28000, -2109, 14444, 21307, 8020, 17876, -37974, -51994, -16449, 74703, 49738, -56012, 7832, 30948, 10276},
{7802, 13465, -40603, 41438, -14480, -7761, 35694, 28465, 42330, 55253, 19006, 38875, -19043, 3195, 35105, 15499, 10688, -26416, -32886, 49359, -45630, -2878, 50479, -30650, -5551, 12534, -39304, 23041, -11227, -45724},
{20913, 9567, -29743, -2269, 15893, -35479, -26134, 13880, 35800, 33682, 45259, 28443, 32642, 31814, -32977, 41806, -28225, -27430, -30497, 7871, 33554, 4814, 12659, 41646, -45708, -4945, 23437, -28894, -15936, -4532},
{13205, -6737, 3340, -11522, 5711, -27096, -6551, -1203, 1003, 59697, -37095, 10017, -46948, 21901, -4068, -37517, 39150, -34924, 16808, -2242, 30359, -4133, 38798, -34548, 12060, 24509, 16726, -37430, 5656, -19689},
{-4011, 43215, 38367, -1302, 15497, -9964, 33295, -7438, 19416, 16135, 33848, 42359, -1011, -35637, 33302, -7654, -14760, -36479, 22191, -8088, -10200, -18354, 1907, -6567, -32828, -27240, -7835, -9628, -9747, 45981},
{-22501, -27229, -44971, 39530, -13625, -14142, 7814, -9282, -11157, -9493, -11668, 22328, 13557, -4378, 16534, 41130, -18823, -627, 28050, 15092, 27318, -37699, -42109, -26337, 26484, 7799, 14330, -42935, 36977, 39168},
{-11381, -19440, -14382, -5246, 33920, -15975, 11404, 12755, 23648, 44505, 26428, 14666, -977, 31752, 41478, 33655, -2624, -15203, 36970, 26395, -2775, -36018, 28297, 15087, 27379, 26527, 20261, 3716, -16330, -33964},
{36754, 17590, 11247, 24205, 43564, -15208, 38625, 5960, -39076, 17, -33489, 4651, 17210, 38115, -35026, 32969, -13800, 45159, 15590, -63257, 23718, 36427, 26037, -41105, -28833, -11680, -4523, -44549, -18713, -47235},
{1394, -365, 20246, 3041, -42339, 39568, 34340, -52226, 21421, 18059, 1602, 18571, -41903, 35894, 30941, 33229, -37429, -19239, -34411, -37398, -20875, -48392, 18790, -22504, -33174, 49356, 33846, -25567, -47262, -13481},
{25596, 24096, 8791, -28257, 9877, 5419, 3923, -20162, -46835, 638, -34806, -6646, 12266, -34870, -46698, -24463, 24704, 45146, 12324, -35308, 38418, 26269, 24111, -45012, -33337, 9430, 26655, 30001, 37516, 10105},
{-984, 15575, 6185, -18342, 4865, 44061, 12834, -4798, -15173, 46895, -30495, -17478, -5802, -29425, -14495, 15570, 22847, 29665, -35509, 14791, 34773, 3745, -42291, 6450, -33320, 41013, 22873, -31749, -19187, -30802},
{-27280, 55985, 21234, 17235, 15467, -27009, -17182, 25575, 19699, -14584, 28397, -12811, -28206, -37961, 44136, 70170, -43360, -31160, 20329, -19991, 46899, -10126, 4742, 32507, 11088, -31920, -16051, 42341, -7937, 4105},
{-50570, -10566, -37916, -26186, -40077, 20965, 20587, 1747, -4510, 7381, -20019, -1100, 25945, 4333, -42687, 12567, 23688, 17766, -43656, 25937, 25490, 31415, -10415, 22400, -36429, 6142, 12751, 18631, 13923, 22533},
{-21148, -35028, -31644, -15799, -19049, -43454, 21906, -6238, 30005, -31235, -3456, -35426, 33603, -24627, -20997, -32205, 46549, 50975, 12942, 60750, 39693, -42024, 4792, -37104, 59515, -47366, 62797, -31994, 978, -43298},
{-43703, 8107, -2536, 22322, -16587, 29811, -44253, -28111, -41233, 32424, -27887, 31216, 28624, 434, -29450, -1368, 6059, 22200, 12178, 26268, 34031, -5624, 11620, -5401, -38335, 28383, 10248, -11304, -16269, 39542},
{-28095, 3773, -19815, -4167, 14823, 8332, -29971, 3762, -32956, 43077, 31976, -45106, -21782, -16230, -31069, -32155, -44555, -40626, 3648, 11917, 44816, -12176, 45989, -24204, -44597, 39943, -21514, 14031, -30825, -43716},
{-2223, -23938, -2443, -16047, 9082, -221, -31730, 19253, -25149, 5281, 16275, -17096, -11152, -44286, 1224, -44711, 49819, 28894, -39476, 9772, 21230, -15428, -35601, -11586, 66886, 20715, -37004, -1922, -19937, 29631},
{-8438, 44321, 34751, 36762, 20107, -47747, 38028, 26675, 37175, 25990, -25764, 847, 19103, 19563, -42197, -69298, -26154, -9797, -7997, 22784, 21236, 31407, 36384, 7231, 4224, 56037, 31449, -17560, -29708, 41714},
{13867, 32303, -12726, 43761, 10915, -33283, 36561, 2949, 43331, 19686, 40025, -13400, -42251, -41348, 21645, -1190, 42235, -46369, 44207, 44651, -31167, -23060, 37439, 2970, 44610, 3743, 39289, -46032, -31121, 8447},
{-29295, 57744, -8934, 8278, 43031, -5420, -31961, 37863, -18579, 53768, 21477, 2617, -30318, -4136, 34214, -28075, 10285, -60833, 2503, 15121, -26841, -6920, 35721, 45206, 13175, 59504, -58440, 42541, 6858, -39087},
{-19053, 24141, 6588, -803, -35860, 5531, -9802, 35126, -19152, 23655, 22797, 46669, 42584, 10031, 25021, -21022, -10921, -2367, -43632, 41682, -20973, -21572, 13513, -15284, 10230, 5845, -15044, 41004, -9310, -36048},
{12464, -10744, 23805, -19244, -33523, -7829, 2092, -469, 10142, -17850, 38425, 4756, -256, -16579, 31488, 22448, -29699, -2702, -36751, -15707, -24094, -31673, 1035, -20754, -32133, -40391, -40883, 3321, -50918, -13162},
{-28735, -22708, -4503, -33959, 20712, -26097, -31997, -46527, 4242, -46418, 1309, 41308, 25062, 36317, 24630, 41595, 25005, 176, -14170, -40293, -30183, 34696, -40665, 37817, 11073, 21018, -8873, 19689, 30616, -8498},
{-44445, 41923, 25842, -23416, 30353, 7986, 16301, -24258, -14405, -22977, 39661, -40597, -20234, 21335, 34534, -18624, -32824, 29477, -7564, -43949, -37331, -45818, -33655, 22914, -27395, 18819, -9740, 40770, 34931, -13181},
{-13472, 50678, -9626, 45229, -9531, 51134, -12771, -22609, -35556, -31508, -9204, 19924, 46052, -27190, 10848, 53446, -710, -13015, 33049, -17488, -42588, -20834, 32234, -35448, -33882, -17363, -12332, 11913, 35799, 14711},
{-36733, 16003, -40240, -21741, -213, 6379, -45735, 40099, 28057, -22604, -23011, -29731, -37578, 2568, -42647, 7914, -15877, 13489, -5067, 42075, -20072, 393, -13003, 33466, 14591, 40056, 17519, -932, -3097, -14457},
{-33661, 27292, -45848, 32542, -6133, -21501, -50198, -46357, 32531, -34653, -23405, -46237, -17767, 9617, 5860, 20509, 2024, -8077, -1552, 25370, -51985, 32695, -139, -30814, -35269, -41753, 11372, -17719, -41088, 35970},
{-32419, -42447, -30970, 28720, -36137, -39410, 1424, 32541, 44937, 10626, 12295, -19113, 27462, -44524, 45841, -23499, -15423, 14293, -6741, -12568, -28226, 8725, 44447, -42440, -26953, 15882, 24724, 18266, -1024, 8468},
{2917, -5456, -26608, -38012, 31260, 33760, 36446, 15685, -36370, 25389, -17009, -45681, 43018, 15874, 5833, 50795, 14808, -31558, -28570, -31237, 15344, 33321, 21035, -44155, 46191, -21665, -11861, 30702, 40184, -3334},
{-43613, -16509, 40767, 9342, 16463, -49186, 664, 33130, 9232, -37155, 38368, 45633, -27682, 12764, -31846, 18201, -27759, 55156, -23202, 53883, -16541, 20592, 26838, -9, 71822, -57692, 20155, 31866, -14659, 45130},
{1783, -4759, 28376, -692, 8807, -23103, 25313, -17757, 38950, -35155, -31422, -34331, 12698, 5494, 42002, -2562, 38813, -26840, 3931, 66, 28037, 40552, -43889, 33663, 14638, 15263, 2675, -11893, 44992, -25120},
{-40940, 12504, -13020, 29682, 29774, 35356, 29581, -10716, 28368, -41643, -2607, -19277, -6503, 15007, 43010, 36585, 1933, -37008, 35581, 25794, -39343, -33038, -5387, 6609, -7274, -2939, 2800, -16331, -21324, -28232},
{11385, -9516, 22819, 10948, 25364, -63329, 38622, -36233, 13688, -22283, -52454, -34343, 7253, -51686, -43994, -47304, -18409, 58497, -2880, 56823, -6923, -7068, 25833, -280, 54486, -33850, 22149, 42593, -2388, 31475},
{-12106, 31731, -10443, -28949, 35411, -29753, -7944, -570, 51177, -16039, 3009, 7384, 29198, -34660, 23429, -9948, -13638, -19649, -33986, -3258, 15147, -47308, 29401, 6046, 8763, 24740, -63337, -7683, -828, -45354},
{43720, 32658, 8975, 38619, 31987, 17527, -21068, 35355, 40832, -36739, -16451, 40276, 2832, 4234, 41132, -43654, 10320, 41166, 36205, -20344, 5464, 18938, -20335, -994, -3431, 11157, 18622, -3327, 29211, -20208},
{40882, 33769, -52481, 31258, -24417, -30088, -2548, -17858, 42999, -1301, -9075, -14576, -21332, 36213, 40744, -70260, 10788, -28337, 5338, 46256, -32124, -6322, -5696, -13964, 48912, 24012, -64513, 11495, 15122, 15242},
{17428, -36156, -44757, -25165, 3449, -2519, 43224, -3749, -28404, 16621, -45989, -22402, 22329, 28369, -1431, -5260, -42996, -41350, -35542, 45864, -37375, -1858, -34729, 7834, 10493, -29965, 845, -8326, 38470, -7361},
{-47636, 5627, 10481, 23407, -10695, -8337, -43164, -6864, -34506, -9902, 38717, 33350, -42340, 40134, -19836, 48702, -13118, 38920, -29502, 13965, -35381, -14809, 33376, -14460, 28914, -38581, -28167, 22169, -46683, -1831},
{14695, 10546, -18130, 18912, -19161, 21218, 32171, 25693, 44862, 12310, -27198, -9172, 29436, -14519, -17566, 11330, 20870, -60, 12948, -18026, -32637, 653, -11538, 3359, -29003, -30390, 32931, 33142, -34991, -31595},
{38312, 16559, 33964, -17712, -41451, 1981, 6397, -41088, -10682, 31021, -22715, 16556, 45650, -32182, 16606, -27723, -8860, 49210, -9945, -3352, -16257, -45937, -42841, 21714, -32478, -13481, -28443, 20088, -14872, 26986},
{-2695, -48228, 2353, 17923, -37805, 5088, 22556, -26766, -46189, 10288, 28139, -11381, 22508, -40616, -28127, 43260, -26340, -2680, 16687, -8148, 136, -43286, -10123, 37284, 40906, -38176, -3329, 20408, 1518, -24039},
{-6494, -19959, 19528, 34966, 8277, 13278, 28218, -29891, 32586, 8615, 34457, -37459, -39703, -37422, 35607, 3617, -10269, -32614, -13564, -25499, -27829, -39535, -27203, 30486, 19637, 43354, -22586, -10965, 26886, -5017},
{35841, -43745, 2952, 23656, -21788, -7935, -50210, -5040, 32955, -10508, 26973, -2645, -44989, -36136, 28015, -7190, -9391, -17051, 36801, -46402, 8770, -38205, 5637, -1427, 2344, -4914, 10056, 11111, -2970, 36478},
{-12682, -23311, 14501, -33262, -17452, -14262, 32540, -5904, -2846, -34460, -9855, -20144, 12332, -39989, -26485, 5202, 3212, -75794, -27587, 43822, -2109, 40, 13848, 7291, 94055, 57219, 2876, 13943, 26786, 28703},
{-4020, -55921, -50792, -43895, 8753, 16361, -20032, 28951, -51892, -17868, -39977, -30233, 21804, -17270, 20381, 13517, 4393, 10787, 22779, 18314, 51998, 20664, -24194, -35085, -1998, 29774, -11039, -41962, -3095, -41767},
{-5210, -48615, 39400, 8434, 33482, 9111, -21694, -31839, -37736, -75324, -45643, 29630, -1877, 29356, 16746, -36474, 789, 13797, -2803, 7494, 40684, 18302, 30021, -14806, 29249, 7118, -2701, 1885, -24945, -19801},
{-14610, -10954, -19993, 5584, -2956, -130, -25696, 35605, -22980, 34819, -37695, 15240, 38318, 12363, 15068, 44509, 7497, -12842, 45055, -30329, 28590, -38503, -37053, 85, 24359, -33300, -44439, 1708, -138, 9779},
{3909, -22641, -14111, 31709, 26462, -37856, -7811, -42463, 44684, -3163, 27097, 45250, -32646, -21078, -15322, 19324, 24719, 25913, 44725, -19122, -20918, -30677, 39721, 25986, -32793, -44126, -12873, 3364, 17880, 28661},
{-6581, -34688, -48942, -44468, -20733, -8113, -25631, 735, 34611, -14009, 18724, -19345, -9173, 30651, 27333, 10232, -20984, 47401, -31901, 29766, 197, -43824, 8241, 35361, 22533, -38623, -31365, -19441, -7855, -15875},
{-28635, 84655, 16251, -38023, 50594, 5860, -35186, -36327, 42251, 9308, 40790, -5505, -15862, 4195, 14031, -31112, -11989, -77679, -1844, 37245, 11034, -9466, -30128, -19854, 33359, 93586, 10612, 42421, -9695, 2614},
{26793, -2897, -40868, -10716, 15109, -2986, -16917, -37007, -4698, 36264, 28864, -3650, -13696, 5427, -4016, 28913, -38364, -20578, 16057, 45647, 14190, 46842, -27528, 31483, 26170, 35245, -40926, 30187, -16673, -11547},
{-8320, 47158, -52911, 11497, 23125, -16410, 37732, 35240, -16817, 6931, 3363, -46609, 39619, 31875, -46392, -10237, -6591, -24774, 7354, 56062, -26854, -20174, -46318, -35937, -21520, 41319, -65492, -27517, 45197, -15589},
{21620, -34044, 24201, -46167, -24258, -14070, -13191, 44409, 44654, 5201, 21266, 9515, 23443, 10342, 36819, 28012, 31905, -11313, 41552, -38126, -15330, -37733, 29266, -34569, 748, -1155, 13543, 4774, -20129, 27197},
{21974, -24333, -14471, -34902, -46737, 2743, -46533, -25672, -385, 8345, -33126, 6178, 8925, -15545, -19656, 39869, -50744, -34318, -11989, 19925, -40015, -25902, -10217, -10942, -23089, 48258, -15718, -31038, 5239, -46834},
{27418, -18926, -9356, -20270, -18775, -15178, 38985, -36343, -45550, 40795, 20991, -16985, 42641, -2974, 22525, 7937, 2393, 12675, -26309, -999, -23021, -27255, -23136, 14868, -31686, 4967, -22809, 5792, 7772, -43684},
{1847, 39433, -14421, 37140, -47397, 52644, 19130, -46470, -27532, 6930, 19232, 12884, 31749, -49825, -17923, 12176, -18380, 47562, -39588, -29313, -48747, 21756, 13514, -39537, 11188, 52346, -54964, -42075, 9480, -9760},
{10135, -21081, 26013, 4341, 11419, 55965, 1680, -23764, -15458, -17751, -51283, 26344, -13551, 15447, 13163, 34000, -36779, 39111, -2013, 29118, -52522, 14629, 32942, 12764, 2531, 43907, 30595, -20407, -1890, 29604},
{45821, 24991, -10418, -39552, 45652, 18049, 18189, -4381, 29104, -40180, -43719, -42012, -42265, 30192, 31230, -834, 3101, 19803, -37147, 44603, -10621, 10158, 2222, -32062, -22654, 18913, -37386, 8316, 45931, 16469},
{-46989, -35614, -3445, -12570, 3656, 19440, 2949, 18579, -18272, -46720, -47243, 26213, -20063, -6359, 17583, 626, -44494, -6022, -9895, -26474, 7891, 24005, -28816, 17114, -49933, 20187, -30517, 3607, 33044, -47013},
{17041, 38790, -38376, -26681, -39254, -79065, -30016, -26740, -18745, 2299, 20548, -33669, -3177, -7993, -25750, 7689, 32952, -10699, -33656, 26322, -36854, 26554, -13632, 29847, 22845, 34656, -48813, -45409, 25554, 23220},
{-17812, -10218, -14502, 33217, 22421, 23315, -5781, -1641, 44396, 56117, 15809, -3738, 40976, -36468, 29667, -352, -45954, -50106, -22366, -21466, -1402, -39307, -27078, 35974, 53474, 61137, -51479, -45803, -15196, -7052},
{18857, 38854, -8656, -2193, -1011, -34372, 39499, 5537, 25746, 7618, 29917, -11274, -128, 45883, 33282, 16543, -45032, 11100, 37076, 4716, -2492, -29144, 21238, 26947, 3944, -16120, -13169, 15221, 23364, -4643},
{39266, -13198, -26499, 20965, -5281, -922, 8425, 9243, 40315, 41793, 36916, 22541, -2360, -26722, 40219, 45905, -38011, -12625, 437, 30422, -5884, -29387, -19332, 38672, -29470, -6030, 46518, 31129, 14282, 9806},
{-20035, 42112, -27571, 4899, -4785, -10399, 6918, -36573, -14142, -18345, -15817, 28089, 20799, 34548, 15348, 44292, 36134, 16339, 36829, -29125, -36357, 42670, -32157, 5936, 14096, 29139, 9700, 1373, 30775, -33572},
{26528, -43181, 23856, -1193, -37152, -13004, -48728, -10927, 18026, -25965, 10235, 46957, -15442, -15659, -36958, 44730, -25899, -29197, -41653, 22457, -12541, -34754, 20890, 30416, 37182, -21515, -8891, 20239, 4443, -48083},
{-16027, 7968, 8161, -21107, -39517, -27845, 18450, 2255, -16922, 56681, -35399, -44072, -22074, -7497, -1539, -28723, 20728, -13883, 44969, 17430, 45698, -43240, -1981, 16024, 76543, -6186, 28922, 10281, -36066, -12070},
{13448, -45732, -42408, -11452, 9979, -32184, 21579, -31603, -42534, 43869, -16057, 16375, 2017, 10170, -24612, 16717, 19712, 38391, 41547, 31948, 8438, -26818, 5030, -45831, 17086, -2949, -8645, 41517, 22345, -13402},
{46915, 37189, -5890, -18239, 34415, -54264, 24864, -19433, 29495, -10108, -6523, -40681, -3887, -14011, 27161, -24482, 9313, -39953, -48456, 7220, -3712, -14758, -43203, 44076, 57802, 15829, 6231, 46312, 18675, -43420},
{25512, 4447, 5516, -18503, -643, 5352, 45615, -24834, 25221, -34549, 18224, -23392, 25575, 25393, -3137, -368, -28686, -8200, -7940, -16057, 27319, -11323, -2638, 20677, -35215, -36917, 29399, 40527, 43726, 11176},
{33381, 23481, -50467, 32057, 39512, 46523, -47271, -28216, -22043, 23664, 11631, -46064, -45666, -45103, -35098, -18369, -1683, -20477, -44355, 2738, -20153, 25622, -29749, -17915, 45316, 8226, 13825, 7834, -25783, -15341},
{11102, -9735, -22003, 38142, -30033, -13187, -5461, -36016, 41934, -40240, 16176, -11490, 41545, -23216, 23925, 4265, -30398, 37264, 6616, 43755, 41811, 33541, -24279, 16443, -3200, -16217, 4107, 12436, 30504, 12079},
{-276, -25496, -4067, 23994, 25666, -39615, -3390, -5961, 17643, 53426, -47967, 27232, -35160, 12260, 15961, -24600, -17262, -18892, -15023, -15896, 2033, 15354, 24613, 5438, -30151, -25190, 19740, -21001, 2713, -18227},
{-1795, -38749, 36057, 597, 22803, 333, -7521, -15395, -39216, 25840, 33738, -33276, 6083, -8713, 20409, -16961, -27791, 24462, 15418, 1723, 3517, -33876, 17353, 21017, 5772, -4966, -32815, -42018, 891, 27404},
{24576, 42317, 11107, 23219, 25957, 12543, 15860, 22390, -8765, -25966, -33990, 20663, 8482, -9846, 333, 19540, -39007, -17767, 34647, 29311, -39264, 14816, -10877, -26597, 16901, -33972, -8904, -40189, -29255, -13897},
{-18767, 8304, -14071, -28291, -46696, 22446, 5853, 3085, 19567, 44461, -31162, 4983, 14590, 35538, -8328, 27036, 4694, -16735, 31828, -46310, -24333, 34401, 1924, -22905, -7174, 38378, -35233, -6630, 20829, -22765},
{-16773, 21967, 18031, -18137, 50987, -47253, 32840, 41281, -23946, -11089, 24910, 6063, 22459, -32278, -5504, 12065, 42207, -13959, -3027, -1089, 291, -27971, -17124, 44212, 9061, 44787, 6903, 37132, 28935, 42183},
{15740, -20484, 38590, -9729, 24885, 49128, -24057, -45545, -32382, -23178, -12169, -2056, 40656, -46747, -12711, -27927, 30821, -29778, -39257, -39715, 44255, 17205, -8820, 29126, 41801, 58763, 23406, 17903, 8651, 13256},
{-34268, 47658, 35881, 39315, -26662, -49435, 30246, -3788, 33322, -23675, -12805, -33955, -18274, -19585, -1130, -5431, 32839, 24072, -5324, -11352, -15261, -12210, -27336, 10643, 34000, 30160, -9901, -11153, -30957, -3090},
{42733, 44785, -33199, -12733, 21057, 20260, -24293, -18390, -892, 511, 46654, 14717, 6093, -3398, -1607, 5112, -34976, 19154, 16485, -29937, 42913, 11530, 13274, -37926, -42305, 1849, 34046, -30323, -18139, 24543},
{-42618, -17640, -44551, -13548, -15977, -40383, 40185, 19340, -17453, -2482, -28271, -23235, -32001, 36397, -27455, 1965, -43736, -39618, -14745, -19672, 35955, -17016, -24918, 10650, 45890, -43977, 40002, -34176, -10198, -1250},
{16178, 31886, 38031, -35397, 23894, -25435, -43560, -26241, -41436, -23149, -3131, -6133, -33601, 30547, 38375, -2232, -5923, 45540, 13008, 26057, -22520, -16198, -41575, 37557, 46851, -17496, -20734, 28659, -39826, 25637},
{3459, 23123, -4947, 44141, -7262, -50476, 24794, -14370, -16226, 49453, -35964, 29842, 42945, 37549, 43681, -17340, 33639, -6283, 40333, 74445, 31159, -7218, -31113, 19825, 21068, 64527, -21797, 17395, 52246, -43235},
{-23998, 6597, -43779, 20383, 43304, 15710, -7929, -30000, 9722, 32490, -15685, 4030, -24183, 28886, 7749, 44622, 45481, -3830, -31226, -29423, -32246, -23359, 29843, 21463, -42653, 253, -43569, 27502, -9572, -42247},
{8272, -9865, -29838, 36844, -28957, -55037, -46927, -28465, 17791, 4430, -31872, -9949, 21019, -45993, -2095, -40356, -8466, -38936, -15280, 41925, 2965, -27865, 5985, -45049, 54102, -10561, 12781, 42195, 15850, 21781},
{35498, 11997, -38798, -11974, 726, 23136, 46283, -24297, -35301, -16732, -39572, -23024, -43675, -3920, -5047, 23400, 2902, -37910, 21203, -35686, -16879, -971, -17595, -38251, 21837, 13119, -12301, -20262, -1008, 17679},
{11769, -36509, -28057, -31012, -50348, -14267, 5481, 307, -31471, 39546, 34727, -12678, 37206, -22117, -6703, 13540, 8113, 12132, -34929, 5750, -10626, 23860, 25160, 1122, -42939, 31719, -36742, 1745, 4909, 27655},
{-41079, -807, -41444, 33734, 16001, -7045, 45748, 15841, 32887, -1563, -19177, 31031, 270, 25266, 20189, 45288, 11101, 3054, -41796, 16623, 33187, -5883, -25740, 10494, -28451, 39568, 21540, 27414, -33382, -26490},
{38694, -20589, 6251, 6148, -12697, 56461, -37922, -24788, -46415, -47014, -44557, -30323, 6189, -22140, 26470, 26529, 5765, 20606, -862, 33174, -44480, -24250, -51698, -12123, 8011, 48535, 17608, -38927, 10249, 20191},
{39290, 29437, 3168, 2508, 2402, -24135, -25534, -48265, -29121, 13805, 36555, -28122, -41539, -51904, -7211, -14176, 11556, -11814, -13549, -45496, 29971, -45175, 1494, 228, -22306, 25386, -35547, 41685, 28339, 11975},
{-37656, -25136, 16353, -15040, 33076, -5898, 13319, 36491, 6716, -657, 34421, 36531, -15749, -36802, 46279, -44994, 10256, 44812, -40361, -3945, 9868, -25791, 42074, 23554, 29924, 23267, 6649, -30450, -27346, -12787},
{-18481, -13386, 26046, 23029, 23436, 13597, -22050, -16282, -39817, 33981, -39298, -4758, 13448, 15976, 13200, 35862, -23775, 17159, 16979, -35828, 36095, -6734, -50145, -50335, -8412, 40451, -7140, 35202, -31321, -2558},
{4810, 50822, -883, 10559, 51693, 6615, 10015, -32096, 1699, 55077, 37659, 38859, -44511, 39135, 16420, -51773, 32703, -63805, -5973, -4330, 50703, 37276, -33170, -43292, 48433, 31840, 19452, -6161, 37994, 22488},
{16706, -5722, -20819, -7103, 23030, 6848, -50530, -19831, 20657, 34647, -19540, 4687, 8752, -32310, -35958, -19426, -20153, 3294, -45766, 2662, -39064, -42511, -21026, -34480, 33783, 25680, -33056, 37512, 10270, -36653},
{51171, 16349, -9058, -9177, 49016, -38096, -12271, 36032, 3306, 39868, -11742, 17678, 17583, 33561, -20755, -13904, 21433, -5939, -39559, 51061, -16501, -43852, 39976, 45380, 47908, -30012, -37533, -35959, 8277, -24581},
{-16768, 27166, 26667, -39121, -30405, -20691, 46679, -15159, -19358, 10357, 33022, -23771, 24669, -20601, -38937, 46390, 23833, -6206, -387, 16765, -4060, -34748, -7489, 2370, 18201, -33899, -3309, 20326, 41503, 45938},
{27738, -21700, 42897, -23000, 30956, -26498, -12494, -19217, -14635, 7368, -22045, 30671, -46228, 37314, 36762, 33898, -29664, -32232, 35663, -15223, -14709, -4804, 25270, -2442, -15802, 33465, -20200, -29929, 22040, -33420},
{-2172, 67665, 464, -28301, 40074, 11347, -31280, 32232, -38144, 32629, -36985, -45555, 18045, 17649, 13985, 12994, -28392, 12501, -17066, 31156, 50666, 39025, -7597, 18016, 56047, 55207, 32034, 19639, -8372, -32275},
{-1969, 14732, -28685, 26707, 6419, -49928, -9690, -31001, 52003, 18000, -22837, 17970, 32173, 27232, -21831, 4876, -47948, -37552, 33049, 23163, -25985, 32083, -4215, 26151, 45580, 31145, 9368, -24347, -26781, -35193},
{16684, -42487, -25343, -17635, 22574, -20537, -16050, 1375, 28999, 42103, 3968, -26552, 18834, -38593, 36587, -27346, 15106, 34740, 30403, -15731, 18665, 15102, -1559, -26855, 15237, 11531, 16899, -6585, -19363, -17280},
{31924, 28335, -8160, 24810, -4467, 9855, 26287, 13471, 10631, -14225, -7635, 39425, 16515, -29103, 25673, -68631, 20013, -12398, 17441, -13103, -22210, -4736, 12106, -5235, -2658, 8983, -3419, 44917, 18167, -34819},
{-34792, 43726, 36380, -14633, 17061, 4975, -24464, -35945, 26153, 2777, 5801, 35679, 32387, 29701, -26379, -46145, -23809, 45538, 2209, 4121, 6026, 4861, -25236, -30119, -42556, -46887, -38631, -19658, -6755, 23117},
{34070, -40452, -29324, -24812, -41550, -10906, 28256, -5101, 30394, -20453, -415, 43122, 21877, -12325, 12395, -5039, 9638, 35949, -3412, 34312, -49875, 25048, 9134, 19054, 6867, -24106, 21660, 30680, 3611, 10844},
{-37844, -39233, -5267, 8343, -5355, 38266, -35017, -38600, 9252, 38532, 45164, 17825, 41541, -6539, 39233, -29052, 328, 46275, 231, 43697, 19589, -25663, -32912, -22446, -7923, 32771, 2310, -24706, -13919, -28140},
{3161, 39357, -43723, 2859, 9924, -24547, 12520, 6128, -15316, 52471, 1801, -944, 38783, 5087, 36153, -14964, 19602, -26316, -20736, -40560, 33035, 34109, 21183, 11124, -44933, 44822, -45207, -37523, -16706, 21370},
{-20434, -12415, -32036, -33266, -41805, 13007, -25078, 14742, -47579, 13103, 13444, 13134, -6264, 30617, 14246, -19393, -42638, 13835, -12043, 28575, -12189, 14494, -31703, -36781, -32169, -4677, -22928, 21119, 3540, -3074},
{20756, -20707, 45379, -32367, -45544, -26905, 40711, 35281, -12874, 39936, -21798, 46088, -8726, -10482, 37910, 26087, -37305, 33072, 4686, 7561, 44878, -18325, -33022, -10309, 31690, 6579, 24408, 41370, -27019, -2066},
{-52198, 10171, -15282, 23987, -25419, 56652, 1263, -34502, 14621, -26448, 18739, 5481, 29454, 35689, 34287, -6249, -31535, 6672, 38746, -6148, -29541, -1934, 7888, 24148, -31014, 19640, -31435, 22737, 3358, -49975},
{-53939, 89813, -40814, 18436, 25073, 1763, 17839, -3261, -29603, -4232, -1884, -38599, 15584, -8507, 12009, -2331, -40718, -63026, 12437, -11834, 12789, -44072, -10371, 14197, -44312, 12565, 26844, 44650, 36629, -30619},
{16726, -37090, -36623, -17101, -45134, -25834, 14918, 14359, -32441, -2991, 30453, 14725, 21661, -50823, -49906, 38034, -26419, 22110, 31855, 52101, 7155, -19287, 11792, -6532, -11618, 17522, -19192, -25373, 3061, 7748},
{-8843, 9829, 16693, 40749, 11370, -343, 46330, -40499, 43156, 49734, -10418, 35753, 21991, 17048, 43220, -48057, 43526, -81195, -13484, 53840, 47892, -52873, -41293, -13622, 27553, 11536, 27505, 3696, -8921, -17629},
{-14070, -19084, -14796, 20125, -38157, 23871, -8236, 8705, 5220, -26820, 1045, -13792, 6061, 18700, 8132, -23095, 13721, 42336, -33153, -5177, 33032, 6793, 44232, -29100, 9851, 27969, -42226, 18616, 5358, 43788},
{-13397, -34337, 40511, -45276, 41476, -14625, 40738, -29188, 8458, 37927, 30698, 19742, -25310, -5943, 36796, -36555, 33496, -37009, -20448, 26624, -12499, -30854, -14429, 7061, -28844, -46388, 12043, -40456, 12786, 4206},
{-12250, 45431, -41204, -10937, 37574, 1441, -11531, 31062, 36657, 36489, -7930, 404, 28536, 25440, 24771, 534, 11061, -33600, -15201, 22986, 8222, -39128, 13305, -47440, -12367, -9758, -38134, 30880, -9728, -30622},
{-31649, 32330, 27899, -30917, 30846, -26787, -36615, 17062, 39573, 27022, 40148, -4569, -37076, 38903, -8249, -27186, -32507, 16911, 26219, -28760, -2405, -8339, -4238, 22985, 26615, 37055, 27414, 34878, 41953, 44330},
{10097, 12369, -9130, 3806, 42799, -1629, -45442, -17353, -31870, -7132, 31528, 22276, -24985, -18455, 34651, -10686, -41355, 12050, -15803, 35864, -263, 7903, 8902, -15697, 22000, -13297, -40864, -31456, 36924, -11063},
{11011, 20572, -39392, -14832, -28050, -8514, 39209, 17136, 4232, -8996, -20984, -14696, -19677, -41099, -14646, 6946, -15186, -65471, 46996, -4903, 24212, 37150, -14430, -13136, 52408, -11614, -33716, -46418, 20584, -11629},
{-36399, -37464, 11091, 43126, -36554, 36568, 26158, -4025, 31211, -32909, -43771, 26927, -29031, -22509, 44825, -32787, 18316, 40517, -19529, 2773, 7822, -38199, -17517, 1074, 10893, 6166, -42079, -22563, 27493, -19739},
{-37843, -10514, -19887, -34259, -34320, 59204, 9376, 31669, 19890, 14739, -32808, 15471, 5030, -35478, -40860, 47523, -37316, 27782, 38354, -35568, -2881, 32127, 9680, -20350, -30131, -23640, 11820, -25959, 16747, -19252},
{-3977, -16410, -44571, -7555, 16953, -39907, -8776, -39926, 35075, 37427, 32983, 20154, 10380, -14808, -25316, 6269, -1656, -32701, 9856, 23675, -32427, 2052, -24578, 30446, 32426, -45438, -46515, -11764, -30101, 22976},
{-39083, -23332, -44757, 20810, -12774, 41779, 34660, -46262, -14562, -40277, 11759, 15681, -32593, -48555, 20379, 15521, -48871, 11049, 16439, -14939, 25276, -36577, 13357, -14906, 3673, 42465, 9432, -6298, -1435, -28514},
{-4093, -17528, 37844, -22825, 34036, -5539, 30147, -41246, -22080, 45317, 14377, 14960, 30557, 3128, 17833, 2368, -43867, 12673, 7457, 32076, -11090, 37122, -26059, 40677, -14743, 36042, -20711, -26244, 4062, 26030},
{-6009, 34613, 41860, 36816, 25765, 25140, -10776, -15513, 46889, 41606, 26375, -21835, 29123, -38514, -18330, 865, -19378, -28084, -12269, -1698, 22125, 38491, 23300, 8833, 865, -9598, 5978, 22005, -10754, -18305},
{-6641, 20362, 40401, -9731, 18038, 57142, 32219, -14737, 36158, -36469, 1777, 37141, 41570, 35717, 10504, 2052, 28279, -19003, -34489, -21059, -27141, -18632, -42497, 26240, 3369, -37391, -5825, -23657, 19083, -52451},
{-756, 85032, 3170, -14168, -11364, -45126, 28798, -32154, -37344, 67575, 24791, -9628, -27090, 6667, -15989, -15154, 32301, -13837, -8247, -22064, 32488, -12730, 4450, 23643, 16814, 57183, -36481, 27932, -13227, 12659},
{28125, 70444, -404, 4520, 9834, -22087, -27152, 28187, -15149, 33245, -34231, 21117, -8441, -34989, 24362, -40821, -26497, 31750, -47110, -28584, 48926, -52591, 14843, -45568, -2139, 19631, -16763, 30445, 233, -31772},
{8886, 7383, -22357, 38820, -22304, -69248, -8751, -39555, -3742, 51943, 26509, 35413, 416, 2889, 20691, 31715, 16175, -68644, -4792, 30937, 29324, 41294, 31082, -43495, -20774, -54242, 51297, 39028, 26777, 26975},
{29768, 4070, -12951, -19182, -39478, -37778, 15509, -2291, -4496, 32563, -39758, 17147, 7913, -29819, 14282, -23361, -27611, -8423, 43187, -10379, -26924, 21720, 14809, 17398, 26512, 44013, -12551, 43091, 10172, -3834},
{33450, -33716, 3500, 41707, 9821, -28471, 28085, 17733, -27519, 34440, -39945, -21589, -5407, 1768, -2901, -2198, 19454, 15041, -37452, 26065, 40766, -33555, 7658, 38955, -32586, 9436, 1653, -31438, -40472, -42902},
{11531, 3039, 3331, -39974, 43737, -8562, 15252, -32506, 36929, 65492, -8064, 28055, -20444, -40147, -18412, 38114, 19952, -55346, -33578, 45384, 30772, -1108, 40294, -23659, -52298, 21896, 3961, -9313, -7905, 18249},
{36069, 26337, 30743, -40318, -1648, -2654, -13083, -29839, -27007, 77488, -6553, -17962, -4829, -30156, 36699, -42025, -11116, -63425, -42245, 17409, 48398, 18239, 25712, -24660, -35389, 12340, 53228, -38643, 26491, -19369},
{34693, 7960, 14786, -17268, 38845, 19994, 5257, -36853, -26272, -20620, 34260, 22609, 3557, 45738, -36592, 16239, 29756, 33005, 29352, 34899, -45567, -45330, -36303, -34294, -4733, 19747, -16161, -31275, -44016, 2570},
{-39156, 23242, -30939, -20888, 38604, -539, -31589, -27174, -31979, 74297, 6811, -1450, 30125, 1596, -46086, -41557, -13524, -6536, -40605, 5274, -23219, 35821, -43220, 6242, 58663, -40115, -41317, 9130, 8122, -40508},
{42473, -12950, -42999, 11218, 35701, -43246, 33788, 36569, -18825, -18076, 36054, -1332, -14945, -35459, 43287, -836, -27993, 31665, -2477, 13715, 5303, 11569, -18901, 19484, -13553, 3882, 43371, 33450, 44569, -22780},
{-4866, 34216, -36560, -17924, -23016, 9087, -21075, -19652, -14899, -6324, 434, -25584, -70, -27323, 6251, -5029, 32407, 7587, -14189, 5991, 18038, 37716, 7123, -2128, -1835, 36404, -25875, -23117, -45368, 23058},
{-14824, -45130, -43730, 36891, -39446, -16695, 19673, -40419, 35131, -24302, 36325, -20170, 22534, 8705, 32543, -1420, -45691, 37283, -22026, -15563, 4966, -13996, 2993, -5659, -33156, -32420, -12239, -21584, -27506, 1913},
{30963, 1417, 14320, -25296, -27383, 49302, -25695, -46142, -9421, -14944, 36717, -36992, -17944, -43268, -18271, -263, 9933, -17289, 7350, -45651, 40541, -22878, 14652, 10312, -18759, 35056, -36752, -36549, 4687, -39752},
{32251, -1531, -6855, 45542, -28688, 42505, -33549, 17829, 31427, -29916, 16903, -27349, 23011, -34055, 15473, 32088, -22816, 38560, -29838, -19760, -25628, -47039, -33217, -19865, 5586, 43864, 30258, 37627, 13268, -8668},
{-23768, -30169, -29635, 4890, -1637, 23982, -42053, -31854, -35395, 21722, 20083, -5649, 34283, -24387, -3466, -18279, -28032, -22556, 37831, -2339, 26738, 5840, 16091, 21913, 18524, 21780, 35459, -20474, -9616, -20650},
{-38811, -1835, 15687, 42712, -1019, 18474, -25694, -8769, 2737, 20542, -24351, -43473, 23860, -35657, -21807, 34137, 36148, 60126, -2516, -27642, -19566, -15638, -20344, -29739, 29363, 23985, 38335, -2939, -24110, -38438},
{1973, 8308, -31346, 20573, 11486, -36707, -12928, 4256, 41772, 46789, -5450, 6266, -21769, -25272, -15238, -23337, -15582, -24661, 22110, 59833, -35925, 35262, 1102, -36816, -59571, 22640, 44727, -40290, -12702, 35079},
{-13946, 16930, 3080, -12224, 32193, -39362, 19116, 18721, -49192, 35446, 24806, -10138, -45267, -18447, 30528, 43922, -8109, -46031, -26333, 40853, 27361, -40096, -12768, 35802, -28710, -16622, 22961, 20861, 47306, 9976},
{45225, 32377, -50162, -29490, 41636, 14596, -1867, 36913, 33999, 62635, -31928, 30269, -20944, 17255, -20291, -16130, 40152, -56640, -49973, 26904, 3021, -13254, -28182, -21332, -6267, -34401, -15390, 39110, -31890, 873},
{4025, 7416, -3634, 30827, -2253, 15565, -31480, -46312, 2644, -44972, -7908, -13509, -17428, 14050, 10420, -45372, -23841, 8320, -36897, 10473, 39096, -30077, 44929, -15488, -3903, 1223, -11158, 14888, 41385, 13511},
{-5735, 22327, 19740, 32067, -43706, 33695, 3789, 45038, 19345, 19165, -24134, -7509, -28187, 46185, 10349, 42506, 8066, -34969, 27858, 26161, 28074, 8659, -6028, -25962, -32269, 13009, 18966, -16145, -24282, 15031},
{-40466, 35426, 38393, 19407, 36369, -29988, 10235, -39546, 20224, 41792, -5745, -5420, 30557, 26223, 37350, -48589, 24875, -75871, 29517, 35728, 13895, -16657, -8508, -34762, -40332, 5177, -39834, -17677, -20371, 2728},
{-42868, 13881, -38746, -3407, -21960, -42472, 35753, -35915, -26106, 64707, 40748, -9841, -35887, 28547, -34117, 21321, -39445, -21585, -18795, 6998, 47065, -4092, -506, 39555, -25802, 13847, 41414, 17744, 31761, 5181},
{-22468, 44586, 41597, 15205, -42424, -31228, 1324, 17442, 19379, 25975, -26105, 23107, -18604, 4545, 3801, -33596, -45347, 24884, 22552, 1096, -35499, 37218, -7601, 35682, 19715, -104, -20093, 18778, 43343, 14702},
{-36284, 12877, 20380, 45022, 50065, -59752, 9368, -25555, -34333, 55184, 16979, -4661, -19193, -30363, -22659, 33124, -5665, -66779, 40623, 24133, 50839, -31525, 3343, 33653, 29530, 41952, -31595, -40031, 11159, 28783},
